Generation,Fitness,Hue,Weights_JSON
2,50,122.83,{"w":[[[0.58048315579071641,-0.095579759683459997,0.098619451746344566,0.9772820039652288,0.15055953478440642,0.37483013700693846,0.6984231430105865,-0.93589122220873833,-0.81625702884048223,0.17325919354334474,-0.58983441907912493],[0.94419330824166536,0.50020592659711838,0.95710550621151924,0.31078386632725596,0.84645930724218488,0.22588326968252659,0.12562756706029177,-0.26993286842480302,0.60825681546702981,0.56228225491940975,-0.027906089555472136],[-0.25417486904188991,-0.67693745484575629,-0.82737684994935989,-0.17812366178259254,-0.60068553313612938,0.70402323314920068,-0.35065694153308868,0.6392038962803781,-0.10933021362870932,0.082831467036157846,-0.67144605051726103],[-0.075684224721044302,-0.57614620309323072,-0.47297319769859314,0.35609734430909157,-0.96839772677049041,-0.74186312220990658,-0.40259536448866129,-0.89623588090762496,0.69283201731741428,-0.29716318007558584,0.8006619531661272],[-0.021454757545143366,-0.91407828778028488,-0.93784210737794638,0.81765380408614874,-0.74108564574271441,0.40693462546914816,-0.12074278714135289,0.56375069916248322,-0.46004210319370031,-0.34794620564207435,-0.44964542798697948],[0.6402792944572866,0.70107166282832623,-0.56138447392731905,-0.51530561083927751,0.40533195761963725,-0.6401785472407937,0.87464351207017899,0.030410509556531906,0.0047907545231282711,0.79271988943219185,-0.77068586740642786],[0.50709047028794885,0.18827998684719205,-0.46676205703988671,-0.59415531763806939,0.14050792250782251,-0.40169658558443189,-0.85890914918854833,0.041125860530883074,-0.74492079252377152,0.54685326432809234,-0.046922650653868914],[-0.14793896256014705,-0.59861539211124182,0.053979040123522282,-0.04979991028085351,-0.63770136702805758,-0.054439650848507881,0.63208798691630363,0.49345397250726819,-0.61031792173162103,0.98326811008155346,0.99658468086272478],[-0.51536048483103514,0.60209550941362977,-0.19657628051936626,0.31851681508123875,-0.66192441340535879,-0.42082087462767959,-0.637535628862679,0.74021963588893414,0.47592470329254866,-0.22858988726511598,-0.72179267928004265],[0.50984450941905379,0.89118186244741082,-0.28156455606222153,0.13172130798920989,-0.8527667592279613,-0.044302481226623058,-0.81963359145447612,-0.39685525884851813,0.20509103359654546,-0.57569358078762889,0.69214506028220057],[0.8960400652140379,0.78185540204867721,-0.091147229541093111,-0.28294248273596168,-0.7679439471103251,0.94294140767306089,0.61235108645632863,-0.3316413089632988,0.68721906235441566,-0.56750781321898103,-0.067633249331265688],[-0.27804303914308548,-0.95660688541829586,0.50891696382313967,0.49290604842826724,-0.66016953391954303,-0.55538567109033465,-0.31640872312709689,0.92345845513045788,-0.44947066158056259,-0.69613793073222041,-0.71393870562314987]],[[-0.99617588752880692,0.067244038917124271,-0.1532580335624516,0.2335009602829814,0.0048974538221955299,-0.64854454528540373,0.25096458150073886,0.71772842342033982,0.085677203722298145,0.55082421470433474,0.31705172965303063,-0.99538177158683538],[-0.88535065110772848,-0.84574740659445524,0.45434628007933497,-0.99639579420909286,-0.64157272921875119,-0.76810282096266747,-0.65784292249009013,-0.94356312835589051,0.80504615465179086,0.085011651273816824,0.59016682766377926,-0.36709125339984894],[0.29176265792921185,-0.95759357511997223,-0.34530802816152573,-0.8323495127260685,-0.66036420501768589,0.17198213562369347,0.37050629360601306,0.27332813432440162,0.057784275151789188,-0.71468166634440422,0.53954289667308331,-0.63406034372746944],[-0.3471034774556756,-0.61181379482150078,0.26931550027802587,0.65232987934723496,-0.92703810567036271,-0.38276738161221147,-0.11011319607496262,-0.17232889588922262,-0.071123957168310881,0.63834031205624342,-0.58755618520081043,-0.022676007822155952],[0.93866006936877966,0.14271343545988202,-0.74861083645373583,0.19850604329258204,-0.45034162187948823,-0.91589097213000059,-0.48855638643726707,0.81398184038698673,0.66593784093856812,-0.3595357839949429,0.9851342961192131,-0.3826970849186182],[-0.13103629974648356,-0.7581213666126132,-0.037636556196957827,0.10568136861547828,0.37897991528734565,0.48075785487890244,-0.7971372059546411,-0.57475215895101428,-0.86535112792626023,0.14390457328408957,-0.31571573298424482,0.65574716730043292],[-0.44680638704448938,-0.22891991771757603,0.44154657190665603,-0.7715416457504034,0.95076583372429013,0.26454856712371111,-0.44880715804174542,0.091708125546574593,0.23340833559632301,0.4744706735946238,-0.21527861710637808,0.26173878600820899],[-0.35242135496810079,-0.52964959619566798,-0.54911356093361974,0.2191087412647903,-0.41887472290545702,0.98946299031376839,0.58454424841329455,0.3630281244404614,-0.3292279252782464,-0.31799935270100832,-0.72482111258432269,-0.15543705131858587]],[[-0.96750627411529422,-0.080046117305755615,-0.92238344112411141,0.53347427491098642,-0.92742685135453939,0.49031612323597074,0.53468722966499627,0.051191269885748625],[-0.71820239629596472,-0.40056938724592328,0.74378285696730018,0.5866394555196166,-0.59937652293592691,-0.88737451564520597,0.33512517670169473,-0.4945620009675622]]],"b":[[[0.46102374605834484],[-0.84071469306945801],[0.7645479622296989],[-0.63020598422735929],[0.1368250260129571],[0.26986946491524577],[0.32481599552556872],[0.97626024158671498],[0.68856454221531749],[-0.41961740422993898],[0.22481019981205463],[0.72888492234051228]],[[-0.987753682769835],[-0.82153488183394074],[-0.67743746610358357],[0.096212758217006922],[0.69108323007822037],[0.8910014983266592],[-0.59557134937494993],[-0.74329253472387791]],[[0.18362163193523884],[0.99809295730665326]]]}
3,50,122.83,{"w":[[[0.58048315579071641,-0.095579759683459997,0.098619451746344566,0.9772820039652288,0.15055953478440642,0.37483013700693846,0.6984231430105865,-0.93589122220873833,-0.81625702884048223,0.17325919354334474,-0.58983441907912493],[0.94419330824166536,0.50020592659711838,0.95710550621151924,0.31078386632725596,0.84645930724218488,0.22588326968252659,0.12562756706029177,-0.26993286842480302,0.60825681546702981,0.56228225491940975,-0.027906089555472136],[-0.25417486904188991,-0.67693745484575629,-0.82737684994935989,-0.17812366178259254,-0.60068553313612938,0.70402323314920068,-0.35065694153308868,0.6392038962803781,-0.10933021362870932,0.082831467036157846,-0.67144605051726103],[-0.075684224721044302,-0.57614620309323072,-0.47297319769859314,0.35609734430909157,-0.96839772677049041,-0.74186312220990658,-0.40259536448866129,-0.89623588090762496,0.69283201731741428,-0.29716318007558584,0.8006619531661272],[-0.021454757545143366,-0.91407828778028488,-0.93784210737794638,0.81765380408614874,-0.74108564574271441,0.40693462546914816,-0.12074278714135289,0.56375069916248322,-0.46004210319370031,-0.34794620564207435,-0.44964542798697948],[0.6402792944572866,0.70107166282832623,-0.56138447392731905,-0.51530561083927751,0.40533195761963725,-0.6401785472407937,0.87464351207017899,0.030410509556531906,0.0047907545231282711,0.79271988943219185,-0.77068586740642786],[0.50709047028794885,0.18827998684719205,-0.46676205703988671,-0.59415531763806939,0.14050792250782251,-0.40169658558443189,-0.85890914918854833,0.041125860530883074,-0.74492079252377152,0.54685326432809234,-0.046922650653868914],[-0.14793896256014705,-0.59861539211124182,0.053979040123522282,-0.04979991028085351,-0.63770136702805758,-0.054439650848507881,0.63208798691630363,0.49345397250726819,-0.61031792173162103,0.98326811008155346,0.99658468086272478],[-0.51536048483103514,0.60209550941362977,-0.19657628051936626,0.31851681508123875,-0.66192441340535879,-0.42082087462767959,-0.637535628862679,0.74021963588893414,0.47592470329254866,-0.22858988726511598,-0.72179267928004265],[0.50984450941905379,0.89118186244741082,-0.28156455606222153,0.13172130798920989,-0.8527667592279613,-0.044302481226623058,-0.81963359145447612,-0.39685525884851813,0.20509103359654546,-0.57569358078762889,0.69214506028220057],[0.8960400652140379,0.78185540204867721,-0.091147229541093111,-0.28294248273596168,-0.7679439471103251,0.94294140767306089,0.61235108645632863,-0.3316413089632988,0.68721906235441566,-0.56750781321898103,-0.067633249331265688],[-0.27804303914308548,-0.95660688541829586,0.50891696382313967,0.49290604842826724,-0.66016953391954303,-0.55538567109033465,-0.31640872312709689,0.92345845513045788,-0.44947066158056259,-0.69613793073222041,-0.71393870562314987]],[[-0.99617588752880692,0.067244038917124271,-0.1532580335624516,0.2335009602829814,0.0048974538221955299,-0.64854454528540373,0.25096458150073886,0.71772842342033982,0.085677203722298145,0.55082421470433474,0.31705172965303063,-0.99538177158683538],[-0.88535065110772848,-0.84574740659445524,0.45434628007933497,-0.99639579420909286,-0.64157272921875119,-0.76810282096266747,-0.65784292249009013,-0.94356312835589051,0.80504615465179086,0.085011651273816824,0.59016682766377926,-0.36709125339984894],[0.29176265792921185,-0.95759357511997223,-0.34530802816152573,-0.8323495127260685,-0.66036420501768589,0.17198213562369347,0.37050629360601306,0.27332813432440162,0.057784275151789188,-0.71468166634440422,0.53954289667308331,-0.63406034372746944],[-0.3471034774556756,-0.61181379482150078,0.26931550027802587,0.65232987934723496,-0.92703810567036271,-0.38276738161221147,-0.11011319607496262,-0.17232889588922262,-0.071123957168310881,0.63834031205624342,-0.58755618520081043,-0.022676007822155952],[0.93866006936877966,0.14271343545988202,-0.74861083645373583,0.19850604329258204,-0.45034162187948823,-0.91589097213000059,-0.48855638643726707,0.81398184038698673,0.66593784093856812,-0.3595357839949429,0.9851342961192131,-0.3826970849186182],[-0.13103629974648356,-0.7581213666126132,-0.037636556196957827,0.10568136861547828,0.37897991528734565,0.48075785487890244,-0.7971372059546411,-0.57475215895101428,-0.86535112792626023,0.14390457328408957,-0.31571573298424482,0.65574716730043292],[-0.44680638704448938,-0.22891991771757603,0.44154657190665603,-0.7715416457504034,0.95076583372429013,0.26454856712371111,-0.44880715804174542,0.091708125546574593,0.23340833559632301,0.4744706735946238,-0.21527861710637808,0.26173878600820899],[-0.35242135496810079,-0.52964959619566798,-0.54911356093361974,0.2191087412647903,-0.41887472290545702,0.98946299031376839,0.58454424841329455,0.3630281244404614,-0.3292279252782464,-0.31799935270100832,-0.72482111258432269,-0.15543705131858587]],[[-0.96750627411529422,-0.080046117305755615,-0.92238344112411141,0.53347427491098642,-0.92742685135453939,0.49031612323597074,0.53468722966499627,0.051191269885748625],[-0.71820239629596472,-0.40056938724592328,0.74378285696730018,0.5866394555196166,-0.59937652293592691,-0.88737451564520597,0.33512517670169473,-0.4945620009675622]]],"b":[[[0.46102374605834484],[-0.84071469306945801],[0.7645479622296989],[-0.63020598422735929],[0.1368250260129571],[0.26986946491524577],[0.32481599552556872],[0.97626024158671498],[0.68856454221531749],[-0.41961740422993898],[0.22481019981205463],[0.72888492234051228]],[[-0.987753682769835],[-0.82153488183394074],[-0.67743746610358357],[0.096212758217006922],[0.69108323007822037],[0.8910014983266592],[-0.59557134937494993],[-0.74329253472387791]],[[0.18362163193523884],[0.99809295730665326]]]}
4,165090,182.73,{"w":[[[0.73297429643571377,-0.92498462554067373,-0.35380122996866703,-0.69975732639431953,-0.16701637580990791,0.31421531271189451,0.38372848881408572,0.2394806076772511,-0.71954042417928576,0.42050177184864879,-0.33481267327442765],[0.73539964063093066,-0.47286346694454551,-0.35465343296527863,-0.059505336917936802,0.59613929968327284,0.8945404589176178,0.76779693784192204,0.36378264194354415,0.14731995295733213,-0.72161600552499294,-0.44558168342337012],[-0.99766572844237089,-0.95695751719176769,0.0026042512618005276,0.54249097686260939,0.28132600616663694,0.043820896185934544,0.23498193314298987,0.77974930265918374,-0.96011137077584863,0.86876352643594146,-0.64596509374678135],[0.21192432474344969,-0.77569777332246304,-0.013164414092898369,-0.025774602312594652,0.43051751283928752,0.57861949130892754,0.89153243182227015,0.33678349060937762,-0.63836234854534268,0.50947679718956351,-0.15450538229197264],[-0.6745881550014019,0.72256452217698097,0.48640974052250385,-0.57500281278043985,0.46649224450811744,0.49698698567226529,-0.71108431229367852,0.064576978795230389,0.93342452822253108,0.66805601865053177,-0.72866017697378993],[-0.11915229307487607,-0.84101690445095301,0.96527588134631515,0.33382841758430004,-0.38662947108969092,0.11977266659960151,-0.49614483024924994,-0.68503284314647317,0.98358780518174171,0.063882479444146156,-0.32725952565670013],[-0.49557573720812798,-0.37874788278713822,0.29933286691084504,-0.82145533058792353,0.64703593915328383,0.36820875015109777,0.31915548909455538,0.55041946051642299,0.75388219021260738,-0.70219757873564959,0.64853246277198195],[0.020293319597840309,0.30282469186931849,0.26512423390522599,0.45112127810716629,0.83121745241805911,-0.064317876938730478,0.29344896227121353,-0.24198451731353998,0.41862244671210647,0.045003907755017281,0.3179292343556881],[0.14549922151491046,-0.045680094044655561,0.52513040136545897,-0.076618761289864779,0.29156884783878922,-0.68112700525671244,-0.56856403825804591,-0.016450982540845871,0.74156526755541563,-0.79981000674888492,0.88519894238561392],[0.072636495810002089,0.98581587802618742,-0.21611718228086829,0.033308155369013548,0.87743499735370278,0.47893481468781829,-0.0015363283455371857,-0.5148338251747191,-0.52460053656250238,0.29159098258242011,0.23567617265507579],[0.2113234824500978,0.027188043110072613,-0.65026677586138248,0.72917825495824218,0.30959347588941455,0.10435823258012533,-0.17832195432856679,-0.29181405249983072,-0.38161650067195296,-0.75035391096025705,0.31512592639774084],[0.00021641375496983528,0.77901757741346955,-0.51243487745523453,0.76882504904642701,0.73998192185536027,-0.25369188701733947,0.068535253871232271,-0.33062008814886212,-0.43539820332080126,0.72683037025853992,0.72311032423749566]],[[-0.71393445879220963,0.57438349025323987,-0.3691923851147294,0.1379109239205718,0.44468091707676649,-0.015712780877947807,-0.64713463652879,-0.68032208643853664,0.32923786994069815,0.33273938437923789,-0.12763683637604117,0.019977298565208912],[0.66825688118115067,0.32098774891346693,-0.2005154425278306,0.45830855146050453,-0.85122386552393436,0.41467784671112895,-0.65994908567517996,-0.80898656090721488,-0.43549931235611439,0.78383113257586956,-0.62781936442479491,0.92622910626232624],[0.8853082749992609,-0.88784883031621575,-0.56069526774808764,-0.34750255197286606,0.26824228139594197,0.66714673629030585,-0.54969310620799661,-0.43896141368895769,0.58702075714245439,-0.34310868475586176,-0.11453068256378174,0.73638718668371439],[-0.56006308877840638,-0.46858044806867838,0.25193916261196136,0.17180509120225906,0.57285503298044205,0.17536487942561507,-0.7255191127769649,-0.26078570960089564,0.78971127001568675,-0.25759487366303802,-0.29717890545725822,0.80699342070147395],[-0.7404712256975472,0.98600898776203394,0.38387628132477403,0.20327115012332797,0.85154398251324892,-0.31384552177041769,0.38885578094050288,0.36483548302203417,-0.57516689551994205,-0.72919759014621377,0.24705175636336207,-0.22169435117393732],[0.45911170681938529,-0.20344489580020308,-0.4234689399600029,0.83751250058412552,-0.50314079178497195,0.20439390046522021,0.77917585568502545,0.95572654018178582,0.90833655977621675,-0.05435884976759553,0.74209287250414491,0.18462056759744883],[0.74002872640267015,-0.36987162427976727,0.26784180896356702,-0.14238092768937349,-0.78501164680346847,0.40382068464532495,-0.59491182770580053,-0.80105543462559581,-0.56820741854608059,-0.068123008124530315,0.178683090955019,0.63244419731199741],[-0.11517393868416548,-0.41008850419893861,0.26544885989278555,0.69257942726835608,-0.39178843051195145,0.35436112526804209,-0.91785458568483591,-0.33723644213750958,0.25078888144344091,0.25961869256570935,0.1489600520581007,0.74072123365476727]],[[-0.23495197668671608,0.79092161962762475,-0.96192080760374665,0.73165308544412255,-0.30287328315898776,0.76264050742611289,0.83593719871714711,-0.67832911806181073],[0.035229813307523727,0.99189818650484085,0.58858519280329347,0.46684444742277265,0.29848660062998533,-0.32348656933754683,0.16363896848633885,0.043351786211133003]]],"b":[[[-0.84725114284083247],[-0.95934173371642828],[-0.22700629360042512],[0.395973801612854],[0.64361347490921617],[0.40899253031238914],[0.9650929975323379],[0.85085156979039311],[0.15327931335195899],[0.13311475841328502],[-0.5656591565348208],[0.081583546474575996]],[[-0.59089453099295497],[0.10993414372205734],[0.82292208541184664],[-0.11403665505349636],[-0.11409363942220807],[-0.85631028981879354],[-0.47113635111600161],[-0.860950390342623]],[[-0.69293326651677489],[-0.30108822660986334]]]}
5,165090,182.73,{"w":[[[0.73297429643571377,-0.92498462554067373,-0.35380122996866703,-0.69975732639431953,-0.16701637580990791,0.31421531271189451,0.38372848881408572,0.2394806076772511,-0.71954042417928576,0.42050177184864879,-0.33481267327442765],[0.73539964063093066,-0.47286346694454551,-0.35465343296527863,-0.059505336917936802,0.59613929968327284,0.8945404589176178,0.76779693784192204,0.36378264194354415,0.14731995295733213,-0.72161600552499294,-0.44558168342337012],[-0.99766572844237089,-0.95695751719176769,0.0026042512618005276,0.54249097686260939,0.28132600616663694,0.043820896185934544,0.23498193314298987,0.77974930265918374,-0.96011137077584863,0.86876352643594146,-0.64596509374678135],[0.21192432474344969,-0.77569777332246304,-0.013164414092898369,-0.025774602312594652,0.43051751283928752,0.57861949130892754,0.89153243182227015,0.33678349060937762,-0.63836234854534268,0.50947679718956351,-0.15450538229197264],[-0.6745881550014019,0.72256452217698097,0.48640974052250385,-0.57500281278043985,0.46649224450811744,0.49698698567226529,-0.71108431229367852,0.064576978795230389,0.93342452822253108,0.66805601865053177,-0.72866017697378993],[-0.11915229307487607,-0.84101690445095301,0.96527588134631515,0.33382841758430004,-0.38662947108969092,0.11977266659960151,-0.49614483024924994,-0.68503284314647317,0.98358780518174171,0.063882479444146156,-0.32725952565670013],[-0.49557573720812798,-0.37874788278713822,0.29933286691084504,-0.82145533058792353,0.64703593915328383,0.36820875015109777,0.31915548909455538,0.55041946051642299,0.75388219021260738,-0.70219757873564959,0.64853246277198195],[0.020293319597840309,0.30282469186931849,0.26512423390522599,0.45112127810716629,0.83121745241805911,-0.064317876938730478,0.29344896227121353,-0.24198451731353998,0.41862244671210647,0.045003907755017281,0.3179292343556881],[0.14549922151491046,-0.045680094044655561,0.52513040136545897,-0.076618761289864779,0.29156884783878922,-0.68112700525671244,-0.56856403825804591,-0.016450982540845871,0.74156526755541563,-0.79981000674888492,0.88519894238561392],[0.072636495810002089,0.98581587802618742,-0.21611718228086829,0.033308155369013548,0.87743499735370278,0.47893481468781829,-0.0015363283455371857,-0.5148338251747191,-0.52460053656250238,0.29159098258242011,0.23567617265507579],[0.2113234824500978,0.027188043110072613,-0.65026677586138248,0.72917825495824218,0.30959347588941455,0.10435823258012533,-0.17832195432856679,-0.29181405249983072,-0.38161650067195296,-0.75035391096025705,0.31512592639774084],[0.00021641375496983528,0.77901757741346955,-0.51243487745523453,0.76882504904642701,0.73998192185536027,-0.25369188701733947,0.068535253871232271,-0.33062008814886212,-0.43539820332080126,0.72683037025853992,0.72311032423749566]],[[-0.71393445879220963,0.57438349025323987,-0.3691923851147294,0.1379109239205718,0.44468091707676649,-0.015712780877947807,-0.64713463652879,-0.68032208643853664,0.32923786994069815,0.33273938437923789,-0.12763683637604117,0.019977298565208912],[0.66825688118115067,0.32098774891346693,-0.2005154425278306,0.45830855146050453,-0.85122386552393436,0.41467784671112895,-0.65994908567517996,-0.80898656090721488,-0.43549931235611439,0.78383113257586956,-0.62781936442479491,0.92622910626232624],[0.8853082749992609,-0.88784883031621575,-0.56069526774808764,-0.34750255197286606,0.26824228139594197,0.66714673629030585,-0.54969310620799661,-0.43896141368895769,0.58702075714245439,-0.34310868475586176,-0.11453068256378174,0.73638718668371439],[-0.56006308877840638,-0.46858044806867838,0.25193916261196136,0.17180509120225906,0.57285503298044205,0.17536487942561507,-0.7255191127769649,-0.26078570960089564,0.78971127001568675,-0.25759487366303802,-0.29717890545725822,0.80699342070147395],[-0.7404712256975472,0.98600898776203394,0.38387628132477403,0.20327115012332797,0.85154398251324892,-0.31384552177041769,0.38885578094050288,0.36483548302203417,-0.57516689551994205,-0.72919759014621377,0.24705175636336207,-0.22169435117393732],[0.45911170681938529,-0.20344489580020308,-0.4234689399600029,0.83751250058412552,-0.50314079178497195,0.20439390046522021,0.77917585568502545,0.95572654018178582,0.90833655977621675,-0.05435884976759553,0.74209287250414491,0.18462056759744883],[0.74002872640267015,-0.36987162427976727,0.26784180896356702,-0.14238092768937349,-0.78501164680346847,0.40382068464532495,-0.59491182770580053,-0.80105543462559581,-0.56820741854608059,-0.068123008124530315,0.178683090955019,0.63244419731199741],[-0.11517393868416548,-0.41008850419893861,0.26544885989278555,0.69257942726835608,-0.39178843051195145,0.35436112526804209,-0.91785458568483591,-0.33723644213750958,0.25078888144344091,0.25961869256570935,0.1489600520581007,0.74072123365476727]],[[-0.23495197668671608,0.79092161962762475,-0.96192080760374665,0.73165308544412255,-0.30287328315898776,0.76264050742611289,0.83593719871714711,-0.67832911806181073],[0.035229813307523727,0.99189818650484085,0.58858519280329347,0.46684444742277265,0.29848660062998533,-0.32348656933754683,0.16363896848633885,0.043351786211133003]]],"b":[[[-0.84725114284083247],[-0.95934173371642828],[-0.22700629360042512],[0.395973801612854],[0.64361347490921617],[0.40899253031238914],[0.9650929975323379],[0.85085156979039311],[0.15327931335195899],[0.13311475841328502],[-0.5656591565348208],[0.081583546474575996]],[[-0.59089453099295497],[0.10993414372205734],[0.82292208541184664],[-0.11403665505349636],[-0.11409363942220807],[-0.85631028981879354],[-0.47113635111600161],[-0.860950390342623]],[[-0.69293326651677489],[-0.30108822660986334]]]}
6,165090,182.73,{"w":[[[0.73297429643571377,-0.92498462554067373,-0.35380122996866703,-0.69975732639431953,-0.16701637580990791,0.31421531271189451,0.38372848881408572,0.2394806076772511,-0.71954042417928576,0.42050177184864879,-0.33481267327442765],[0.73539964063093066,-0.47286346694454551,-0.35465343296527863,-0.059505336917936802,0.59613929968327284,0.8945404589176178,0.76779693784192204,0.36378264194354415,0.14731995295733213,-0.72161600552499294,-0.44558168342337012],[-0.99766572844237089,-0.95695751719176769,0.0026042512618005276,0.54249097686260939,0.28132600616663694,0.043820896185934544,0.23498193314298987,0.77974930265918374,-0.96011137077584863,0.86876352643594146,-0.64596509374678135],[0.21192432474344969,-0.77569777332246304,-0.013164414092898369,-0.025774602312594652,0.43051751283928752,0.57861949130892754,0.89153243182227015,0.33678349060937762,-0.63836234854534268,0.50947679718956351,-0.15450538229197264],[-0.6745881550014019,0.72256452217698097,0.48640974052250385,-0.57500281278043985,0.46649224450811744,0.49698698567226529,-0.71108431229367852,0.064576978795230389,0.93342452822253108,0.66805601865053177,-0.72866017697378993],[-0.11915229307487607,-0.84101690445095301,0.96527588134631515,0.33382841758430004,-0.38662947108969092,0.11977266659960151,-0.49614483024924994,-0.68503284314647317,0.98358780518174171,0.063882479444146156,-0.32725952565670013],[-0.49557573720812798,-0.37874788278713822,0.29933286691084504,-0.82145533058792353,0.64703593915328383,0.36820875015109777,0.31915548909455538,0.55041946051642299,0.75388219021260738,-0.70219757873564959,0.64853246277198195],[0.020293319597840309,0.30282469186931849,0.26512423390522599,0.45112127810716629,0.83121745241805911,-0.064317876938730478,0.29344896227121353,-0.24198451731353998,0.41862244671210647,0.045003907755017281,0.3179292343556881],[0.14549922151491046,-0.045680094044655561,0.52513040136545897,-0.076618761289864779,0.29156884783878922,-0.68112700525671244,-0.56856403825804591,-0.016450982540845871,0.74156526755541563,-0.79981000674888492,0.88519894238561392],[0.072636495810002089,0.98581587802618742,-0.21611718228086829,0.033308155369013548,0.87743499735370278,0.47893481468781829,-0.0015363283455371857,-0.5148338251747191,-0.52460053656250238,0.29159098258242011,0.23567617265507579],[0.2113234824500978,0.027188043110072613,-0.65026677586138248,0.72917825495824218,0.30959347588941455,0.10435823258012533,-0.17832195432856679,-0.29181405249983072,-0.38161650067195296,-0.75035391096025705,0.31512592639774084],[0.00021641375496983528,0.77901757741346955,-0.51243487745523453,0.76882504904642701,0.73998192185536027,-0.25369188701733947,0.068535253871232271,-0.33062008814886212,-0.43539820332080126,0.72683037025853992,0.72311032423749566]],[[-0.71393445879220963,0.57438349025323987,-0.3691923851147294,0.1379109239205718,0.44468091707676649,-0.015712780877947807,-0.64713463652879,-0.68032208643853664,0.32923786994069815,0.33273938437923789,-0.12763683637604117,0.019977298565208912],[0.66825688118115067,0.32098774891346693,-0.2005154425278306,0.45830855146050453,-0.85122386552393436,0.41467784671112895,-0.65994908567517996,-0.80898656090721488,-0.43549931235611439,0.78383113257586956,-0.62781936442479491,0.92622910626232624],[0.8853082749992609,-0.88784883031621575,-0.56069526774808764,-0.34750255197286606,0.26824228139594197,0.66714673629030585,-0.54969310620799661,-0.43896141368895769,0.58702075714245439,-0.34310868475586176,-0.11453068256378174,0.73638718668371439],[-0.56006308877840638,-0.46858044806867838,0.25193916261196136,0.17180509120225906,0.57285503298044205,0.17536487942561507,-0.7255191127769649,-0.26078570960089564,0.78971127001568675,-0.25759487366303802,-0.29717890545725822,0.80699342070147395],[-0.7404712256975472,0.98600898776203394,0.38387628132477403,0.20327115012332797,0.85154398251324892,-0.31384552177041769,0.38885578094050288,0.36483548302203417,-0.57516689551994205,-0.72919759014621377,0.24705175636336207,-0.22169435117393732],[0.45911170681938529,-0.20344489580020308,-0.4234689399600029,0.83751250058412552,-0.50314079178497195,0.20439390046522021,0.77917585568502545,0.95572654018178582,0.90833655977621675,-0.05435884976759553,0.74209287250414491,0.18462056759744883],[0.74002872640267015,-0.36987162427976727,0.26784180896356702,-0.14238092768937349,-0.78501164680346847,0.40382068464532495,-0.59491182770580053,-0.80105543462559581,-0.56820741854608059,-0.068123008124530315,0.178683090955019,0.63244419731199741],[-0.11517393868416548,-0.41008850419893861,0.26544885989278555,0.69257942726835608,-0.39178843051195145,0.35436112526804209,-0.91785458568483591,-0.33723644213750958,0.25078888144344091,0.25961869256570935,0.1489600520581007,0.74072123365476727]],[[-0.23495197668671608,0.79092161962762475,-0.96192080760374665,0.73165308544412255,-0.30287328315898776,0.76264050742611289,0.83593719871714711,-0.67832911806181073],[0.035229813307523727,0.99189818650484085,0.58858519280329347,0.46684444742277265,0.29848660062998533,-0.32348656933754683,0.16363896848633885,0.043351786211133003]]],"b":[[[-0.84725114284083247],[-0.95934173371642828],[-0.22700629360042512],[0.395973801612854],[0.64361347490921617],[0.40899253031238914],[0.9650929975323379],[0.85085156979039311],[0.15327931335195899],[0.13311475841328502],[-0.5656591565348208],[0.081583546474575996]],[[-0.59089453099295497],[0.10993414372205734],[0.82292208541184664],[-0.11403665505349636],[-0.11409363942220807],[-0.85631028981879354],[-0.47113635111600161],[-0.860950390342623]],[[-0.69293326651677489],[-0.30108822660986334]]]}
7,165090,182.73,{"w":[[[0.73297429643571377,-0.92498462554067373,-0.35380122996866703,-0.69975732639431953,-0.16701637580990791,0.31421531271189451,0.38372848881408572,0.2394806076772511,-0.71954042417928576,0.42050177184864879,-0.33481267327442765],[0.73539964063093066,-0.47286346694454551,-0.35465343296527863,-0.059505336917936802,0.59613929968327284,0.8945404589176178,0.76779693784192204,0.36378264194354415,0.14731995295733213,-0.72161600552499294,-0.44558168342337012],[-0.99766572844237089,-0.95695751719176769,0.0026042512618005276,0.54249097686260939,0.28132600616663694,0.043820896185934544,0.23498193314298987,0.77974930265918374,-0.96011137077584863,0.86876352643594146,-0.64596509374678135],[0.21192432474344969,-0.77569777332246304,-0.013164414092898369,-0.025774602312594652,0.43051751283928752,0.57861949130892754,0.89153243182227015,0.33678349060937762,-0.63836234854534268,0.50947679718956351,-0.15450538229197264],[-0.6745881550014019,0.72256452217698097,0.48640974052250385,-0.57500281278043985,0.46649224450811744,0.49698698567226529,-0.71108431229367852,0.064576978795230389,0.93342452822253108,0.66805601865053177,-0.72866017697378993],[-0.11915229307487607,-0.84101690445095301,0.96527588134631515,0.33382841758430004,-0.38662947108969092,0.11977266659960151,-0.49614483024924994,-0.68503284314647317,0.98358780518174171,0.063882479444146156,-0.32725952565670013],[-0.49557573720812798,-0.37874788278713822,0.29933286691084504,-0.82145533058792353,0.64703593915328383,0.36820875015109777,0.31915548909455538,0.55041946051642299,0.75388219021260738,-0.70219757873564959,0.64853246277198195],[0.020293319597840309,0.30282469186931849,0.26512423390522599,0.45112127810716629,0.83121745241805911,-0.064317876938730478,0.29344896227121353,-0.24198451731353998,0.41862244671210647,0.045003907755017281,0.3179292343556881],[0.14549922151491046,-0.045680094044655561,0.52513040136545897,-0.076618761289864779,0.29156884783878922,-0.68112700525671244,-0.56856403825804591,-0.016450982540845871,0.74156526755541563,-0.79981000674888492,0.88519894238561392],[0.072636495810002089,0.98581587802618742,-0.21611718228086829,0.033308155369013548,0.87743499735370278,0.47893481468781829,-0.0015363283455371857,-0.5148338251747191,-0.52460053656250238,0.29159098258242011,0.23567617265507579],[0.2113234824500978,0.027188043110072613,-0.65026677586138248,0.72917825495824218,0.30959347588941455,0.10435823258012533,-0.17832195432856679,-0.29181405249983072,-0.38161650067195296,-0.75035391096025705,0.31512592639774084],[0.00021641375496983528,0.77901757741346955,-0.51243487745523453,0.76882504904642701,0.73998192185536027,-0.25369188701733947,0.068535253871232271,-0.33062008814886212,-0.43539820332080126,0.72683037025853992,0.72311032423749566]],[[-0.71393445879220963,0.57438349025323987,-0.3691923851147294,0.1379109239205718,0.44468091707676649,-0.015712780877947807,-0.64713463652879,-0.68032208643853664,0.32923786994069815,0.33273938437923789,-0.12763683637604117,0.019977298565208912],[0.66825688118115067,0.32098774891346693,-0.2005154425278306,0.45830855146050453,-0.85122386552393436,0.41467784671112895,-0.65994908567517996,-0.80898656090721488,-0.43549931235611439,0.78383113257586956,-0.62781936442479491,0.92622910626232624],[0.8853082749992609,-0.88784883031621575,-0.56069526774808764,-0.34750255197286606,0.26824228139594197,0.66714673629030585,-0.54969310620799661,-0.43896141368895769,0.58702075714245439,-0.34310868475586176,-0.11453068256378174,0.73638718668371439],[-0.56006308877840638,-0.46858044806867838,0.25193916261196136,0.17180509120225906,0.57285503298044205,0.17536487942561507,-0.7255191127769649,-0.26078570960089564,0.78971127001568675,-0.25759487366303802,-0.29717890545725822,0.80699342070147395],[-0.7404712256975472,0.98600898776203394,0.38387628132477403,0.20327115012332797,0.85154398251324892,-0.31384552177041769,0.38885578094050288,0.36483548302203417,-0.57516689551994205,-0.72919759014621377,0.24705175636336207,-0.22169435117393732],[0.45911170681938529,-0.20344489580020308,-0.4234689399600029,0.83751250058412552,-0.50314079178497195,0.20439390046522021,0.77917585568502545,0.95572654018178582,0.90833655977621675,-0.05435884976759553,0.74209287250414491,0.18462056759744883],[0.74002872640267015,-0.36987162427976727,0.26784180896356702,-0.14238092768937349,-0.78501164680346847,0.40382068464532495,-0.59491182770580053,-0.80105543462559581,-0.56820741854608059,-0.068123008124530315,0.178683090955019,0.63244419731199741],[-0.11517393868416548,-0.41008850419893861,0.26544885989278555,0.69257942726835608,-0.39178843051195145,0.35436112526804209,-0.91785458568483591,-0.33723644213750958,0.25078888144344091,0.25961869256570935,0.1489600520581007,0.74072123365476727]],[[-0.23495197668671608,0.79092161962762475,-0.96192080760374665,0.73165308544412255,-0.30287328315898776,0.76264050742611289,0.83593719871714711,-0.67832911806181073],[0.035229813307523727,0.99189818650484085,0.58858519280329347,0.46684444742277265,0.29848660062998533,-0.32348656933754683,0.16363896848633885,0.043351786211133003]]],"b":[[[-0.84725114284083247],[-0.95934173371642828],[-0.22700629360042512],[0.395973801612854],[0.64361347490921617],[0.40899253031238914],[0.9650929975323379],[0.85085156979039311],[0.15327931335195899],[0.13311475841328502],[-0.5656591565348208],[0.081583546474575996]],[[-0.59089453099295497],[0.10993414372205734],[0.82292208541184664],[-0.11403665505349636],[-0.11409363942220807],[-0.85631028981879354],[-0.47113635111600161],[-0.860950390342623]],[[-0.69293326651677489],[-0.30108822660986334]]]}
8,165090,182.73,{"w":[[[0.73297429643571377,-0.92498462554067373,-0.35380122996866703,-0.69975732639431953,-0.16701637580990791,0.31421531271189451,0.38372848881408572,0.2394806076772511,-0.71954042417928576,0.42050177184864879,-0.33481267327442765],[0.73539964063093066,-0.47286346694454551,-0.35465343296527863,-0.059505336917936802,0.59613929968327284,0.8945404589176178,0.76779693784192204,0.36378264194354415,0.14731995295733213,-0.72161600552499294,-0.44558168342337012],[-0.99766572844237089,-0.95695751719176769,0.0026042512618005276,0.54249097686260939,0.28132600616663694,0.043820896185934544,0.23498193314298987,0.77974930265918374,-0.96011137077584863,0.86876352643594146,-0.64596509374678135],[0.21192432474344969,-0.77569777332246304,-0.013164414092898369,-0.025774602312594652,0.43051751283928752,0.57861949130892754,0.89153243182227015,0.33678349060937762,-0.63836234854534268,0.50947679718956351,-0.15450538229197264],[-0.6745881550014019,0.72256452217698097,0.48640974052250385,-0.57500281278043985,0.46649224450811744,0.49698698567226529,-0.71108431229367852,0.064576978795230389,0.93342452822253108,0.66805601865053177,-0.72866017697378993],[-0.11915229307487607,-0.84101690445095301,0.96527588134631515,0.33382841758430004,-0.38662947108969092,0.11977266659960151,-0.49614483024924994,-0.68503284314647317,0.98358780518174171,0.063882479444146156,-0.32725952565670013],[-0.49557573720812798,-0.37874788278713822,0.29933286691084504,-0.82145533058792353,0.64703593915328383,0.36820875015109777,0.31915548909455538,0.55041946051642299,0.75388219021260738,-0.70219757873564959,0.64853246277198195],[0.020293319597840309,0.30282469186931849,0.26512423390522599,0.45112127810716629,0.83121745241805911,-0.064317876938730478,0.29344896227121353,-0.24198451731353998,0.41862244671210647,0.045003907755017281,0.3179292343556881],[0.14549922151491046,-0.045680094044655561,0.52513040136545897,-0.076618761289864779,0.29156884783878922,-0.68112700525671244,-0.56856403825804591,-0.016450982540845871,0.74156526755541563,-0.79981000674888492,0.88519894238561392],[0.072636495810002089,0.98581587802618742,-0.21611718228086829,0.033308155369013548,0.87743499735370278,0.47893481468781829,-0.0015363283455371857,-0.5148338251747191,-0.52460053656250238,0.29159098258242011,0.23567617265507579],[0.2113234824500978,0.027188043110072613,-0.65026677586138248,0.72917825495824218,0.30959347588941455,0.10435823258012533,-0.17832195432856679,-0.29181405249983072,-0.38161650067195296,-0.75035391096025705,0.31512592639774084],[0.00021641375496983528,0.77901757741346955,-0.51243487745523453,0.76882504904642701,0.73998192185536027,-0.25369188701733947,0.068535253871232271,-0.33062008814886212,-0.43539820332080126,0.72683037025853992,0.72311032423749566]],[[-0.71393445879220963,0.57438349025323987,-0.3691923851147294,0.1379109239205718,0.44468091707676649,-0.015712780877947807,-0.64713463652879,-0.68032208643853664,0.32923786994069815,0.33273938437923789,-0.12763683637604117,0.019977298565208912],[0.66825688118115067,0.32098774891346693,-0.2005154425278306,0.45830855146050453,-0.85122386552393436,0.41467784671112895,-0.65994908567517996,-0.80898656090721488,-0.43549931235611439,0.78383113257586956,-0.62781936442479491,0.92622910626232624],[0.8853082749992609,-0.88784883031621575,-0.56069526774808764,-0.34750255197286606,0.26824228139594197,0.66714673629030585,-0.54969310620799661,-0.43896141368895769,0.58702075714245439,-0.34310868475586176,-0.11453068256378174,0.73638718668371439],[-0.56006308877840638,-0.46858044806867838,0.25193916261196136,0.17180509120225906,0.57285503298044205,0.17536487942561507,-0.7255191127769649,-0.26078570960089564,0.78971127001568675,-0.25759487366303802,-0.29717890545725822,0.80699342070147395],[-0.7404712256975472,0.98600898776203394,0.38387628132477403,0.20327115012332797,0.85154398251324892,-0.31384552177041769,0.38885578094050288,0.36483548302203417,-0.57516689551994205,-0.72919759014621377,0.24705175636336207,-0.22169435117393732],[0.45911170681938529,-0.20344489580020308,-0.4234689399600029,0.83751250058412552,-0.50314079178497195,0.20439390046522021,0.77917585568502545,0.95572654018178582,0.90833655977621675,-0.05435884976759553,0.74209287250414491,0.18462056759744883],[0.74002872640267015,-0.36987162427976727,0.26784180896356702,-0.14238092768937349,-0.78501164680346847,0.40382068464532495,-0.59491182770580053,-0.80105543462559581,-0.56820741854608059,-0.068123008124530315,0.178683090955019,0.63244419731199741],[-0.11517393868416548,-0.41008850419893861,0.26544885989278555,0.69257942726835608,-0.39178843051195145,0.35436112526804209,-0.91785458568483591,-0.33723644213750958,0.25078888144344091,0.25961869256570935,0.1489600520581007,0.74072123365476727]],[[-0.23495197668671608,0.79092161962762475,-0.96192080760374665,0.73165308544412255,-0.30287328315898776,0.76264050742611289,0.83593719871714711,-0.67832911806181073],[0.035229813307523727,0.99189818650484085,0.58858519280329347,0.46684444742277265,0.29848660062998533,-0.32348656933754683,0.16363896848633885,0.043351786211133003]]],"b":[[[-0.84725114284083247],[-0.95934173371642828],[-0.22700629360042512],[0.395973801612854],[0.64361347490921617],[0.40899253031238914],[0.9650929975323379],[0.85085156979039311],[0.15327931335195899],[0.13311475841328502],[-0.5656591565348208],[0.081583546474575996]],[[-0.59089453099295497],[0.10993414372205734],[0.82292208541184664],[-0.11403665505349636],[-0.11409363942220807],[-0.85631028981879354],[-0.47113635111600161],[-0.860950390342623]],[[-0.69293326651677489],[-0.30108822660986334]]]}
