Generation;Fitness;Hue;Weights_JSON
0;2.38;266.29;{"biases":[[[-0.70999999999999996],[0.66000000000000003],[-0.93000000000000005],[-0.85999999999999999],[-0.69999999999999996],[-0.82999999999999996],[0.77000000000000002],[-0.080000000000000002],[0.45000000000000001],[-0.37],[-0.81999999999999995],[0.57999999999999996]],[[-0.34999999999999998],[0.97999999999999998],[0.68999999999999995],[0.070000000000000007],[0.23000000000000001],[0.58999999999999997],[-0.46999999999999997],[-0.72999999999999998]],[[0.68999999999999995],[0.88]]],"weights":[[[0.62,0.80000000000000004,-0.39000000000000001],[0.85999999999999999,0.10000000000000001,-0.34000000000000002],[-0.059999999999999998,0.26000000000000001,-0.23999999999999999],[0.56000000000000005,-0.62,0.34999999999999998],[0.88,-0.20999999999999999,-0.68000000000000005],[-0.55000000000000004,0.93000000000000005,0.41999999999999998],[-0.28999999999999998,-0.01,-0.95999999999999996],[-0.58999999999999997,0.89000000000000001,0.070000000000000007],[0.37,-0.29999999999999999,0.67000000000000004],[-0.029999999999999999,0.12,0.17000000000000001],[-0.45000000000000001,0.040000000000000001,-0.59999999999999998],[-0.46000000000000002,0.96999999999999997,0.28999999999999998]],[[0.68000000000000005,0.26000000000000001,0.90000000000000002,0.40000000000000002,0.42999999999999999,0.44,-0.17999999999999999,0.45000000000000001,0.17000000000000001,-0.89000000000000001,0.40999999999999998,-0.68000000000000005],[0.63,-0.72999999999999998,0.98999999999999999,-0.01,-0.90000000000000002,0.84999999999999998,0.02,-0.040000000000000001,0.44,0.25,-0.080000000000000002,-0.34000000000000002],[-0.41999999999999998,0.60999999999999999,1.0,-0.46999999999999997,0.29999999999999999,-0.85999999999999999,0.81000000000000005,0.95999999999999996,0.73999999999999999,0.55000000000000004,0.73999999999999999,0.35999999999999999],[0.60999999999999999,-0.14000000000000001,-0.57999999999999996,-0.56999999999999995,-0.78000000000000003,-0.37,0.42999999999999999,-0.41999999999999998,-0.75,-0.76000000000000001,-0.79000000000000004,-0.20999999999999999],[0.40999999999999998,0.40999999999999998,0.93999999999999995,-0.5,-0.97999999999999998,-0.63,-0.68999999999999995,-0.35999999999999999,-0.040000000000000001,0.60999999999999999,-0.47999999999999998,0.68999999999999995],[0.070000000000000007,0.23000000000000001,-0.51000000000000001,-0.01,0.91000000000000003,-0.57999999999999996,-0.72999999999999998,-0.39000000000000001,0.23999999999999999,0.83999999999999997,0.70999999999999996,0.10000000000000001],[0.14999999999999999,-0.34000000000000002,0.56000000000000005,-0.059999999999999998,-0.66000000000000003,-0.40000000000000002,-0.34999999999999998,-0.19,-0.14000000000000001,-0.37,0.080000000000000002,-0.52000000000000002],[0.81999999999999995,-0.10000000000000001,0.29999999999999999,-0.20999999999999999,-0.85999999999999999,0.070000000000000007,0.25,-0.5,0.94999999999999996,0.59999999999999998,0.23999999999999999,0.87]],[[-0.63,-0.56999999999999995,0.88,-0.46999999999999997,0.81999999999999995,-0.23999999999999999,-0.55000000000000004,0.25],[0.66000000000000003,0.10000000000000001,0.01,-0.33000000000000002,0.34999999999999998,-0.029999999999999999,0.28999999999999998,0.080000000000000002]]]}
1;2.38;266.29;{"biases":[[[-0.70999999999999996],[0.66000000000000003],[-0.93000000000000005],[-0.85999999999999999],[-0.69999999999999996],[-0.82999999999999996],[0.77000000000000002],[-0.080000000000000002],[0.45000000000000001],[-0.37],[-0.81999999999999995],[0.57999999999999996]],[[-0.34999999999999998],[0.97999999999999998],[0.68999999999999995],[0.070000000000000007],[0.23000000000000001],[0.58999999999999997],[-0.46999999999999997],[-0.72999999999999998]],[[0.68999999999999995],[0.88]]],"weights":[[[0.62,0.80000000000000004,-0.39000000000000001],[0.85999999999999999,0.10000000000000001,-0.34000000000000002],[-0.059999999999999998,0.26000000000000001,-0.23999999999999999],[0.56000000000000005,-0.62,0.34999999999999998],[0.88,-0.20999999999999999,-0.68000000000000005],[-0.55000000000000004,0.93000000000000005,0.41999999999999998],[-0.28999999999999998,-0.01,-0.95999999999999996],[-0.58999999999999997,0.89000000000000001,0.070000000000000007],[0.37,-0.29999999999999999,0.67000000000000004],[-0.029999999999999999,0.12,0.17000000000000001],[-0.45000000000000001,0.040000000000000001,-0.59999999999999998],[-0.46000000000000002,0.96999999999999997,0.28999999999999998]],[[0.68000000000000005,0.26000000000000001,0.90000000000000002,0.40000000000000002,0.42999999999999999,0.44,-0.17999999999999999,0.45000000000000001,0.17000000000000001,-0.89000000000000001,0.40999999999999998,-0.68000000000000005],[0.63,-0.72999999999999998,0.98999999999999999,-0.01,-0.90000000000000002,0.84999999999999998,0.02,-0.040000000000000001,0.44,0.25,-0.080000000000000002,-0.34000000000000002],[-0.41999999999999998,0.60999999999999999,1.0,-0.46999999999999997,0.29999999999999999,-0.85999999999999999,0.81000000000000005,0.95999999999999996,0.73999999999999999,0.55000000000000004,0.73999999999999999,0.35999999999999999],[0.60999999999999999,-0.14000000000000001,-0.57999999999999996,-0.56999999999999995,-0.78000000000000003,-0.37,0.42999999999999999,-0.41999999999999998,-0.75,-0.76000000000000001,-0.79000000000000004,-0.20999999999999999],[0.40999999999999998,0.40999999999999998,0.93999999999999995,-0.5,-0.97999999999999998,-0.63,-0.68999999999999995,-0.35999999999999999,-0.040000000000000001,0.60999999999999999,-0.47999999999999998,0.68999999999999995],[0.070000000000000007,0.23000000000000001,-0.51000000000000001,-0.01,0.91000000000000003,-0.57999999999999996,-0.72999999999999998,-0.39000000000000001,0.23999999999999999,0.83999999999999997,0.70999999999999996,0.10000000000000001],[0.14999999999999999,-0.34000000000000002,0.56000000000000005,-0.059999999999999998,-0.66000000000000003,-0.40000000000000002,-0.34999999999999998,-0.19,-0.14000000000000001,-0.37,0.080000000000000002,-0.52000000000000002],[0.81999999999999995,-0.10000000000000001,0.29999999999999999,-0.20999999999999999,-0.85999999999999999,0.070000000000000007,0.25,-0.5,0.94999999999999996,0.59999999999999998,0.23999999999999999,0.87]],[[-0.63,-0.56999999999999995,0.88,-0.46999999999999997,0.81999999999999995,-0.23999999999999999,-0.55000000000000004,0.25],[0.66000000000000003,0.10000000000000001,0.01,-0.33000000000000002,0.34999999999999998,-0.029999999999999999,0.28999999999999998,0.080000000000000002]]]}
2;55;286.14;{"biases":[[[-0.28999999999999998],[-0.79000000000000004],[0.81999999999999995],[0.27000000000000002],[0.33000000000000002],[-0.37],[0.46000000000000002],[0.059999999999999998],[-0.98999999999999999],[-0.23999999999999999],[-0.82999999999999996],[-0.20999999999999999]],[[-0.94999999999999996],[0.93000000000000005],[-0.83999999999999997],[0.52000000000000002],[0.5],[-0.95999999999999996],[0.46999999999999997],[-0.029999999999999999]],[[0.42999999999999999],[-0.28999999999999998]]],"weights":[[[0.47999999999999998,0.050000000000000003,-0.40000000000000002],[-0.040000000000000001,-0.089999999999999997,0.54000000000000004],[-0.28999999999999998,0.5,0.12],[-0.82999999999999996,0.25,0.39000000000000001],[0.77000000000000002,-0.16,0.13],[0.22,-0.5,-0.78000000000000003],[0.46000000000000002,-0.71999999999999997,0.31],[0.38,0.28000000000000003,-0.20000000000000001],[-0.44,-0.42999999999999999,0.47999999999999998],[-0.95999999999999996,0.28000000000000003,0.68999999999999995],[-0.78000000000000003,0.10000000000000001,-0.68999999999999995],[0.92000000000000004,0.90000000000000002,-0.90000000000000002]],[[0.69999999999999996,-0.28999999999999998,-0.69999999999999996,0.94999999999999996,0.01,-0.57999999999999996,-0.46999999999999997,-0.35999999999999999,-0.20000000000000001,-0.51000000000000001,0.20999999999999999,-0.54000000000000004],[-0.089999999999999997,-0.059999999999999998,-0.91000000000000003,0.56999999999999995,-0.02,-0.75,0.96999999999999997,-0.050000000000000003,-0.16,0.37,0.029999999999999999,0.68999999999999995],[0.76000000000000001,0.34999999999999998,-0.040000000000000001,-0.60999999999999999,0.57999999999999996,0.080000000000000002,-0.59999999999999998,-0.28999999999999998,0.52000000000000002,0.82999999999999996,-0.87,-0.46000000000000002],[0.96999999999999997,0.26000000000000001,0.96999999999999997,0.58999999999999997,0.57999999999999996,0.48999999999999999,0.16,-0.23000000000000001,0.22,0.66000000000000003,-0.5,-0.46999999999999997],[-0.68999999999999995,0.14000000000000001,0.95999999999999996,0.14999999999999999,-0.34000000000000002,-0.38,-0.73999999999999999,-0.25,-0.040000000000000001,-0.070000000000000007,0.29999999999999999,-0.20000000000000001],[0.54000000000000004,-0.48999999999999999,0.64000000000000001,-0.73999999999999999,0.84999999999999998,0.14999999999999999,0.17999999999999999,0.63,-0.13,0.76000000000000001,-0.41999999999999998,0.93999999999999995],[-0.070000000000000007,0.57999999999999996,-0.75,0.23000000000000001,-0.20999999999999999,0.02,-0.46999999999999997,0.089999999999999997,0.34000000000000002,0.93000000000000005,-0.34999999999999998,0.83999999999999997],[0.28000000000000003,-0.69999999999999996,-0.90000000000000002,-0.23999999999999999,0.47999999999999998,0.58999999999999997,0.5,0.98999999999999999,0.82999999999999996,-0.68000000000000005,-0.62,0.60999999999999999]],[[-0.14000000000000001,0.55000000000000004,-0.16,0.42999999999999999,-0.93000000000000005,-0.72999999999999998,-0.62,-0.25],[-0.80000000000000004,-0.11,-0.79000000000000004,0.67000000000000004,0.0,0.11,0.85999999999999999,0.54000000000000004]]]}
3;55;286.14;{"biases":[[[-0.28999999999999998],[-0.79000000000000004],[0.81999999999999995],[0.27000000000000002],[0.33000000000000002],[-0.37],[0.46000000000000002],[0.059999999999999998],[-0.98999999999999999],[-0.23999999999999999],[-0.82999999999999996],[-0.20999999999999999]],[[-0.94999999999999996],[0.93000000000000005],[-0.83999999999999997],[0.52000000000000002],[0.5],[-0.95999999999999996],[0.46999999999999997],[-0.029999999999999999]],[[0.42999999999999999],[-0.28999999999999998]]],"weights":[[[0.47999999999999998,0.050000000000000003,-0.40000000000000002],[-0.040000000000000001,-0.089999999999999997,0.54000000000000004],[-0.28999999999999998,0.5,0.12],[-0.82999999999999996,0.25,0.39000000000000001],[0.77000000000000002,-0.16,0.13],[0.22,-0.5,-0.78000000000000003],[0.46000000000000002,-0.71999999999999997,0.31],[0.38,0.28000000000000003,-0.20000000000000001],[-0.44,-0.42999999999999999,0.47999999999999998],[-0.95999999999999996,0.28000000000000003,0.68999999999999995],[-0.78000000000000003,0.10000000000000001,-0.68999999999999995],[0.92000000000000004,0.90000000000000002,-0.90000000000000002]],[[0.69999999999999996,-0.28999999999999998,-0.69999999999999996,0.94999999999999996,0.01,-0.57999999999999996,-0.46999999999999997,-0.35999999999999999,-0.20000000000000001,-0.51000000000000001,0.20999999999999999,-0.54000000000000004],[-0.089999999999999997,-0.059999999999999998,-0.91000000000000003,0.56999999999999995,-0.02,-0.75,0.96999999999999997,-0.050000000000000003,-0.16,0.37,0.029999999999999999,0.68999999999999995],[0.76000000000000001,0.34999999999999998,-0.040000000000000001,-0.60999999999999999,0.57999999999999996,0.080000000000000002,-0.59999999999999998,-0.28999999999999998,0.52000000000000002,0.82999999999999996,-0.87,-0.46000000000000002],[0.96999999999999997,0.26000000000000001,0.96999999999999997,0.58999999999999997,0.57999999999999996,0.48999999999999999,0.16,-0.23000000000000001,0.22,0.66000000000000003,-0.5,-0.46999999999999997],[-0.68999999999999995,0.14000000000000001,0.95999999999999996,0.14999999999999999,-0.34000000000000002,-0.38,-0.73999999999999999,-0.25,-0.040000000000000001,-0.070000000000000007,0.29999999999999999,-0.20000000000000001],[0.54000000000000004,-0.48999999999999999,0.64000000000000001,-0.73999999999999999,0.84999999999999998,0.14999999999999999,0.17999999999999999,0.63,-0.13,0.76000000000000001,-0.41999999999999998,0.93999999999999995],[-0.070000000000000007,0.57999999999999996,-0.75,0.23000000000000001,-0.20999999999999999,0.02,-0.46999999999999997,0.089999999999999997,0.34000000000000002,0.93000000000000005,-0.34999999999999998,0.83999999999999997],[0.28000000000000003,-0.69999999999999996,-0.90000000000000002,-0.23999999999999999,0.47999999999999998,0.58999999999999997,0.5,0.98999999999999999,0.82999999999999996,-0.68000000000000005,-0.62,0.60999999999999999]],[[-0.14000000000000001,0.55000000000000004,-0.16,0.42999999999999999,-0.93000000000000005,-0.72999999999999998,-0.62,-0.25],[-0.80000000000000004,-0.11,-0.79000000000000004,0.67000000000000004,0.0,0.11,0.85999999999999999,0.54000000000000004]]]}
4;55;286.14;{"biases":[[[-0.28999999999999998],[-0.79000000000000004],[0.81999999999999995],[0.27000000000000002],[0.33000000000000002],[-0.37],[0.46000000000000002],[0.059999999999999998],[-0.98999999999999999],[-0.23999999999999999],[-0.82999999999999996],[-0.20999999999999999]],[[-0.94999999999999996],[0.93000000000000005],[-0.83999999999999997],[0.52000000000000002],[0.5],[-0.95999999999999996],[0.46999999999999997],[-0.029999999999999999]],[[0.42999999999999999],[-0.28999999999999998]]],"weights":[[[0.47999999999999998,0.050000000000000003,-0.40000000000000002],[-0.040000000000000001,-0.089999999999999997,0.54000000000000004],[-0.28999999999999998,0.5,0.12],[-0.82999999999999996,0.25,0.39000000000000001],[0.77000000000000002,-0.16,0.13],[0.22,-0.5,-0.78000000000000003],[0.46000000000000002,-0.71999999999999997,0.31],[0.38,0.28000000000000003,-0.20000000000000001],[-0.44,-0.42999999999999999,0.47999999999999998],[-0.95999999999999996,0.28000000000000003,0.68999999999999995],[-0.78000000000000003,0.10000000000000001,-0.68999999999999995],[0.92000000000000004,0.90000000000000002,-0.90000000000000002]],[[0.69999999999999996,-0.28999999999999998,-0.69999999999999996,0.94999999999999996,0.01,-0.57999999999999996,-0.46999999999999997,-0.35999999999999999,-0.20000000000000001,-0.51000000000000001,0.20999999999999999,-0.54000000000000004],[-0.089999999999999997,-0.059999999999999998,-0.91000000000000003,0.56999999999999995,-0.02,-0.75,0.96999999999999997,-0.050000000000000003,-0.16,0.37,0.029999999999999999,0.68999999999999995],[0.76000000000000001,0.34999999999999998,-0.040000000000000001,-0.60999999999999999,0.57999999999999996,0.080000000000000002,-0.59999999999999998,-0.28999999999999998,0.52000000000000002,0.82999999999999996,-0.87,-0.46000000000000002],[0.96999999999999997,0.26000000000000001,0.96999999999999997,0.58999999999999997,0.57999999999999996,0.48999999999999999,0.16,-0.23000000000000001,0.22,0.66000000000000003,-0.5,-0.46999999999999997],[-0.68999999999999995,0.14000000000000001,0.95999999999999996,0.14999999999999999,-0.34000000000000002,-0.38,-0.73999999999999999,-0.25,-0.040000000000000001,-0.070000000000000007,0.29999999999999999,-0.20000000000000001],[0.54000000000000004,-0.48999999999999999,0.64000000000000001,-0.73999999999999999,0.84999999999999998,0.14999999999999999,0.17999999999999999,0.63,-0.13,0.76000000000000001,-0.41999999999999998,0.93999999999999995],[-0.070000000000000007,0.57999999999999996,-0.75,0.23000000000000001,-0.20999999999999999,0.02,-0.46999999999999997,0.089999999999999997,0.34000000000000002,0.93000000000000005,-0.34999999999999998,0.83999999999999997],[0.28000000000000003,-0.69999999999999996,-0.90000000000000002,-0.23999999999999999,0.47999999999999998,0.58999999999999997,0.5,0.98999999999999999,0.82999999999999996,-0.68000000000000005,-0.62,0.60999999999999999]],[[-0.14000000000000001,0.55000000000000004,-0.16,0.42999999999999999,-0.93000000000000005,-0.72999999999999998,-0.62,-0.25],[-0.80000000000000004,-0.11,-0.79000000000000004,0.67000000000000004,0.0,0.11,0.85999999999999999,0.54000000000000004]]]}
5;55;286.14;{"biases":[[[-0.28999999999999998],[-0.79000000000000004],[0.81999999999999995],[0.27000000000000002],[0.33000000000000002],[-0.37],[0.46000000000000002],[0.059999999999999998],[-0.98999999999999999],[-0.23999999999999999],[-0.82999999999999996],[-0.20999999999999999]],[[-0.94999999999999996],[0.93000000000000005],[-0.83999999999999997],[0.52000000000000002],[0.5],[-0.95999999999999996],[0.46999999999999997],[-0.029999999999999999]],[[0.42999999999999999],[-0.28999999999999998]]],"weights":[[[0.47999999999999998,0.050000000000000003,-0.40000000000000002],[-0.040000000000000001,-0.089999999999999997,0.54000000000000004],[-0.28999999999999998,0.5,0.12],[-0.82999999999999996,0.25,0.39000000000000001],[0.77000000000000002,-0.16,0.13],[0.22,-0.5,-0.78000000000000003],[0.46000000000000002,-0.71999999999999997,0.31],[0.38,0.28000000000000003,-0.20000000000000001],[-0.44,-0.42999999999999999,0.47999999999999998],[-0.95999999999999996,0.28000000000000003,0.68999999999999995],[-0.78000000000000003,0.10000000000000001,-0.68999999999999995],[0.92000000000000004,0.90000000000000002,-0.90000000000000002]],[[0.69999999999999996,-0.28999999999999998,-0.69999999999999996,0.94999999999999996,0.01,-0.57999999999999996,-0.46999999999999997,-0.35999999999999999,-0.20000000000000001,-0.51000000000000001,0.20999999999999999,-0.54000000000000004],[-0.089999999999999997,-0.059999999999999998,-0.91000000000000003,0.56999999999999995,-0.02,-0.75,0.96999999999999997,-0.050000000000000003,-0.16,0.37,0.029999999999999999,0.68999999999999995],[0.76000000000000001,0.34999999999999998,-0.040000000000000001,-0.60999999999999999,0.57999999999999996,0.080000000000000002,-0.59999999999999998,-0.28999999999999998,0.52000000000000002,0.82999999999999996,-0.87,-0.46000000000000002],[0.96999999999999997,0.26000000000000001,0.96999999999999997,0.58999999999999997,0.57999999999999996,0.48999999999999999,0.16,-0.23000000000000001,0.22,0.66000000000000003,-0.5,-0.46999999999999997],[-0.68999999999999995,0.14000000000000001,0.95999999999999996,0.14999999999999999,-0.34000000000000002,-0.38,-0.73999999999999999,-0.25,-0.040000000000000001,-0.070000000000000007,0.29999999999999999,-0.20000000000000001],[0.54000000000000004,-0.48999999999999999,0.64000000000000001,-0.73999999999999999,0.84999999999999998,0.14999999999999999,0.17999999999999999,0.63,-0.13,0.76000000000000001,-0.41999999999999998,0.93999999999999995],[-0.070000000000000007,0.57999999999999996,-0.75,0.23000000000000001,-0.20999999999999999,0.02,-0.46999999999999997,0.089999999999999997,0.34000000000000002,0.93000000000000005,-0.34999999999999998,0.83999999999999997],[0.28000000000000003,-0.69999999999999996,-0.90000000000000002,-0.23999999999999999,0.47999999999999998,0.58999999999999997,0.5,0.98999999999999999,0.82999999999999996,-0.68000000000000005,-0.62,0.60999999999999999]],[[-0.14000000000000001,0.55000000000000004,-0.16,0.42999999999999999,-0.93000000000000005,-0.72999999999999998,-0.62,-0.25],[-0.80000000000000004,-0.11,-0.79000000000000004,0.67000000000000004,0.0,0.11,0.85999999999999999,0.54000000000000004]]]}
6;86.14;314.61;{"biases":[[[-0.28999999999999998],[-0.79000000000000004],[0.81999999999999995],[0.27000000000000002],[0.33000000000000002],[-0.040000000000000001],[-0.28999999999999998],[-0.93000000000000005],[-0.39000000000000001],[-0.11],[-0.27000000000000002],[0.60999999999999999]],[[-0.94999999999999996],[0.93000000000000005],[-0.83999999999999997],[0.52000000000000002],[0.5],[-0.95999999999999996],[0.46999999999999997],[-0.02]],[[0.42999999999999999],[-0.28999999999999998]]],"weights":[[[0.47999999999999998,0.050000000000000003,-0.40000000000000002],[-0.040000000000000001,-0.089999999999999997,0.54000000000000004],[-0.28999999999999998,0.5,0.089999999999999997],[-0.82999999999999996,0.72999999999999998,0.81999999999999995],[0.23999999999999999,-0.48999999999999999,-1.0],[0.28000000000000003,-0.080000000000000002,-0.60999999999999999],[-0.57999999999999996,-0.5,-0.73999999999999999],[-1.0,0.32000000000000001,0.65000000000000002],[0.97999999999999998,0.69999999999999996,-0.67000000000000004],[-0.14999999999999999,-0.97999999999999998,-0.33000000000000002],[-0.40000000000000002,0.71999999999999997,1.0],[-0.79000000000000004,-0.48999999999999999,0.12]],[[0.69999999999999996,-0.28999999999999998,-0.69999999999999996,0.94999999999999996,0.01,-0.57999999999999996,-0.46999999999999997,-0.35999999999999999,-0.20000000000000001,-0.51000000000000001,0.20999999999999999,-0.54000000000000004],[-0.089999999999999997,-0.059999999999999998,-0.91000000000000003,0.56999999999999995,-0.02,-0.75,0.96999999999999997,-0.050000000000000003,-0.16,0.37,0.029999999999999999,0.68999999999999995],[0.76000000000000001,0.34999999999999998,-0.66000000000000003,-0.12,-0.10000000000000001,0.14000000000000001,0.58999999999999997,-0.98999999999999999,0.47999999999999998,-0.67000000000000004,-0.46999999999999997,-0.66000000000000003],[-0.33000000000000002,0.70999999999999996,-0.20999999999999999,0.58999999999999997,0.20000000000000001,-0.72999999999999998,0.13,-0.56999999999999995,0.17000000000000001,-0.59999999999999998,-0.28999999999999998,-0.66000000000000003],[0.91000000000000003,0.75,-0.25,-0.68999999999999995,-0.38,0.0,-0.050000000000000003,-0.72999999999999998,-0.25,0.12,-0.71999999999999997,-0.17000000000000001],[0.78000000000000003,0.02,-0.87,-0.90000000000000002,0.55000000000000004,0.91000000000000003,-1.0,0.38,0.54000000000000004,0.31,0.71999999999999997,-0.56000000000000005],[0.10000000000000001,-0.48999999999999999,0.77000000000000002,-0.28999999999999998,0.40999999999999998,-0.20000000000000001,-0.94999999999999996,-0.12,0.62,0.34000000000000002,0.92000000000000004,-0.37],[-0.14000000000000001,0.79000000000000004,-0.95999999999999996,0.41999999999999998,0.28000000000000003,0.85999999999999999,-0.31,-0.080000000000000002,0.63,-0.02,0.78000000000000003,-0.85999999999999999]],[[-0.14000000000000001,0.55000000000000004,-0.47999999999999998,-0.23000000000000001,0.83999999999999997,-0.88,-0.45000000000000001,-0.66000000000000003],[-0.45000000000000001,-0.81999999999999995,0.70999999999999996,0.14000000000000001,0.31,1.0,0.70999999999999996,0.040000000000000001]]]}
7;86.14;314.61;{"biases":[[[-0.28999999999999998],[-0.79000000000000004],[0.81999999999999995],[0.27000000000000002],[0.33000000000000002],[-0.040000000000000001],[-0.28999999999999998],[-0.93000000000000005],[-0.39000000000000001],[-0.11],[-0.27000000000000002],[0.60999999999999999]],[[-0.94999999999999996],[0.93000000000000005],[-0.83999999999999997],[0.52000000000000002],[0.5],[-0.95999999999999996],[0.46999999999999997],[-0.02]],[[0.42999999999999999],[-0.28999999999999998]]],"weights":[[[0.47999999999999998,0.050000000000000003,-0.40000000000000002],[-0.040000000000000001,-0.089999999999999997,0.54000000000000004],[-0.28999999999999998,0.5,0.089999999999999997],[-0.82999999999999996,0.72999999999999998,0.81999999999999995],[0.23999999999999999,-0.48999999999999999,-1.0],[0.28000000000000003,-0.080000000000000002,-0.60999999999999999],[-0.57999999999999996,-0.5,-0.73999999999999999],[-1.0,0.32000000000000001,0.65000000000000002],[0.97999999999999998,0.69999999999999996,-0.67000000000000004],[-0.14999999999999999,-0.97999999999999998,-0.33000000000000002],[-0.40000000000000002,0.71999999999999997,1.0],[-0.79000000000000004,-0.48999999999999999,0.12]],[[0.69999999999999996,-0.28999999999999998,-0.69999999999999996,0.94999999999999996,0.01,-0.57999999999999996,-0.46999999999999997,-0.35999999999999999,-0.20000000000000001,-0.51000000000000001,0.20999999999999999,-0.54000000000000004],[-0.089999999999999997,-0.059999999999999998,-0.91000000000000003,0.56999999999999995,-0.02,-0.75,0.96999999999999997,-0.050000000000000003,-0.16,0.37,0.029999999999999999,0.68999999999999995],[0.76000000000000001,0.34999999999999998,-0.66000000000000003,-0.12,-0.10000000000000001,0.14000000000000001,0.58999999999999997,-0.98999999999999999,0.47999999999999998,-0.67000000000000004,-0.46999999999999997,-0.66000000000000003],[-0.33000000000000002,0.70999999999999996,-0.20999999999999999,0.58999999999999997,0.20000000000000001,-0.72999999999999998,0.13,-0.56999999999999995,0.17000000000000001,-0.59999999999999998,-0.28999999999999998,-0.66000000000000003],[0.91000000000000003,0.75,-0.25,-0.68999999999999995,-0.38,0.0,-0.050000000000000003,-0.72999999999999998,-0.25,0.12,-0.71999999999999997,-0.17000000000000001],[0.78000000000000003,0.02,-0.87,-0.90000000000000002,0.55000000000000004,0.91000000000000003,-1.0,0.38,0.54000000000000004,0.31,0.71999999999999997,-0.56000000000000005],[0.10000000000000001,-0.48999999999999999,0.77000000000000002,-0.28999999999999998,0.40999999999999998,-0.20000000000000001,-0.94999999999999996,-0.12,0.62,0.34000000000000002,0.92000000000000004,-0.37],[-0.14000000000000001,0.79000000000000004,-0.95999999999999996,0.41999999999999998,0.28000000000000003,0.85999999999999999,-0.31,-0.080000000000000002,0.63,-0.02,0.78000000000000003,-0.85999999999999999]],[[-0.14000000000000001,0.55000000000000004,-0.47999999999999998,-0.23000000000000001,0.83999999999999997,-0.88,-0.45000000000000001,-0.66000000000000003],[-0.45000000000000001,-0.81999999999999995,0.70999999999999996,0.14000000000000001,0.31,1.0,0.70999999999999996,0.040000000000000001]]]}
8;86.14;314.61;{"biases":[[[-0.28999999999999998],[-0.79000000000000004],[0.81999999999999995],[0.27000000000000002],[0.33000000000000002],[-0.040000000000000001],[-0.28999999999999998],[-0.93000000000000005],[-0.39000000000000001],[-0.11],[-0.27000000000000002],[0.60999999999999999]],[[-0.94999999999999996],[0.93000000000000005],[-0.83999999999999997],[0.52000000000000002],[0.5],[-0.95999999999999996],[0.46999999999999997],[-0.02]],[[0.42999999999999999],[-0.28999999999999998]]],"weights":[[[0.47999999999999998,0.050000000000000003,-0.40000000000000002],[-0.040000000000000001,-0.089999999999999997,0.54000000000000004],[-0.28999999999999998,0.5,0.089999999999999997],[-0.82999999999999996,0.72999999999999998,0.81999999999999995],[0.23999999999999999,-0.48999999999999999,-1.0],[0.28000000000000003,-0.080000000000000002,-0.60999999999999999],[-0.57999999999999996,-0.5,-0.73999999999999999],[-1.0,0.32000000000000001,0.65000000000000002],[0.97999999999999998,0.69999999999999996,-0.67000000000000004],[-0.14999999999999999,-0.97999999999999998,-0.33000000000000002],[-0.40000000000000002,0.71999999999999997,1.0],[-0.79000000000000004,-0.48999999999999999,0.12]],[[0.69999999999999996,-0.28999999999999998,-0.69999999999999996,0.94999999999999996,0.01,-0.57999999999999996,-0.46999999999999997,-0.35999999999999999,-0.20000000000000001,-0.51000000000000001,0.20999999999999999,-0.54000000000000004],[-0.089999999999999997,-0.059999999999999998,-0.91000000000000003,0.56999999999999995,-0.02,-0.75,0.96999999999999997,-0.050000000000000003,-0.16,0.37,0.029999999999999999,0.68999999999999995],[0.76000000000000001,0.34999999999999998,-0.66000000000000003,-0.12,-0.10000000000000001,0.14000000000000001,0.58999999999999997,-0.98999999999999999,0.47999999999999998,-0.67000000000000004,-0.46999999999999997,-0.66000000000000003],[-0.33000000000000002,0.70999999999999996,-0.20999999999999999,0.58999999999999997,0.20000000000000001,-0.72999999999999998,0.13,-0.56999999999999995,0.17000000000000001,-0.59999999999999998,-0.28999999999999998,-0.66000000000000003],[0.91000000000000003,0.75,-0.25,-0.68999999999999995,-0.38,0.0,-0.050000000000000003,-0.72999999999999998,-0.25,0.12,-0.71999999999999997,-0.17000000000000001],[0.78000000000000003,0.02,-0.87,-0.90000000000000002,0.55000000000000004,0.91000000000000003,-1.0,0.38,0.54000000000000004,0.31,0.71999999999999997,-0.56000000000000005],[0.10000000000000001,-0.48999999999999999,0.77000000000000002,-0.28999999999999998,0.40999999999999998,-0.20000000000000001,-0.94999999999999996,-0.12,0.62,0.34000000000000002,0.92000000000000004,-0.37],[-0.14000000000000001,0.79000000000000004,-0.95999999999999996,0.41999999999999998,0.28000000000000003,0.85999999999999999,-0.31,-0.080000000000000002,0.63,-0.02,0.78000000000000003,-0.85999999999999999]],[[-0.14000000000000001,0.55000000000000004,-0.47999999999999998,-0.23000000000000001,0.83999999999999997,-0.88,-0.45000000000000001,-0.66000000000000003],[-0.45000000000000001,-0.81999999999999995,0.70999999999999996,0.14000000000000001,0.31,1.0,0.70999999999999996,0.040000000000000001]]]}
9;86.14;314.61;{"biases":[[[-0.28999999999999998],[-0.79000000000000004],[0.81999999999999995],[0.27000000000000002],[0.33000000000000002],[-0.040000000000000001],[-0.28999999999999998],[-0.93000000000000005],[-0.39000000000000001],[-0.11],[-0.27000000000000002],[0.60999999999999999]],[[-0.94999999999999996],[0.93000000000000005],[-0.83999999999999997],[0.52000000000000002],[0.5],[-0.95999999999999996],[0.46999999999999997],[-0.02]],[[0.42999999999999999],[-0.28999999999999998]]],"weights":[[[0.47999999999999998,0.050000000000000003,-0.40000000000000002],[-0.040000000000000001,-0.089999999999999997,0.54000000000000004],[-0.28999999999999998,0.5,0.089999999999999997],[-0.82999999999999996,0.72999999999999998,0.81999999999999995],[0.23999999999999999,-0.48999999999999999,-1.0],[0.28000000000000003,-0.080000000000000002,-0.60999999999999999],[-0.57999999999999996,-0.5,-0.73999999999999999],[-1.0,0.32000000000000001,0.65000000000000002],[0.97999999999999998,0.69999999999999996,-0.67000000000000004],[-0.14999999999999999,-0.97999999999999998,-0.33000000000000002],[-0.40000000000000002,0.71999999999999997,1.0],[-0.79000000000000004,-0.48999999999999999,0.12]],[[0.69999999999999996,-0.28999999999999998,-0.69999999999999996,0.94999999999999996,0.01,-0.57999999999999996,-0.46999999999999997,-0.35999999999999999,-0.20000000000000001,-0.51000000000000001,0.20999999999999999,-0.54000000000000004],[-0.089999999999999997,-0.059999999999999998,-0.91000000000000003,0.56999999999999995,-0.02,-0.75,0.96999999999999997,-0.050000000000000003,-0.16,0.37,0.029999999999999999,0.68999999999999995],[0.76000000000000001,0.34999999999999998,-0.66000000000000003,-0.12,-0.10000000000000001,0.14000000000000001,0.58999999999999997,-0.98999999999999999,0.47999999999999998,-0.67000000000000004,-0.46999999999999997,-0.66000000000000003],[-0.33000000000000002,0.70999999999999996,-0.20999999999999999,0.58999999999999997,0.20000000000000001,-0.72999999999999998,0.13,-0.56999999999999995,0.17000000000000001,-0.59999999999999998,-0.28999999999999998,-0.66000000000000003],[0.91000000000000003,0.75,-0.25,-0.68999999999999995,-0.38,0.0,-0.050000000000000003,-0.72999999999999998,-0.25,0.12,-0.71999999999999997,-0.17000000000000001],[0.78000000000000003,0.02,-0.87,-0.90000000000000002,0.55000000000000004,0.91000000000000003,-1.0,0.38,0.54000000000000004,0.31,0.71999999999999997,-0.56000000000000005],[0.10000000000000001,-0.48999999999999999,0.77000000000000002,-0.28999999999999998,0.40999999999999998,-0.20000000000000001,-0.94999999999999996,-0.12,0.62,0.34000000000000002,0.92000000000000004,-0.37],[-0.14000000000000001,0.79000000000000004,-0.95999999999999996,0.41999999999999998,0.28000000000000003,0.85999999999999999,-0.31,-0.080000000000000002,0.63,-0.02,0.78000000000000003,-0.85999999999999999]],[[-0.14000000000000001,0.55000000000000004,-0.47999999999999998,-0.23000000000000001,0.83999999999999997,-0.88,-0.45000000000000001,-0.66000000000000003],[-0.45000000000000001,-0.81999999999999995,0.70999999999999996,0.14000000000000001,0.31,1.0,0.70999999999999996,0.040000000000000001]]]}
10;86.14;314.61;{"biases":[[[-0.28999999999999998],[-0.79000000000000004],[0.81999999999999995],[0.27000000000000002],[0.33000000000000002],[-0.040000000000000001],[-0.28999999999999998],[-0.93000000000000005],[-0.39000000000000001],[-0.11],[-0.27000000000000002],[0.60999999999999999]],[[-0.94999999999999996],[0.93000000000000005],[-0.83999999999999997],[0.52000000000000002],[0.5],[-0.95999999999999996],[0.46999999999999997],[-0.02]],[[0.42999999999999999],[-0.28999999999999998]]],"weights":[[[0.47999999999999998,0.050000000000000003,-0.40000000000000002],[-0.040000000000000001,-0.089999999999999997,0.54000000000000004],[-0.28999999999999998,0.5,0.089999999999999997],[-0.82999999999999996,0.72999999999999998,0.81999999999999995],[0.23999999999999999,-0.48999999999999999,-1.0],[0.28000000000000003,-0.080000000000000002,-0.60999999999999999],[-0.57999999999999996,-0.5,-0.73999999999999999],[-1.0,0.32000000000000001,0.65000000000000002],[0.97999999999999998,0.69999999999999996,-0.67000000000000004],[-0.14999999999999999,-0.97999999999999998,-0.33000000000000002],[-0.40000000000000002,0.71999999999999997,1.0],[-0.79000000000000004,-0.48999999999999999,0.12]],[[0.69999999999999996,-0.28999999999999998,-0.69999999999999996,0.94999999999999996,0.01,-0.57999999999999996,-0.46999999999999997,-0.35999999999999999,-0.20000000000000001,-0.51000000000000001,0.20999999999999999,-0.54000000000000004],[-0.089999999999999997,-0.059999999999999998,-0.91000000000000003,0.56999999999999995,-0.02,-0.75,0.96999999999999997,-0.050000000000000003,-0.16,0.37,0.029999999999999999,0.68999999999999995],[0.76000000000000001,0.34999999999999998,-0.66000000000000003,-0.12,-0.10000000000000001,0.14000000000000001,0.58999999999999997,-0.98999999999999999,0.47999999999999998,-0.67000000000000004,-0.46999999999999997,-0.66000000000000003],[-0.33000000000000002,0.70999999999999996,-0.20999999999999999,0.58999999999999997,0.20000000000000001,-0.72999999999999998,0.13,-0.56999999999999995,0.17000000000000001,-0.59999999999999998,-0.28999999999999998,-0.66000000000000003],[0.91000000000000003,0.75,-0.25,-0.68999999999999995,-0.38,0.0,-0.050000000000000003,-0.72999999999999998,-0.25,0.12,-0.71999999999999997,-0.17000000000000001],[0.78000000000000003,0.02,-0.87,-0.90000000000000002,0.55000000000000004,0.91000000000000003,-1.0,0.38,0.54000000000000004,0.31,0.71999999999999997,-0.56000000000000005],[0.10000000000000001,-0.48999999999999999,0.77000000000000002,-0.28999999999999998,0.40999999999999998,-0.20000000000000001,-0.94999999999999996,-0.12,0.62,0.34000000000000002,0.92000000000000004,-0.37],[-0.14000000000000001,0.79000000000000004,-0.95999999999999996,0.41999999999999998,0.28000000000000003,0.85999999999999999,-0.31,-0.080000000000000002,0.63,-0.02,0.78000000000000003,-0.85999999999999999]],[[-0.14000000000000001,0.55000000000000004,-0.47999999999999998,-0.23000000000000001,0.83999999999999997,-0.88,-0.45000000000000001,-0.66000000000000003],[-0.45000000000000001,-0.81999999999999995,0.70999999999999996,0.14000000000000001,0.31,1.0,0.70999999999999996,0.040000000000000001]]]}
11;86.14;314.61;{"biases":[[[-0.28999999999999998],[-0.79000000000000004],[0.81999999999999995],[0.27000000000000002],[0.33000000000000002],[-0.040000000000000001],[-0.28999999999999998],[-0.93000000000000005],[-0.39000000000000001],[-0.11],[-0.27000000000000002],[0.60999999999999999]],[[-0.94999999999999996],[0.93000000000000005],[-0.83999999999999997],[0.52000000000000002],[0.5],[-0.95999999999999996],[0.46999999999999997],[-0.02]],[[0.42999999999999999],[-0.28999999999999998]]],"weights":[[[0.47999999999999998,0.050000000000000003,-0.40000000000000002],[-0.040000000000000001,-0.089999999999999997,0.54000000000000004],[-0.28999999999999998,0.5,0.089999999999999997],[-0.82999999999999996,0.72999999999999998,0.81999999999999995],[0.23999999999999999,-0.48999999999999999,-1.0],[0.28000000000000003,-0.080000000000000002,-0.60999999999999999],[-0.57999999999999996,-0.5,-0.73999999999999999],[-1.0,0.32000000000000001,0.65000000000000002],[0.97999999999999998,0.69999999999999996,-0.67000000000000004],[-0.14999999999999999,-0.97999999999999998,-0.33000000000000002],[-0.40000000000000002,0.71999999999999997,1.0],[-0.79000000000000004,-0.48999999999999999,0.12]],[[0.69999999999999996,-0.28999999999999998,-0.69999999999999996,0.94999999999999996,0.01,-0.57999999999999996,-0.46999999999999997,-0.35999999999999999,-0.20000000000000001,-0.51000000000000001,0.20999999999999999,-0.54000000000000004],[-0.089999999999999997,-0.059999999999999998,-0.91000000000000003,0.56999999999999995,-0.02,-0.75,0.96999999999999997,-0.050000000000000003,-0.16,0.37,0.029999999999999999,0.68999999999999995],[0.76000000000000001,0.34999999999999998,-0.66000000000000003,-0.12,-0.10000000000000001,0.14000000000000001,0.58999999999999997,-0.98999999999999999,0.47999999999999998,-0.67000000000000004,-0.46999999999999997,-0.66000000000000003],[-0.33000000000000002,0.70999999999999996,-0.20999999999999999,0.58999999999999997,0.20000000000000001,-0.72999999999999998,0.13,-0.56999999999999995,0.17000000000000001,-0.59999999999999998,-0.28999999999999998,-0.66000000000000003],[0.91000000000000003,0.75,-0.25,-0.68999999999999995,-0.38,0.0,-0.050000000000000003,-0.72999999999999998,-0.25,0.12,-0.71999999999999997,-0.17000000000000001],[0.78000000000000003,0.02,-0.87,-0.90000000000000002,0.55000000000000004,0.91000000000000003,-1.0,0.38,0.54000000000000004,0.31,0.71999999999999997,-0.56000000000000005],[0.10000000000000001,-0.48999999999999999,0.77000000000000002,-0.28999999999999998,0.40999999999999998,-0.20000000000000001,-0.94999999999999996,-0.12,0.62,0.34000000000000002,0.92000000000000004,-0.37],[-0.14000000000000001,0.79000000000000004,-0.95999999999999996,0.41999999999999998,0.28000000000000003,0.85999999999999999,-0.31,-0.080000000000000002,0.63,-0.02,0.78000000000000003,-0.85999999999999999]],[[-0.14000000000000001,0.55000000000000004,-0.47999999999999998,-0.23000000000000001,0.83999999999999997,-0.88,-0.45000000000000001,-0.66000000000000003],[-0.45000000000000001,-0.81999999999999995,0.70999999999999996,0.14000000000000001,0.31,1.0,0.70999999999999996,0.040000000000000001]]]}
12;86.14;314.61;{"biases":[[[-0.28999999999999998],[-0.79000000000000004],[0.81999999999999995],[0.27000000000000002],[0.33000000000000002],[-0.040000000000000001],[-0.28999999999999998],[-0.93000000000000005],[-0.39000000000000001],[-0.11],[-0.27000000000000002],[0.60999999999999999]],[[-0.94999999999999996],[0.93000000000000005],[-0.83999999999999997],[0.52000000000000002],[0.5],[-0.95999999999999996],[0.46999999999999997],[-0.02]],[[0.42999999999999999],[-0.28999999999999998]]],"weights":[[[0.47999999999999998,0.050000000000000003,-0.40000000000000002],[-0.040000000000000001,-0.089999999999999997,0.54000000000000004],[-0.28999999999999998,0.5,0.089999999999999997],[-0.82999999999999996,0.72999999999999998,0.81999999999999995],[0.23999999999999999,-0.48999999999999999,-1.0],[0.28000000000000003,-0.080000000000000002,-0.60999999999999999],[-0.57999999999999996,-0.5,-0.73999999999999999],[-1.0,0.32000000000000001,0.65000000000000002],[0.97999999999999998,0.69999999999999996,-0.67000000000000004],[-0.14999999999999999,-0.97999999999999998,-0.33000000000000002],[-0.40000000000000002,0.71999999999999997,1.0],[-0.79000000000000004,-0.48999999999999999,0.12]],[[0.69999999999999996,-0.28999999999999998,-0.69999999999999996,0.94999999999999996,0.01,-0.57999999999999996,-0.46999999999999997,-0.35999999999999999,-0.20000000000000001,-0.51000000000000001,0.20999999999999999,-0.54000000000000004],[-0.089999999999999997,-0.059999999999999998,-0.91000000000000003,0.56999999999999995,-0.02,-0.75,0.96999999999999997,-0.050000000000000003,-0.16,0.37,0.029999999999999999,0.68999999999999995],[0.76000000000000001,0.34999999999999998,-0.66000000000000003,-0.12,-0.10000000000000001,0.14000000000000001,0.58999999999999997,-0.98999999999999999,0.47999999999999998,-0.67000000000000004,-0.46999999999999997,-0.66000000000000003],[-0.33000000000000002,0.70999999999999996,-0.20999999999999999,0.58999999999999997,0.20000000000000001,-0.72999999999999998,0.13,-0.56999999999999995,0.17000000000000001,-0.59999999999999998,-0.28999999999999998,-0.66000000000000003],[0.91000000000000003,0.75,-0.25,-0.68999999999999995,-0.38,0.0,-0.050000000000000003,-0.72999999999999998,-0.25,0.12,-0.71999999999999997,-0.17000000000000001],[0.78000000000000003,0.02,-0.87,-0.90000000000000002,0.55000000000000004,0.91000000000000003,-1.0,0.38,0.54000000000000004,0.31,0.71999999999999997,-0.56000000000000005],[0.10000000000000001,-0.48999999999999999,0.77000000000000002,-0.28999999999999998,0.40999999999999998,-0.20000000000000001,-0.94999999999999996,-0.12,0.62,0.34000000000000002,0.92000000000000004,-0.37],[-0.14000000000000001,0.79000000000000004,-0.95999999999999996,0.41999999999999998,0.28000000000000003,0.85999999999999999,-0.31,-0.080000000000000002,0.63,-0.02,0.78000000000000003,-0.85999999999999999]],[[-0.14000000000000001,0.55000000000000004,-0.47999999999999998,-0.23000000000000001,0.83999999999999997,-0.88,-0.45000000000000001,-0.66000000000000003],[-0.45000000000000001,-0.81999999999999995,0.70999999999999996,0.14000000000000001,0.31,1.0,0.70999999999999996,0.040000000000000001]]]}
13;86.14;314.61;{"biases":[[[-0.28999999999999998],[-0.79000000000000004],[0.81999999999999995],[0.27000000000000002],[0.33000000000000002],[-0.040000000000000001],[-0.28999999999999998],[-0.93000000000000005],[-0.39000000000000001],[-0.11],[-0.27000000000000002],[0.60999999999999999]],[[-0.94999999999999996],[0.93000000000000005],[-0.83999999999999997],[0.52000000000000002],[0.5],[-0.95999999999999996],[0.46999999999999997],[-0.02]],[[0.42999999999999999],[-0.28999999999999998]]],"weights":[[[0.47999999999999998,0.050000000000000003,-0.40000000000000002],[-0.040000000000000001,-0.089999999999999997,0.54000000000000004],[-0.28999999999999998,0.5,0.089999999999999997],[-0.82999999999999996,0.72999999999999998,0.81999999999999995],[0.23999999999999999,-0.48999999999999999,-1.0],[0.28000000000000003,-0.080000000000000002,-0.60999999999999999],[-0.57999999999999996,-0.5,-0.73999999999999999],[-1.0,0.32000000000000001,0.65000000000000002],[0.97999999999999998,0.69999999999999996,-0.67000000000000004],[-0.14999999999999999,-0.97999999999999998,-0.33000000000000002],[-0.40000000000000002,0.71999999999999997,1.0],[-0.79000000000000004,-0.48999999999999999,0.12]],[[0.69999999999999996,-0.28999999999999998,-0.69999999999999996,0.94999999999999996,0.01,-0.57999999999999996,-0.46999999999999997,-0.35999999999999999,-0.20000000000000001,-0.51000000000000001,0.20999999999999999,-0.54000000000000004],[-0.089999999999999997,-0.059999999999999998,-0.91000000000000003,0.56999999999999995,-0.02,-0.75,0.96999999999999997,-0.050000000000000003,-0.16,0.37,0.029999999999999999,0.68999999999999995],[0.76000000000000001,0.34999999999999998,-0.66000000000000003,-0.12,-0.10000000000000001,0.14000000000000001,0.58999999999999997,-0.98999999999999999,0.47999999999999998,-0.67000000000000004,-0.46999999999999997,-0.66000000000000003],[-0.33000000000000002,0.70999999999999996,-0.20999999999999999,0.58999999999999997,0.20000000000000001,-0.72999999999999998,0.13,-0.56999999999999995,0.17000000000000001,-0.59999999999999998,-0.28999999999999998,-0.66000000000000003],[0.91000000000000003,0.75,-0.25,-0.68999999999999995,-0.38,0.0,-0.050000000000000003,-0.72999999999999998,-0.25,0.12,-0.71999999999999997,-0.17000000000000001],[0.78000000000000003,0.02,-0.87,-0.90000000000000002,0.55000000000000004,0.91000000000000003,-1.0,0.38,0.54000000000000004,0.31,0.71999999999999997,-0.56000000000000005],[0.10000000000000001,-0.48999999999999999,0.77000000000000002,-0.28999999999999998,0.40999999999999998,-0.20000000000000001,-0.94999999999999996,-0.12,0.62,0.34000000000000002,0.92000000000000004,-0.37],[-0.14000000000000001,0.79000000000000004,-0.95999999999999996,0.41999999999999998,0.28000000000000003,0.85999999999999999,-0.31,-0.080000000000000002,0.63,-0.02,0.78000000000000003,-0.85999999999999999]],[[-0.14000000000000001,0.55000000000000004,-0.47999999999999998,-0.23000000000000001,0.83999999999999997,-0.88,-0.45000000000000001,-0.66000000000000003],[-0.45000000000000001,-0.81999999999999995,0.70999999999999996,0.14000000000000001,0.31,1.0,0.70999999999999996,0.040000000000000001]]]}
14;86.14;314.61;{"biases":[[[-0.28999999999999998],[-0.79000000000000004],[0.81999999999999995],[0.27000000000000002],[0.33000000000000002],[-0.040000000000000001],[-0.28999999999999998],[-0.93000000000000005],[-0.39000000000000001],[-0.11],[-0.27000000000000002],[0.60999999999999999]],[[-0.94999999999999996],[0.93000000000000005],[-0.83999999999999997],[0.52000000000000002],[0.5],[-0.95999999999999996],[0.46999999999999997],[-0.02]],[[0.42999999999999999],[-0.28999999999999998]]],"weights":[[[0.47999999999999998,0.050000000000000003,-0.40000000000000002],[-0.040000000000000001,-0.089999999999999997,0.54000000000000004],[-0.28999999999999998,0.5,0.089999999999999997],[-0.82999999999999996,0.72999999999999998,0.81999999999999995],[0.23999999999999999,-0.48999999999999999,-1.0],[0.28000000000000003,-0.080000000000000002,-0.60999999999999999],[-0.57999999999999996,-0.5,-0.73999999999999999],[-1.0,0.32000000000000001,0.65000000000000002],[0.97999999999999998,0.69999999999999996,-0.67000000000000004],[-0.14999999999999999,-0.97999999999999998,-0.33000000000000002],[-0.40000000000000002,0.71999999999999997,1.0],[-0.79000000000000004,-0.48999999999999999,0.12]],[[0.69999999999999996,-0.28999999999999998,-0.69999999999999996,0.94999999999999996,0.01,-0.57999999999999996,-0.46999999999999997,-0.35999999999999999,-0.20000000000000001,-0.51000000000000001,0.20999999999999999,-0.54000000000000004],[-0.089999999999999997,-0.059999999999999998,-0.91000000000000003,0.56999999999999995,-0.02,-0.75,0.96999999999999997,-0.050000000000000003,-0.16,0.37,0.029999999999999999,0.68999999999999995],[0.76000000000000001,0.34999999999999998,-0.66000000000000003,-0.12,-0.10000000000000001,0.14000000000000001,0.58999999999999997,-0.98999999999999999,0.47999999999999998,-0.67000000000000004,-0.46999999999999997,-0.66000000000000003],[-0.33000000000000002,0.70999999999999996,-0.20999999999999999,0.58999999999999997,0.20000000000000001,-0.72999999999999998,0.13,-0.56999999999999995,0.17000000000000001,-0.59999999999999998,-0.28999999999999998,-0.66000000000000003],[0.91000000000000003,0.75,-0.25,-0.68999999999999995,-0.38,0.0,-0.050000000000000003,-0.72999999999999998,-0.25,0.12,-0.71999999999999997,-0.17000000000000001],[0.78000000000000003,0.02,-0.87,-0.90000000000000002,0.55000000000000004,0.91000000000000003,-1.0,0.38,0.54000000000000004,0.31,0.71999999999999997,-0.56000000000000005],[0.10000000000000001,-0.48999999999999999,0.77000000000000002,-0.28999999999999998,0.40999999999999998,-0.20000000000000001,-0.94999999999999996,-0.12,0.62,0.34000000000000002,0.92000000000000004,-0.37],[-0.14000000000000001,0.79000000000000004,-0.95999999999999996,0.41999999999999998,0.28000000000000003,0.85999999999999999,-0.31,-0.080000000000000002,0.63,-0.02,0.78000000000000003,-0.85999999999999999]],[[-0.14000000000000001,0.55000000000000004,-0.47999999999999998,-0.23000000000000001,0.83999999999999997,-0.88,-0.45000000000000001,-0.66000000000000003],[-0.45000000000000001,-0.81999999999999995,0.70999999999999996,0.14000000000000001,0.31,1.0,0.70999999999999996,0.040000000000000001]]]}
15;86.14;314.61;{"biases":[[[-0.28999999999999998],[-0.79000000000000004],[0.81999999999999995],[0.27000000000000002],[0.33000000000000002],[-0.040000000000000001],[-0.28999999999999998],[-0.93000000000000005],[-0.39000000000000001],[-0.11],[-0.27000000000000002],[0.60999999999999999]],[[-0.94999999999999996],[0.93000000000000005],[-0.83999999999999997],[0.52000000000000002],[0.5],[-0.95999999999999996],[0.46999999999999997],[-0.02]],[[0.42999999999999999],[-0.28999999999999998]]],"weights":[[[0.47999999999999998,0.050000000000000003,-0.40000000000000002],[-0.040000000000000001,-0.089999999999999997,0.54000000000000004],[-0.28999999999999998,0.5,0.089999999999999997],[-0.82999999999999996,0.72999999999999998,0.81999999999999995],[0.23999999999999999,-0.48999999999999999,-1.0],[0.28000000000000003,-0.080000000000000002,-0.60999999999999999],[-0.57999999999999996,-0.5,-0.73999999999999999],[-1.0,0.32000000000000001,0.65000000000000002],[0.97999999999999998,0.69999999999999996,-0.67000000000000004],[-0.14999999999999999,-0.97999999999999998,-0.33000000000000002],[-0.40000000000000002,0.71999999999999997,1.0],[-0.79000000000000004,-0.48999999999999999,0.12]],[[0.69999999999999996,-0.28999999999999998,-0.69999999999999996,0.94999999999999996,0.01,-0.57999999999999996,-0.46999999999999997,-0.35999999999999999,-0.20000000000000001,-0.51000000000000001,0.20999999999999999,-0.54000000000000004],[-0.089999999999999997,-0.059999999999999998,-0.91000000000000003,0.56999999999999995,-0.02,-0.75,0.96999999999999997,-0.050000000000000003,-0.16,0.37,0.029999999999999999,0.68999999999999995],[0.76000000000000001,0.34999999999999998,-0.66000000000000003,-0.12,-0.10000000000000001,0.14000000000000001,0.58999999999999997,-0.98999999999999999,0.47999999999999998,-0.67000000000000004,-0.46999999999999997,-0.66000000000000003],[-0.33000000000000002,0.70999999999999996,-0.20999999999999999,0.58999999999999997,0.20000000000000001,-0.72999999999999998,0.13,-0.56999999999999995,0.17000000000000001,-0.59999999999999998,-0.28999999999999998,-0.66000000000000003],[0.91000000000000003,0.75,-0.25,-0.68999999999999995,-0.38,0.0,-0.050000000000000003,-0.72999999999999998,-0.25,0.12,-0.71999999999999997,-0.17000000000000001],[0.78000000000000003,0.02,-0.87,-0.90000000000000002,0.55000000000000004,0.91000000000000003,-1.0,0.38,0.54000000000000004,0.31,0.71999999999999997,-0.56000000000000005],[0.10000000000000001,-0.48999999999999999,0.77000000000000002,-0.28999999999999998,0.40999999999999998,-0.20000000000000001,-0.94999999999999996,-0.12,0.62,0.34000000000000002,0.92000000000000004,-0.37],[-0.14000000000000001,0.79000000000000004,-0.95999999999999996,0.41999999999999998,0.28000000000000003,0.85999999999999999,-0.31,-0.080000000000000002,0.63,-0.02,0.78000000000000003,-0.85999999999999999]],[[-0.14000000000000001,0.55000000000000004,-0.47999999999999998,-0.23000000000000001,0.83999999999999997,-0.88,-0.45000000000000001,-0.66000000000000003],[-0.45000000000000001,-0.81999999999999995,0.70999999999999996,0.14000000000000001,0.31,1.0,0.70999999999999996,0.040000000000000001]]]}
16;86.14;314.61;{"biases":[[[-0.28999999999999998],[-0.79000000000000004],[0.81999999999999995],[0.27000000000000002],[0.33000000000000002],[-0.040000000000000001],[-0.28999999999999998],[-0.93000000000000005],[-0.39000000000000001],[-0.11],[-0.27000000000000002],[0.60999999999999999]],[[-0.94999999999999996],[0.93000000000000005],[-0.83999999999999997],[0.52000000000000002],[0.5],[-0.95999999999999996],[0.46999999999999997],[-0.02]],[[0.42999999999999999],[-0.28999999999999998]]],"weights":[[[0.47999999999999998,0.050000000000000003,-0.40000000000000002],[-0.040000000000000001,-0.089999999999999997,0.54000000000000004],[-0.28999999999999998,0.5,0.089999999999999997],[-0.82999999999999996,0.72999999999999998,0.81999999999999995],[0.23999999999999999,-0.48999999999999999,-1.0],[0.28000000000000003,-0.080000000000000002,-0.60999999999999999],[-0.57999999999999996,-0.5,-0.73999999999999999],[-1.0,0.32000000000000001,0.65000000000000002],[0.97999999999999998,0.69999999999999996,-0.67000000000000004],[-0.14999999999999999,-0.97999999999999998,-0.33000000000000002],[-0.40000000000000002,0.71999999999999997,1.0],[-0.79000000000000004,-0.48999999999999999,0.12]],[[0.69999999999999996,-0.28999999999999998,-0.69999999999999996,0.94999999999999996,0.01,-0.57999999999999996,-0.46999999999999997,-0.35999999999999999,-0.20000000000000001,-0.51000000000000001,0.20999999999999999,-0.54000000000000004],[-0.089999999999999997,-0.059999999999999998,-0.91000000000000003,0.56999999999999995,-0.02,-0.75,0.96999999999999997,-0.050000000000000003,-0.16,0.37,0.029999999999999999,0.68999999999999995],[0.76000000000000001,0.34999999999999998,-0.66000000000000003,-0.12,-0.10000000000000001,0.14000000000000001,0.58999999999999997,-0.98999999999999999,0.47999999999999998,-0.67000000000000004,-0.46999999999999997,-0.66000000000000003],[-0.33000000000000002,0.70999999999999996,-0.20999999999999999,0.58999999999999997,0.20000000000000001,-0.72999999999999998,0.13,-0.56999999999999995,0.17000000000000001,-0.59999999999999998,-0.28999999999999998,-0.66000000000000003],[0.91000000000000003,0.75,-0.25,-0.68999999999999995,-0.38,0.0,-0.050000000000000003,-0.72999999999999998,-0.25,0.12,-0.71999999999999997,-0.17000000000000001],[0.78000000000000003,0.02,-0.87,-0.90000000000000002,0.55000000000000004,0.91000000000000003,-1.0,0.38,0.54000000000000004,0.31,0.71999999999999997,-0.56000000000000005],[0.10000000000000001,-0.48999999999999999,0.77000000000000002,-0.28999999999999998,0.40999999999999998,-0.20000000000000001,-0.94999999999999996,-0.12,0.62,0.34000000000000002,0.92000000000000004,-0.37],[-0.14000000000000001,0.79000000000000004,-0.95999999999999996,0.41999999999999998,0.28000000000000003,0.85999999999999999,-0.31,-0.080000000000000002,0.63,-0.02,0.78000000000000003,-0.85999999999999999]],[[-0.14000000000000001,0.55000000000000004,-0.47999999999999998,-0.23000000000000001,0.83999999999999997,-0.88,-0.45000000000000001,-0.66000000000000003],[-0.45000000000000001,-0.81999999999999995,0.70999999999999996,0.14000000000000001,0.31,1.0,0.70999999999999996,0.040000000000000001]]]}
17;86.14;314.61;{"biases":[[[-0.28999999999999998],[-0.79000000000000004],[0.81999999999999995],[0.27000000000000002],[0.33000000000000002],[-0.040000000000000001],[-0.28999999999999998],[-0.93000000000000005],[-0.39000000000000001],[-0.11],[-0.27000000000000002],[0.60999999999999999]],[[-0.94999999999999996],[0.93000000000000005],[-0.83999999999999997],[0.52000000000000002],[0.5],[-0.95999999999999996],[0.46999999999999997],[-0.02]],[[0.42999999999999999],[-0.28999999999999998]]],"weights":[[[0.47999999999999998,0.050000000000000003,-0.40000000000000002],[-0.040000000000000001,-0.089999999999999997,0.54000000000000004],[-0.28999999999999998,0.5,0.089999999999999997],[-0.82999999999999996,0.72999999999999998,0.81999999999999995],[0.23999999999999999,-0.48999999999999999,-1.0],[0.28000000000000003,-0.080000000000000002,-0.60999999999999999],[-0.57999999999999996,-0.5,-0.73999999999999999],[-1.0,0.32000000000000001,0.65000000000000002],[0.97999999999999998,0.69999999999999996,-0.67000000000000004],[-0.14999999999999999,-0.97999999999999998,-0.33000000000000002],[-0.40000000000000002,0.71999999999999997,1.0],[-0.79000000000000004,-0.48999999999999999,0.12]],[[0.69999999999999996,-0.28999999999999998,-0.69999999999999996,0.94999999999999996,0.01,-0.57999999999999996,-0.46999999999999997,-0.35999999999999999,-0.20000000000000001,-0.51000000000000001,0.20999999999999999,-0.54000000000000004],[-0.089999999999999997,-0.059999999999999998,-0.91000000000000003,0.56999999999999995,-0.02,-0.75,0.96999999999999997,-0.050000000000000003,-0.16,0.37,0.029999999999999999,0.68999999999999995],[0.76000000000000001,0.34999999999999998,-0.66000000000000003,-0.12,-0.10000000000000001,0.14000000000000001,0.58999999999999997,-0.98999999999999999,0.47999999999999998,-0.67000000000000004,-0.46999999999999997,-0.66000000000000003],[-0.33000000000000002,0.70999999999999996,-0.20999999999999999,0.58999999999999997,0.20000000000000001,-0.72999999999999998,0.13,-0.56999999999999995,0.17000000000000001,-0.59999999999999998,-0.28999999999999998,-0.66000000000000003],[0.91000000000000003,0.75,-0.25,-0.68999999999999995,-0.38,0.0,-0.050000000000000003,-0.72999999999999998,-0.25,0.12,-0.71999999999999997,-0.17000000000000001],[0.78000000000000003,0.02,-0.87,-0.90000000000000002,0.55000000000000004,0.91000000000000003,-1.0,0.38,0.54000000000000004,0.31,0.71999999999999997,-0.56000000000000005],[0.10000000000000001,-0.48999999999999999,0.77000000000000002,-0.28999999999999998,0.40999999999999998,-0.20000000000000001,-0.94999999999999996,-0.12,0.62,0.34000000000000002,0.92000000000000004,-0.37],[-0.14000000000000001,0.79000000000000004,-0.95999999999999996,0.41999999999999998,0.28000000000000003,0.85999999999999999,-0.31,-0.080000000000000002,0.63,-0.02,0.78000000000000003,-0.85999999999999999]],[[-0.14000000000000001,0.55000000000000004,-0.47999999999999998,-0.23000000000000001,0.83999999999999997,-0.88,-0.45000000000000001,-0.66000000000000003],[-0.45000000000000001,-0.81999999999999995,0.70999999999999996,0.14000000000000001,0.31,1.0,0.70999999999999996,0.040000000000000001]]]}
18;86.14;314.61;{"biases":[[[-0.28999999999999998],[-0.79000000000000004],[0.81999999999999995],[0.27000000000000002],[0.33000000000000002],[-0.040000000000000001],[-0.28999999999999998],[-0.93000000000000005],[-0.39000000000000001],[-0.11],[-0.27000000000000002],[0.60999999999999999]],[[-0.94999999999999996],[0.93000000000000005],[-0.83999999999999997],[0.52000000000000002],[0.5],[-0.95999999999999996],[0.46999999999999997],[-0.02]],[[0.42999999999999999],[-0.28999999999999998]]],"weights":[[[0.47999999999999998,0.050000000000000003,-0.40000000000000002],[-0.040000000000000001,-0.089999999999999997,0.54000000000000004],[-0.28999999999999998,0.5,0.089999999999999997],[-0.82999999999999996,0.72999999999999998,0.81999999999999995],[0.23999999999999999,-0.48999999999999999,-1.0],[0.28000000000000003,-0.080000000000000002,-0.60999999999999999],[-0.57999999999999996,-0.5,-0.73999999999999999],[-1.0,0.32000000000000001,0.65000000000000002],[0.97999999999999998,0.69999999999999996,-0.67000000000000004],[-0.14999999999999999,-0.97999999999999998,-0.33000000000000002],[-0.40000000000000002,0.71999999999999997,1.0],[-0.79000000000000004,-0.48999999999999999,0.12]],[[0.69999999999999996,-0.28999999999999998,-0.69999999999999996,0.94999999999999996,0.01,-0.57999999999999996,-0.46999999999999997,-0.35999999999999999,-0.20000000000000001,-0.51000000000000001,0.20999999999999999,-0.54000000000000004],[-0.089999999999999997,-0.059999999999999998,-0.91000000000000003,0.56999999999999995,-0.02,-0.75,0.96999999999999997,-0.050000000000000003,-0.16,0.37,0.029999999999999999,0.68999999999999995],[0.76000000000000001,0.34999999999999998,-0.66000000000000003,-0.12,-0.10000000000000001,0.14000000000000001,0.58999999999999997,-0.98999999999999999,0.47999999999999998,-0.67000000000000004,-0.46999999999999997,-0.66000000000000003],[-0.33000000000000002,0.70999999999999996,-0.20999999999999999,0.58999999999999997,0.20000000000000001,-0.72999999999999998,0.13,-0.56999999999999995,0.17000000000000001,-0.59999999999999998,-0.28999999999999998,-0.66000000000000003],[0.91000000000000003,0.75,-0.25,-0.68999999999999995,-0.38,0.0,-0.050000000000000003,-0.72999999999999998,-0.25,0.12,-0.71999999999999997,-0.17000000000000001],[0.78000000000000003,0.02,-0.87,-0.90000000000000002,0.55000000000000004,0.91000000000000003,-1.0,0.38,0.54000000000000004,0.31,0.71999999999999997,-0.56000000000000005],[0.10000000000000001,-0.48999999999999999,0.77000000000000002,-0.28999999999999998,0.40999999999999998,-0.20000000000000001,-0.94999999999999996,-0.12,0.62,0.34000000000000002,0.92000000000000004,-0.37],[-0.14000000000000001,0.79000000000000004,-0.95999999999999996,0.41999999999999998,0.28000000000000003,0.85999999999999999,-0.31,-0.080000000000000002,0.63,-0.02,0.78000000000000003,-0.85999999999999999]],[[-0.14000000000000001,0.55000000000000004,-0.47999999999999998,-0.23000000000000001,0.83999999999999997,-0.88,-0.45000000000000001,-0.66000000000000003],[-0.45000000000000001,-0.81999999999999995,0.70999999999999996,0.14000000000000001,0.31,1.0,0.70999999999999996,0.040000000000000001]]]}
19;86.14;314.61;{"biases":[[[-0.28999999999999998],[-0.79000000000000004],[0.81999999999999995],[0.27000000000000002],[0.33000000000000002],[-0.040000000000000001],[-0.28999999999999998],[-0.93000000000000005],[-0.39000000000000001],[-0.11],[-0.27000000000000002],[0.60999999999999999]],[[-0.94999999999999996],[0.93000000000000005],[-0.83999999999999997],[0.52000000000000002],[0.5],[-0.95999999999999996],[0.46999999999999997],[-0.02]],[[0.42999999999999999],[-0.28999999999999998]]],"weights":[[[0.47999999999999998,0.050000000000000003,-0.40000000000000002],[-0.040000000000000001,-0.089999999999999997,0.54000000000000004],[-0.28999999999999998,0.5,0.089999999999999997],[-0.82999999999999996,0.72999999999999998,0.81999999999999995],[0.23999999999999999,-0.48999999999999999,-1.0],[0.28000000000000003,-0.080000000000000002,-0.60999999999999999],[-0.57999999999999996,-0.5,-0.73999999999999999],[-1.0,0.32000000000000001,0.65000000000000002],[0.97999999999999998,0.69999999999999996,-0.67000000000000004],[-0.14999999999999999,-0.97999999999999998,-0.33000000000000002],[-0.40000000000000002,0.71999999999999997,1.0],[-0.79000000000000004,-0.48999999999999999,0.12]],[[0.69999999999999996,-0.28999999999999998,-0.69999999999999996,0.94999999999999996,0.01,-0.57999999999999996,-0.46999999999999997,-0.35999999999999999,-0.20000000000000001,-0.51000000000000001,0.20999999999999999,-0.54000000000000004],[-0.089999999999999997,-0.059999999999999998,-0.91000000000000003,0.56999999999999995,-0.02,-0.75,0.96999999999999997,-0.050000000000000003,-0.16,0.37,0.029999999999999999,0.68999999999999995],[0.76000000000000001,0.34999999999999998,-0.66000000000000003,-0.12,-0.10000000000000001,0.14000000000000001,0.58999999999999997,-0.98999999999999999,0.47999999999999998,-0.67000000000000004,-0.46999999999999997,-0.66000000000000003],[-0.33000000000000002,0.70999999999999996,-0.20999999999999999,0.58999999999999997,0.20000000000000001,-0.72999999999999998,0.13,-0.56999999999999995,0.17000000000000001,-0.59999999999999998,-0.28999999999999998,-0.66000000000000003],[0.91000000000000003,0.75,-0.25,-0.68999999999999995,-0.38,0.0,-0.050000000000000003,-0.72999999999999998,-0.25,0.12,-0.71999999999999997,-0.17000000000000001],[0.78000000000000003,0.02,-0.87,-0.90000000000000002,0.55000000000000004,0.91000000000000003,-1.0,0.38,0.54000000000000004,0.31,0.71999999999999997,-0.56000000000000005],[0.10000000000000001,-0.48999999999999999,0.77000000000000002,-0.28999999999999998,0.40999999999999998,-0.20000000000000001,-0.94999999999999996,-0.12,0.62,0.34000000000000002,0.92000000000000004,-0.37],[-0.14000000000000001,0.79000000000000004,-0.95999999999999996,0.41999999999999998,0.28000000000000003,0.85999999999999999,-0.31,-0.080000000000000002,0.63,-0.02,0.78000000000000003,-0.85999999999999999]],[[-0.14000000000000001,0.55000000000000004,-0.47999999999999998,-0.23000000000000001,0.83999999999999997,-0.88,-0.45000000000000001,-0.66000000000000003],[-0.45000000000000001,-0.81999999999999995,0.70999999999999996,0.14000000000000001,0.31,1.0,0.70999999999999996,0.040000000000000001]]]}
20;86.14;314.61;{"biases":[[[-0.28999999999999998],[-0.79000000000000004],[0.81999999999999995],[0.27000000000000002],[0.33000000000000002],[-0.040000000000000001],[-0.28999999999999998],[-0.93000000000000005],[-0.39000000000000001],[-0.11],[-0.27000000000000002],[0.60999999999999999]],[[-0.94999999999999996],[0.93000000000000005],[-0.83999999999999997],[0.52000000000000002],[0.5],[-0.95999999999999996],[0.46999999999999997],[-0.02]],[[0.42999999999999999],[-0.28999999999999998]]],"weights":[[[0.47999999999999998,0.050000000000000003,-0.40000000000000002],[-0.040000000000000001,-0.089999999999999997,0.54000000000000004],[-0.28999999999999998,0.5,0.089999999999999997],[-0.82999999999999996,0.72999999999999998,0.81999999999999995],[0.23999999999999999,-0.48999999999999999,-1.0],[0.28000000000000003,-0.080000000000000002,-0.60999999999999999],[-0.57999999999999996,-0.5,-0.73999999999999999],[-1.0,0.32000000000000001,0.65000000000000002],[0.97999999999999998,0.69999999999999996,-0.67000000000000004],[-0.14999999999999999,-0.97999999999999998,-0.33000000000000002],[-0.40000000000000002,0.71999999999999997,1.0],[-0.79000000000000004,-0.48999999999999999,0.12]],[[0.69999999999999996,-0.28999999999999998,-0.69999999999999996,0.94999999999999996,0.01,-0.57999999999999996,-0.46999999999999997,-0.35999999999999999,-0.20000000000000001,-0.51000000000000001,0.20999999999999999,-0.54000000000000004],[-0.089999999999999997,-0.059999999999999998,-0.91000000000000003,0.56999999999999995,-0.02,-0.75,0.96999999999999997,-0.050000000000000003,-0.16,0.37,0.029999999999999999,0.68999999999999995],[0.76000000000000001,0.34999999999999998,-0.66000000000000003,-0.12,-0.10000000000000001,0.14000000000000001,0.58999999999999997,-0.98999999999999999,0.47999999999999998,-0.67000000000000004,-0.46999999999999997,-0.66000000000000003],[-0.33000000000000002,0.70999999999999996,-0.20999999999999999,0.58999999999999997,0.20000000000000001,-0.72999999999999998,0.13,-0.56999999999999995,0.17000000000000001,-0.59999999999999998,-0.28999999999999998,-0.66000000000000003],[0.91000000000000003,0.75,-0.25,-0.68999999999999995,-0.38,0.0,-0.050000000000000003,-0.72999999999999998,-0.25,0.12,-0.71999999999999997,-0.17000000000000001],[0.78000000000000003,0.02,-0.87,-0.90000000000000002,0.55000000000000004,0.91000000000000003,-1.0,0.38,0.54000000000000004,0.31,0.71999999999999997,-0.56000000000000005],[0.10000000000000001,-0.48999999999999999,0.77000000000000002,-0.28999999999999998,0.40999999999999998,-0.20000000000000001,-0.94999999999999996,-0.12,0.62,0.34000000000000002,0.92000000000000004,-0.37],[-0.14000000000000001,0.79000000000000004,-0.95999999999999996,0.41999999999999998,0.28000000000000003,0.85999999999999999,-0.31,-0.080000000000000002,0.63,-0.02,0.78000000000000003,-0.85999999999999999]],[[-0.14000000000000001,0.55000000000000004,-0.47999999999999998,-0.23000000000000001,0.83999999999999997,-0.88,-0.45000000000000001,-0.66000000000000003],[-0.45000000000000001,-0.81999999999999995,0.70999999999999996,0.14000000000000001,0.31,1.0,0.70999999999999996,0.040000000000000001]]]}
21;86.14;314.61;{"biases":[[[-0.28999999999999998],[-0.79000000000000004],[0.81999999999999995],[0.27000000000000002],[0.33000000000000002],[-0.040000000000000001],[-0.28999999999999998],[-0.93000000000000005],[-0.39000000000000001],[-0.11],[-0.27000000000000002],[0.60999999999999999]],[[-0.94999999999999996],[0.93000000000000005],[-0.83999999999999997],[0.52000000000000002],[0.5],[-0.95999999999999996],[0.46999999999999997],[-0.02]],[[0.42999999999999999],[-0.28999999999999998]]],"weights":[[[0.47999999999999998,0.050000000000000003,-0.40000000000000002],[-0.040000000000000001,-0.089999999999999997,0.54000000000000004],[-0.28999999999999998,0.5,0.089999999999999997],[-0.82999999999999996,0.72999999999999998,0.81999999999999995],[0.23999999999999999,-0.48999999999999999,-1.0],[0.28000000000000003,-0.080000000000000002,-0.60999999999999999],[-0.57999999999999996,-0.5,-0.73999999999999999],[-1.0,0.32000000000000001,0.65000000000000002],[0.97999999999999998,0.69999999999999996,-0.67000000000000004],[-0.14999999999999999,-0.97999999999999998,-0.33000000000000002],[-0.40000000000000002,0.71999999999999997,1.0],[-0.79000000000000004,-0.48999999999999999,0.12]],[[0.69999999999999996,-0.28999999999999998,-0.69999999999999996,0.94999999999999996,0.01,-0.57999999999999996,-0.46999999999999997,-0.35999999999999999,-0.20000000000000001,-0.51000000000000001,0.20999999999999999,-0.54000000000000004],[-0.089999999999999997,-0.059999999999999998,-0.91000000000000003,0.56999999999999995,-0.02,-0.75,0.96999999999999997,-0.050000000000000003,-0.16,0.37,0.029999999999999999,0.68999999999999995],[0.76000000000000001,0.34999999999999998,-0.66000000000000003,-0.12,-0.10000000000000001,0.14000000000000001,0.58999999999999997,-0.98999999999999999,0.47999999999999998,-0.67000000000000004,-0.46999999999999997,-0.66000000000000003],[-0.33000000000000002,0.70999999999999996,-0.20999999999999999,0.58999999999999997,0.20000000000000001,-0.72999999999999998,0.13,-0.56999999999999995,0.17000000000000001,-0.59999999999999998,-0.28999999999999998,-0.66000000000000003],[0.91000000000000003,0.75,-0.25,-0.68999999999999995,-0.38,0.0,-0.050000000000000003,-0.72999999999999998,-0.25,0.12,-0.71999999999999997,-0.17000000000000001],[0.78000000000000003,0.02,-0.87,-0.90000000000000002,0.55000000000000004,0.91000000000000003,-1.0,0.38,0.54000000000000004,0.31,0.71999999999999997,-0.56000000000000005],[0.10000000000000001,-0.48999999999999999,0.77000000000000002,-0.28999999999999998,0.40999999999999998,-0.20000000000000001,-0.94999999999999996,-0.12,0.62,0.34000000000000002,0.92000000000000004,-0.37],[-0.14000000000000001,0.79000000000000004,-0.95999999999999996,0.41999999999999998,0.28000000000000003,0.85999999999999999,-0.31,-0.080000000000000002,0.63,-0.02,0.78000000000000003,-0.85999999999999999]],[[-0.14000000000000001,0.55000000000000004,-0.47999999999999998,-0.23000000000000001,0.83999999999999997,-0.88,-0.45000000000000001,-0.66000000000000003],[-0.45000000000000001,-0.81999999999999995,0.70999999999999996,0.14000000000000001,0.31,1.0,0.70999999999999996,0.040000000000000001]]]}
22;86.14;314.61;{"biases":[[[-0.28999999999999998],[-0.79000000000000004],[0.81999999999999995],[0.27000000000000002],[0.33000000000000002],[-0.040000000000000001],[-0.28999999999999998],[-0.93000000000000005],[-0.39000000000000001],[-0.11],[-0.27000000000000002],[0.60999999999999999]],[[-0.94999999999999996],[0.93000000000000005],[-0.83999999999999997],[0.52000000000000002],[0.5],[-0.95999999999999996],[0.46999999999999997],[-0.02]],[[0.42999999999999999],[-0.28999999999999998]]],"weights":[[[0.47999999999999998,0.050000000000000003,-0.40000000000000002],[-0.040000000000000001,-0.089999999999999997,0.54000000000000004],[-0.28999999999999998,0.5,0.089999999999999997],[-0.82999999999999996,0.72999999999999998,0.81999999999999995],[0.23999999999999999,-0.48999999999999999,-1.0],[0.28000000000000003,-0.080000000000000002,-0.60999999999999999],[-0.57999999999999996,-0.5,-0.73999999999999999],[-1.0,0.32000000000000001,0.65000000000000002],[0.97999999999999998,0.69999999999999996,-0.67000000000000004],[-0.14999999999999999,-0.97999999999999998,-0.33000000000000002],[-0.40000000000000002,0.71999999999999997,1.0],[-0.79000000000000004,-0.48999999999999999,0.12]],[[0.69999999999999996,-0.28999999999999998,-0.69999999999999996,0.94999999999999996,0.01,-0.57999999999999996,-0.46999999999999997,-0.35999999999999999,-0.20000000000000001,-0.51000000000000001,0.20999999999999999,-0.54000000000000004],[-0.089999999999999997,-0.059999999999999998,-0.91000000000000003,0.56999999999999995,-0.02,-0.75,0.96999999999999997,-0.050000000000000003,-0.16,0.37,0.029999999999999999,0.68999999999999995],[0.76000000000000001,0.34999999999999998,-0.66000000000000003,-0.12,-0.10000000000000001,0.14000000000000001,0.58999999999999997,-0.98999999999999999,0.47999999999999998,-0.67000000000000004,-0.46999999999999997,-0.66000000000000003],[-0.33000000000000002,0.70999999999999996,-0.20999999999999999,0.58999999999999997,0.20000000000000001,-0.72999999999999998,0.13,-0.56999999999999995,0.17000000000000001,-0.59999999999999998,-0.28999999999999998,-0.66000000000000003],[0.91000000000000003,0.75,-0.25,-0.68999999999999995,-0.38,0.0,-0.050000000000000003,-0.72999999999999998,-0.25,0.12,-0.71999999999999997,-0.17000000000000001],[0.78000000000000003,0.02,-0.87,-0.90000000000000002,0.55000000000000004,0.91000000000000003,-1.0,0.38,0.54000000000000004,0.31,0.71999999999999997,-0.56000000000000005],[0.10000000000000001,-0.48999999999999999,0.77000000000000002,-0.28999999999999998,0.40999999999999998,-0.20000000000000001,-0.94999999999999996,-0.12,0.62,0.34000000000000002,0.92000000000000004,-0.37],[-0.14000000000000001,0.79000000000000004,-0.95999999999999996,0.41999999999999998,0.28000000000000003,0.85999999999999999,-0.31,-0.080000000000000002,0.63,-0.02,0.78000000000000003,-0.85999999999999999]],[[-0.14000000000000001,0.55000000000000004,-0.47999999999999998,-0.23000000000000001,0.83999999999999997,-0.88,-0.45000000000000001,-0.66000000000000003],[-0.45000000000000001,-0.81999999999999995,0.70999999999999996,0.14000000000000001,0.31,1.0,0.70999999999999996,0.040000000000000001]]]}
23;86.14;314.61;{"biases":[[[-0.28999999999999998],[-0.79000000000000004],[0.81999999999999995],[0.27000000000000002],[0.33000000000000002],[-0.040000000000000001],[-0.28999999999999998],[-0.93000000000000005],[-0.39000000000000001],[-0.11],[-0.27000000000000002],[0.60999999999999999]],[[-0.94999999999999996],[0.93000000000000005],[-0.83999999999999997],[0.52000000000000002],[0.5],[-0.95999999999999996],[0.46999999999999997],[-0.02]],[[0.42999999999999999],[-0.28999999999999998]]],"weights":[[[0.47999999999999998,0.050000000000000003,-0.40000000000000002],[-0.040000000000000001,-0.089999999999999997,0.54000000000000004],[-0.28999999999999998,0.5,0.089999999999999997],[-0.82999999999999996,0.72999999999999998,0.81999999999999995],[0.23999999999999999,-0.48999999999999999,-1.0],[0.28000000000000003,-0.080000000000000002,-0.60999999999999999],[-0.57999999999999996,-0.5,-0.73999999999999999],[-1.0,0.32000000000000001,0.65000000000000002],[0.97999999999999998,0.69999999999999996,-0.67000000000000004],[-0.14999999999999999,-0.97999999999999998,-0.33000000000000002],[-0.40000000000000002,0.71999999999999997,1.0],[-0.79000000000000004,-0.48999999999999999,0.12]],[[0.69999999999999996,-0.28999999999999998,-0.69999999999999996,0.94999999999999996,0.01,-0.57999999999999996,-0.46999999999999997,-0.35999999999999999,-0.20000000000000001,-0.51000000000000001,0.20999999999999999,-0.54000000000000004],[-0.089999999999999997,-0.059999999999999998,-0.91000000000000003,0.56999999999999995,-0.02,-0.75,0.96999999999999997,-0.050000000000000003,-0.16,0.37,0.029999999999999999,0.68999999999999995],[0.76000000000000001,0.34999999999999998,-0.66000000000000003,-0.12,-0.10000000000000001,0.14000000000000001,0.58999999999999997,-0.98999999999999999,0.47999999999999998,-0.67000000000000004,-0.46999999999999997,-0.66000000000000003],[-0.33000000000000002,0.70999999999999996,-0.20999999999999999,0.58999999999999997,0.20000000000000001,-0.72999999999999998,0.13,-0.56999999999999995,0.17000000000000001,-0.59999999999999998,-0.28999999999999998,-0.66000000000000003],[0.91000000000000003,0.75,-0.25,-0.68999999999999995,-0.38,0.0,-0.050000000000000003,-0.72999999999999998,-0.25,0.12,-0.71999999999999997,-0.17000000000000001],[0.78000000000000003,0.02,-0.87,-0.90000000000000002,0.55000000000000004,0.91000000000000003,-1.0,0.38,0.54000000000000004,0.31,0.71999999999999997,-0.56000000000000005],[0.10000000000000001,-0.48999999999999999,0.77000000000000002,-0.28999999999999998,0.40999999999999998,-0.20000000000000001,-0.94999999999999996,-0.12,0.62,0.34000000000000002,0.92000000000000004,-0.37],[-0.14000000000000001,0.79000000000000004,-0.95999999999999996,0.41999999999999998,0.28000000000000003,0.85999999999999999,-0.31,-0.080000000000000002,0.63,-0.02,0.78000000000000003,-0.85999999999999999]],[[-0.14000000000000001,0.55000000000000004,-0.47999999999999998,-0.23000000000000001,0.83999999999999997,-0.88,-0.45000000000000001,-0.66000000000000003],[-0.45000000000000001,-0.81999999999999995,0.70999999999999996,0.14000000000000001,0.31,1.0,0.70999999999999996,0.040000000000000001]]]}
24;86.14;314.61;{"biases":[[[-0.28999999999999998],[-0.79000000000000004],[0.81999999999999995],[0.27000000000000002],[0.33000000000000002],[-0.040000000000000001],[-0.28999999999999998],[-0.93000000000000005],[-0.39000000000000001],[-0.11],[-0.27000000000000002],[0.60999999999999999]],[[-0.94999999999999996],[0.93000000000000005],[-0.83999999999999997],[0.52000000000000002],[0.5],[-0.95999999999999996],[0.46999999999999997],[-0.02]],[[0.42999999999999999],[-0.28999999999999998]]],"weights":[[[0.47999999999999998,0.050000000000000003,-0.40000000000000002],[-0.040000000000000001,-0.089999999999999997,0.54000000000000004],[-0.28999999999999998,0.5,0.089999999999999997],[-0.82999999999999996,0.72999999999999998,0.81999999999999995],[0.23999999999999999,-0.48999999999999999,-1.0],[0.28000000000000003,-0.080000000000000002,-0.60999999999999999],[-0.57999999999999996,-0.5,-0.73999999999999999],[-1.0,0.32000000000000001,0.65000000000000002],[0.97999999999999998,0.69999999999999996,-0.67000000000000004],[-0.14999999999999999,-0.97999999999999998,-0.33000000000000002],[-0.40000000000000002,0.71999999999999997,1.0],[-0.79000000000000004,-0.48999999999999999,0.12]],[[0.69999999999999996,-0.28999999999999998,-0.69999999999999996,0.94999999999999996,0.01,-0.57999999999999996,-0.46999999999999997,-0.35999999999999999,-0.20000000000000001,-0.51000000000000001,0.20999999999999999,-0.54000000000000004],[-0.089999999999999997,-0.059999999999999998,-0.91000000000000003,0.56999999999999995,-0.02,-0.75,0.96999999999999997,-0.050000000000000003,-0.16,0.37,0.029999999999999999,0.68999999999999995],[0.76000000000000001,0.34999999999999998,-0.66000000000000003,-0.12,-0.10000000000000001,0.14000000000000001,0.58999999999999997,-0.98999999999999999,0.47999999999999998,-0.67000000000000004,-0.46999999999999997,-0.66000000000000003],[-0.33000000000000002,0.70999999999999996,-0.20999999999999999,0.58999999999999997,0.20000000000000001,-0.72999999999999998,0.13,-0.56999999999999995,0.17000000000000001,-0.59999999999999998,-0.28999999999999998,-0.66000000000000003],[0.91000000000000003,0.75,-0.25,-0.68999999999999995,-0.38,0.0,-0.050000000000000003,-0.72999999999999998,-0.25,0.12,-0.71999999999999997,-0.17000000000000001],[0.78000000000000003,0.02,-0.87,-0.90000000000000002,0.55000000000000004,0.91000000000000003,-1.0,0.38,0.54000000000000004,0.31,0.71999999999999997,-0.56000000000000005],[0.10000000000000001,-0.48999999999999999,0.77000000000000002,-0.28999999999999998,0.40999999999999998,-0.20000000000000001,-0.94999999999999996,-0.12,0.62,0.34000000000000002,0.92000000000000004,-0.37],[-0.14000000000000001,0.79000000000000004,-0.95999999999999996,0.41999999999999998,0.28000000000000003,0.85999999999999999,-0.31,-0.080000000000000002,0.63,-0.02,0.78000000000000003,-0.85999999999999999]],[[-0.14000000000000001,0.55000000000000004,-0.47999999999999998,-0.23000000000000001,0.83999999999999997,-0.88,-0.45000000000000001,-0.66000000000000003],[-0.45000000000000001,-0.81999999999999995,0.70999999999999996,0.14000000000000001,0.31,1.0,0.70999999999999996,0.040000000000000001]]]}
25;86.14;314.61;{"biases":[[[-0.28999999999999998],[-0.79000000000000004],[0.81999999999999995],[0.27000000000000002],[0.33000000000000002],[-0.040000000000000001],[-0.28999999999999998],[-0.93000000000000005],[-0.39000000000000001],[-0.11],[-0.27000000000000002],[0.60999999999999999]],[[-0.94999999999999996],[0.93000000000000005],[-0.83999999999999997],[0.52000000000000002],[0.5],[-0.95999999999999996],[0.46999999999999997],[-0.02]],[[0.42999999999999999],[-0.28999999999999998]]],"weights":[[[0.47999999999999998,0.050000000000000003,-0.40000000000000002],[-0.040000000000000001,-0.089999999999999997,0.54000000000000004],[-0.28999999999999998,0.5,0.089999999999999997],[-0.82999999999999996,0.72999999999999998,0.81999999999999995],[0.23999999999999999,-0.48999999999999999,-1.0],[0.28000000000000003,-0.080000000000000002,-0.60999999999999999],[-0.57999999999999996,-0.5,-0.73999999999999999],[-1.0,0.32000000000000001,0.65000000000000002],[0.97999999999999998,0.69999999999999996,-0.67000000000000004],[-0.14999999999999999,-0.97999999999999998,-0.33000000000000002],[-0.40000000000000002,0.71999999999999997,1.0],[-0.79000000000000004,-0.48999999999999999,0.12]],[[0.69999999999999996,-0.28999999999999998,-0.69999999999999996,0.94999999999999996,0.01,-0.57999999999999996,-0.46999999999999997,-0.35999999999999999,-0.20000000000000001,-0.51000000000000001,0.20999999999999999,-0.54000000000000004],[-0.089999999999999997,-0.059999999999999998,-0.91000000000000003,0.56999999999999995,-0.02,-0.75,0.96999999999999997,-0.050000000000000003,-0.16,0.37,0.029999999999999999,0.68999999999999995],[0.76000000000000001,0.34999999999999998,-0.66000000000000003,-0.12,-0.10000000000000001,0.14000000000000001,0.58999999999999997,-0.98999999999999999,0.47999999999999998,-0.67000000000000004,-0.46999999999999997,-0.66000000000000003],[-0.33000000000000002,0.70999999999999996,-0.20999999999999999,0.58999999999999997,0.20000000000000001,-0.72999999999999998,0.13,-0.56999999999999995,0.17000000000000001,-0.59999999999999998,-0.28999999999999998,-0.66000000000000003],[0.91000000000000003,0.75,-0.25,-0.68999999999999995,-0.38,0.0,-0.050000000000000003,-0.72999999999999998,-0.25,0.12,-0.71999999999999997,-0.17000000000000001],[0.78000000000000003,0.02,-0.87,-0.90000000000000002,0.55000000000000004,0.91000000000000003,-1.0,0.38,0.54000000000000004,0.31,0.71999999999999997,-0.56000000000000005],[0.10000000000000001,-0.48999999999999999,0.77000000000000002,-0.28999999999999998,0.40999999999999998,-0.20000000000000001,-0.94999999999999996,-0.12,0.62,0.34000000000000002,0.92000000000000004,-0.37],[-0.14000000000000001,0.79000000000000004,-0.95999999999999996,0.41999999999999998,0.28000000000000003,0.85999999999999999,-0.31,-0.080000000000000002,0.63,-0.02,0.78000000000000003,-0.85999999999999999]],[[-0.14000000000000001,0.55000000000000004,-0.47999999999999998,-0.23000000000000001,0.83999999999999997,-0.88,-0.45000000000000001,-0.66000000000000003],[-0.45000000000000001,-0.81999999999999995,0.70999999999999996,0.14000000000000001,0.31,1.0,0.70999999999999996,0.040000000000000001]]]}
26;86.14;314.61;{"biases":[[[-0.28999999999999998],[-0.79000000000000004],[0.81999999999999995],[0.27000000000000002],[0.33000000000000002],[-0.040000000000000001],[-0.28999999999999998],[-0.93000000000000005],[-0.39000000000000001],[-0.11],[-0.27000000000000002],[0.60999999999999999]],[[-0.94999999999999996],[0.93000000000000005],[-0.83999999999999997],[0.52000000000000002],[0.5],[-0.95999999999999996],[0.46999999999999997],[-0.02]],[[0.42999999999999999],[-0.28999999999999998]]],"weights":[[[0.47999999999999998,0.050000000000000003,-0.40000000000000002],[-0.040000000000000001,-0.089999999999999997,0.54000000000000004],[-0.28999999999999998,0.5,0.089999999999999997],[-0.82999999999999996,0.72999999999999998,0.81999999999999995],[0.23999999999999999,-0.48999999999999999,-1.0],[0.28000000000000003,-0.080000000000000002,-0.60999999999999999],[-0.57999999999999996,-0.5,-0.73999999999999999],[-1.0,0.32000000000000001,0.65000000000000002],[0.97999999999999998,0.69999999999999996,-0.67000000000000004],[-0.14999999999999999,-0.97999999999999998,-0.33000000000000002],[-0.40000000000000002,0.71999999999999997,1.0],[-0.79000000000000004,-0.48999999999999999,0.12]],[[0.69999999999999996,-0.28999999999999998,-0.69999999999999996,0.94999999999999996,0.01,-0.57999999999999996,-0.46999999999999997,-0.35999999999999999,-0.20000000000000001,-0.51000000000000001,0.20999999999999999,-0.54000000000000004],[-0.089999999999999997,-0.059999999999999998,-0.91000000000000003,0.56999999999999995,-0.02,-0.75,0.96999999999999997,-0.050000000000000003,-0.16,0.37,0.029999999999999999,0.68999999999999995],[0.76000000000000001,0.34999999999999998,-0.66000000000000003,-0.12,-0.10000000000000001,0.14000000000000001,0.58999999999999997,-0.98999999999999999,0.47999999999999998,-0.67000000000000004,-0.46999999999999997,-0.66000000000000003],[-0.33000000000000002,0.70999999999999996,-0.20999999999999999,0.58999999999999997,0.20000000000000001,-0.72999999999999998,0.13,-0.56999999999999995,0.17000000000000001,-0.59999999999999998,-0.28999999999999998,-0.66000000000000003],[0.91000000000000003,0.75,-0.25,-0.68999999999999995,-0.38,0.0,-0.050000000000000003,-0.72999999999999998,-0.25,0.12,-0.71999999999999997,-0.17000000000000001],[0.78000000000000003,0.02,-0.87,-0.90000000000000002,0.55000000000000004,0.91000000000000003,-1.0,0.38,0.54000000000000004,0.31,0.71999999999999997,-0.56000000000000005],[0.10000000000000001,-0.48999999999999999,0.77000000000000002,-0.28999999999999998,0.40999999999999998,-0.20000000000000001,-0.94999999999999996,-0.12,0.62,0.34000000000000002,0.92000000000000004,-0.37],[-0.14000000000000001,0.79000000000000004,-0.95999999999999996,0.41999999999999998,0.28000000000000003,0.85999999999999999,-0.31,-0.080000000000000002,0.63,-0.02,0.78000000000000003,-0.85999999999999999]],[[-0.14000000000000001,0.55000000000000004,-0.47999999999999998,-0.23000000000000001,0.83999999999999997,-0.88,-0.45000000000000001,-0.66000000000000003],[-0.45000000000000001,-0.81999999999999995,0.70999999999999996,0.14000000000000001,0.31,1.0,0.70999999999999996,0.040000000000000001]]]}
27;86.14;314.61;{"biases":[[[-0.28999999999999998],[-0.79000000000000004],[0.81999999999999995],[0.27000000000000002],[0.33000000000000002],[-0.040000000000000001],[-0.28999999999999998],[-0.93000000000000005],[-0.39000000000000001],[-0.11],[-0.27000000000000002],[0.60999999999999999]],[[-0.94999999999999996],[0.93000000000000005],[-0.83999999999999997],[0.52000000000000002],[0.5],[-0.95999999999999996],[0.46999999999999997],[-0.02]],[[0.42999999999999999],[-0.28999999999999998]]],"weights":[[[0.47999999999999998,0.050000000000000003,-0.40000000000000002],[-0.040000000000000001,-0.089999999999999997,0.54000000000000004],[-0.28999999999999998,0.5,0.089999999999999997],[-0.82999999999999996,0.72999999999999998,0.81999999999999995],[0.23999999999999999,-0.48999999999999999,-1.0],[0.28000000000000003,-0.080000000000000002,-0.60999999999999999],[-0.57999999999999996,-0.5,-0.73999999999999999],[-1.0,0.32000000000000001,0.65000000000000002],[0.97999999999999998,0.69999999999999996,-0.67000000000000004],[-0.14999999999999999,-0.97999999999999998,-0.33000000000000002],[-0.40000000000000002,0.71999999999999997,1.0],[-0.79000000000000004,-0.48999999999999999,0.12]],[[0.69999999999999996,-0.28999999999999998,-0.69999999999999996,0.94999999999999996,0.01,-0.57999999999999996,-0.46999999999999997,-0.35999999999999999,-0.20000000000000001,-0.51000000000000001,0.20999999999999999,-0.54000000000000004],[-0.089999999999999997,-0.059999999999999998,-0.91000000000000003,0.56999999999999995,-0.02,-0.75,0.96999999999999997,-0.050000000000000003,-0.16,0.37,0.029999999999999999,0.68999999999999995],[0.76000000000000001,0.34999999999999998,-0.66000000000000003,-0.12,-0.10000000000000001,0.14000000000000001,0.58999999999999997,-0.98999999999999999,0.47999999999999998,-0.67000000000000004,-0.46999999999999997,-0.66000000000000003],[-0.33000000000000002,0.70999999999999996,-0.20999999999999999,0.58999999999999997,0.20000000000000001,-0.72999999999999998,0.13,-0.56999999999999995,0.17000000000000001,-0.59999999999999998,-0.28999999999999998,-0.66000000000000003],[0.91000000000000003,0.75,-0.25,-0.68999999999999995,-0.38,0.0,-0.050000000000000003,-0.72999999999999998,-0.25,0.12,-0.71999999999999997,-0.17000000000000001],[0.78000000000000003,0.02,-0.87,-0.90000000000000002,0.55000000000000004,0.91000000000000003,-1.0,0.38,0.54000000000000004,0.31,0.71999999999999997,-0.56000000000000005],[0.10000000000000001,-0.48999999999999999,0.77000000000000002,-0.28999999999999998,0.40999999999999998,-0.20000000000000001,-0.94999999999999996,-0.12,0.62,0.34000000000000002,0.92000000000000004,-0.37],[-0.14000000000000001,0.79000000000000004,-0.95999999999999996,0.41999999999999998,0.28000000000000003,0.85999999999999999,-0.31,-0.080000000000000002,0.63,-0.02,0.78000000000000003,-0.85999999999999999]],[[-0.14000000000000001,0.55000000000000004,-0.47999999999999998,-0.23000000000000001,0.83999999999999997,-0.88,-0.45000000000000001,-0.66000000000000003],[-0.45000000000000001,-0.81999999999999995,0.70999999999999996,0.14000000000000001,0.31,1.0,0.70999999999999996,0.040000000000000001]]]}
28;86.14;314.61;{"biases":[[[-0.28999999999999998],[-0.79000000000000004],[0.81999999999999995],[0.27000000000000002],[0.33000000000000002],[-0.040000000000000001],[-0.28999999999999998],[-0.93000000000000005],[-0.39000000000000001],[-0.11],[-0.27000000000000002],[0.60999999999999999]],[[-0.94999999999999996],[0.93000000000000005],[-0.83999999999999997],[0.52000000000000002],[0.5],[-0.95999999999999996],[0.46999999999999997],[-0.02]],[[0.42999999999999999],[-0.28999999999999998]]],"weights":[[[0.47999999999999998,0.050000000000000003,-0.40000000000000002],[-0.040000000000000001,-0.089999999999999997,0.54000000000000004],[-0.28999999999999998,0.5,0.089999999999999997],[-0.82999999999999996,0.72999999999999998,0.81999999999999995],[0.23999999999999999,-0.48999999999999999,-1.0],[0.28000000000000003,-0.080000000000000002,-0.60999999999999999],[-0.57999999999999996,-0.5,-0.73999999999999999],[-1.0,0.32000000000000001,0.65000000000000002],[0.97999999999999998,0.69999999999999996,-0.67000000000000004],[-0.14999999999999999,-0.97999999999999998,-0.33000000000000002],[-0.40000000000000002,0.71999999999999997,1.0],[-0.79000000000000004,-0.48999999999999999,0.12]],[[0.69999999999999996,-0.28999999999999998,-0.69999999999999996,0.94999999999999996,0.01,-0.57999999999999996,-0.46999999999999997,-0.35999999999999999,-0.20000000000000001,-0.51000000000000001,0.20999999999999999,-0.54000000000000004],[-0.089999999999999997,-0.059999999999999998,-0.91000000000000003,0.56999999999999995,-0.02,-0.75,0.96999999999999997,-0.050000000000000003,-0.16,0.37,0.029999999999999999,0.68999999999999995],[0.76000000000000001,0.34999999999999998,-0.66000000000000003,-0.12,-0.10000000000000001,0.14000000000000001,0.58999999999999997,-0.98999999999999999,0.47999999999999998,-0.67000000000000004,-0.46999999999999997,-0.66000000000000003],[-0.33000000000000002,0.70999999999999996,-0.20999999999999999,0.58999999999999997,0.20000000000000001,-0.72999999999999998,0.13,-0.56999999999999995,0.17000000000000001,-0.59999999999999998,-0.28999999999999998,-0.66000000000000003],[0.91000000000000003,0.75,-0.25,-0.68999999999999995,-0.38,0.0,-0.050000000000000003,-0.72999999999999998,-0.25,0.12,-0.71999999999999997,-0.17000000000000001],[0.78000000000000003,0.02,-0.87,-0.90000000000000002,0.55000000000000004,0.91000000000000003,-1.0,0.38,0.54000000000000004,0.31,0.71999999999999997,-0.56000000000000005],[0.10000000000000001,-0.48999999999999999,0.77000000000000002,-0.28999999999999998,0.40999999999999998,-0.20000000000000001,-0.94999999999999996,-0.12,0.62,0.34000000000000002,0.92000000000000004,-0.37],[-0.14000000000000001,0.79000000000000004,-0.95999999999999996,0.41999999999999998,0.28000000000000003,0.85999999999999999,-0.31,-0.080000000000000002,0.63,-0.02,0.78000000000000003,-0.85999999999999999]],[[-0.14000000000000001,0.55000000000000004,-0.47999999999999998,-0.23000000000000001,0.83999999999999997,-0.88,-0.45000000000000001,-0.66000000000000003],[-0.45000000000000001,-0.81999999999999995,0.70999999999999996,0.14000000000000001,0.31,1.0,0.70999999999999996,0.040000000000000001]]]}
29;86.14;314.61;{"biases":[[[-0.28999999999999998],[-0.79000000000000004],[0.81999999999999995],[0.27000000000000002],[0.33000000000000002],[-0.040000000000000001],[-0.28999999999999998],[-0.93000000000000005],[-0.39000000000000001],[-0.11],[-0.27000000000000002],[0.60999999999999999]],[[-0.94999999999999996],[0.93000000000000005],[-0.83999999999999997],[0.52000000000000002],[0.5],[-0.95999999999999996],[0.46999999999999997],[-0.02]],[[0.42999999999999999],[-0.28999999999999998]]],"weights":[[[0.47999999999999998,0.050000000000000003,-0.40000000000000002],[-0.040000000000000001,-0.089999999999999997,0.54000000000000004],[-0.28999999999999998,0.5,0.089999999999999997],[-0.82999999999999996,0.72999999999999998,0.81999999999999995],[0.23999999999999999,-0.48999999999999999,-1.0],[0.28000000000000003,-0.080000000000000002,-0.60999999999999999],[-0.57999999999999996,-0.5,-0.73999999999999999],[-1.0,0.32000000000000001,0.65000000000000002],[0.97999999999999998,0.69999999999999996,-0.67000000000000004],[-0.14999999999999999,-0.97999999999999998,-0.33000000000000002],[-0.40000000000000002,0.71999999999999997,1.0],[-0.79000000000000004,-0.48999999999999999,0.12]],[[0.69999999999999996,-0.28999999999999998,-0.69999999999999996,0.94999999999999996,0.01,-0.57999999999999996,-0.46999999999999997,-0.35999999999999999,-0.20000000000000001,-0.51000000000000001,0.20999999999999999,-0.54000000000000004],[-0.089999999999999997,-0.059999999999999998,-0.91000000000000003,0.56999999999999995,-0.02,-0.75,0.96999999999999997,-0.050000000000000003,-0.16,0.37,0.029999999999999999,0.68999999999999995],[0.76000000000000001,0.34999999999999998,-0.66000000000000003,-0.12,-0.10000000000000001,0.14000000000000001,0.58999999999999997,-0.98999999999999999,0.47999999999999998,-0.67000000000000004,-0.46999999999999997,-0.66000000000000003],[-0.33000000000000002,0.70999999999999996,-0.20999999999999999,0.58999999999999997,0.20000000000000001,-0.72999999999999998,0.13,-0.56999999999999995,0.17000000000000001,-0.59999999999999998,-0.28999999999999998,-0.66000000000000003],[0.91000000000000003,0.75,-0.25,-0.68999999999999995,-0.38,0.0,-0.050000000000000003,-0.72999999999999998,-0.25,0.12,-0.71999999999999997,-0.17000000000000001],[0.78000000000000003,0.02,-0.87,-0.90000000000000002,0.55000000000000004,0.91000000000000003,-1.0,0.38,0.54000000000000004,0.31,0.71999999999999997,-0.56000000000000005],[0.10000000000000001,-0.48999999999999999,0.77000000000000002,-0.28999999999999998,0.40999999999999998,-0.20000000000000001,-0.94999999999999996,-0.12,0.62,0.34000000000000002,0.92000000000000004,-0.37],[-0.14000000000000001,0.79000000000000004,-0.95999999999999996,0.41999999999999998,0.28000000000000003,0.85999999999999999,-0.31,-0.080000000000000002,0.63,-0.02,0.78000000000000003,-0.85999999999999999]],[[-0.14000000000000001,0.55000000000000004,-0.47999999999999998,-0.23000000000000001,0.83999999999999997,-0.88,-0.45000000000000001,-0.66000000000000003],[-0.45000000000000001,-0.81999999999999995,0.70999999999999996,0.14000000000000001,0.31,1.0,0.70999999999999996,0.040000000000000001]]]}
30;86.14;314.61;{"biases":[[[-0.28999999999999998],[-0.79000000000000004],[0.81999999999999995],[0.27000000000000002],[0.33000000000000002],[-0.040000000000000001],[-0.28999999999999998],[-0.93000000000000005],[-0.39000000000000001],[-0.11],[-0.27000000000000002],[0.60999999999999999]],[[-0.94999999999999996],[0.93000000000000005],[-0.83999999999999997],[0.52000000000000002],[0.5],[-0.95999999999999996],[0.46999999999999997],[-0.02]],[[0.42999999999999999],[-0.28999999999999998]]],"weights":[[[0.47999999999999998,0.050000000000000003,-0.40000000000000002],[-0.040000000000000001,-0.089999999999999997,0.54000000000000004],[-0.28999999999999998,0.5,0.089999999999999997],[-0.82999999999999996,0.72999999999999998,0.81999999999999995],[0.23999999999999999,-0.48999999999999999,-1.0],[0.28000000000000003,-0.080000000000000002,-0.60999999999999999],[-0.57999999999999996,-0.5,-0.73999999999999999],[-1.0,0.32000000000000001,0.65000000000000002],[0.97999999999999998,0.69999999999999996,-0.67000000000000004],[-0.14999999999999999,-0.97999999999999998,-0.33000000000000002],[-0.40000000000000002,0.71999999999999997,1.0],[-0.79000000000000004,-0.48999999999999999,0.12]],[[0.69999999999999996,-0.28999999999999998,-0.69999999999999996,0.94999999999999996,0.01,-0.57999999999999996,-0.46999999999999997,-0.35999999999999999,-0.20000000000000001,-0.51000000000000001,0.20999999999999999,-0.54000000000000004],[-0.089999999999999997,-0.059999999999999998,-0.91000000000000003,0.56999999999999995,-0.02,-0.75,0.96999999999999997,-0.050000000000000003,-0.16,0.37,0.029999999999999999,0.68999999999999995],[0.76000000000000001,0.34999999999999998,-0.66000000000000003,-0.12,-0.10000000000000001,0.14000000000000001,0.58999999999999997,-0.98999999999999999,0.47999999999999998,-0.67000000000000004,-0.46999999999999997,-0.66000000000000003],[-0.33000000000000002,0.70999999999999996,-0.20999999999999999,0.58999999999999997,0.20000000000000001,-0.72999999999999998,0.13,-0.56999999999999995,0.17000000000000001,-0.59999999999999998,-0.28999999999999998,-0.66000000000000003],[0.91000000000000003,0.75,-0.25,-0.68999999999999995,-0.38,0.0,-0.050000000000000003,-0.72999999999999998,-0.25,0.12,-0.71999999999999997,-0.17000000000000001],[0.78000000000000003,0.02,-0.87,-0.90000000000000002,0.55000000000000004,0.91000000000000003,-1.0,0.38,0.54000000000000004,0.31,0.71999999999999997,-0.56000000000000005],[0.10000000000000001,-0.48999999999999999,0.77000000000000002,-0.28999999999999998,0.40999999999999998,-0.20000000000000001,-0.94999999999999996,-0.12,0.62,0.34000000000000002,0.92000000000000004,-0.37],[-0.14000000000000001,0.79000000000000004,-0.95999999999999996,0.41999999999999998,0.28000000000000003,0.85999999999999999,-0.31,-0.080000000000000002,0.63,-0.02,0.78000000000000003,-0.85999999999999999]],[[-0.14000000000000001,0.55000000000000004,-0.47999999999999998,-0.23000000000000001,0.83999999999999997,-0.88,-0.45000000000000001,-0.66000000000000003],[-0.45000000000000001,-0.81999999999999995,0.70999999999999996,0.14000000000000001,0.31,1.0,0.70999999999999996,0.040000000000000001]]]}
31;97.92;319.06;{"biases":[[[-0.35999999999999999],[0.62],[-0.46000000000000002],[0.01],[-0.10000000000000001],[0.92000000000000004],[-1.0],[-0.059999999999999998],[1.0],[0.69999999999999996],[-0.01],[-0.44]],[[0.14999999999999999],[0.27000000000000002],[-0.34999999999999998],[0.75],[0.47999999999999998],[0.70999999999999996],[0.75],[-1.0]],[[-0.29999999999999999],[0.56000000000000005]]],"weights":[[[0.68999999999999995,0.089999999999999997,-1.0],[0.98999999999999999,0.48999999999999999,-1.0],[-0.10000000000000001,0.64000000000000001,0.98999999999999999],[-0.29999999999999999,0.78000000000000003,-0.40000000000000002],[0.23000000000000001,-0.23000000000000001,0.20000000000000001],[0.84999999999999998,-0.62,0.28999999999999998],[-0.71999999999999997,0.37,-0.48999999999999999],[0.029999999999999999,-0.059999999999999998,-0.72999999999999998],[0.12,-0.90000000000000002,0.63],[0.13,-0.37,-0.5],[-0.62,0.29999999999999999,-0.17999999999999999],[0.53000000000000003,1.0,-0.77000000000000002]],[[0.58999999999999997,-1.0,1.0,0.0,-1.0,1.0,1.0,1.0,0.050000000000000003,0.19,1.0,0.28000000000000003],[-0.47999999999999998,-0.55000000000000004,-0.51000000000000001,-0.089999999999999997,0.39000000000000001,-0.52000000000000002,1.0,-0.56999999999999995,-1.0,0.48999999999999999,0.059999999999999998,0.64000000000000001],[-0.02,-0.51000000000000001,1.0,-0.39000000000000001,0.45000000000000001,0.54000000000000004,1.0,-0.089999999999999997,0.34999999999999998,-0.89000000000000001,-0.56000000000000005,0.54000000000000004],[0.10000000000000001,1.0,-0.12,-1.0,-0.45000000000000001,-0.70999999999999996,-0.33000000000000002,0.44,0.0,0.20000000000000001,-0.37,0.68999999999999995],[-1.0,-1.0,0.47999999999999998,0.51000000000000001,0.39000000000000001,0.040000000000000001,-1.0,0.28000000000000003,0.71999999999999997,0.27000000000000002,0.22,-0.93999999999999995],[0.59999999999999998,-0.34000000000000002,-0.14999999999999999,-1.0,-0.45000000000000001,-1.0,-0.12,-1.0,1.0,-0.90000000000000002,-0.31,-1.0],[-0.96999999999999997,-0.27000000000000002,-1.0,0.60999999999999999,-0.080000000000000002,-0.82999999999999996,-0.13,1.0,0.90000000000000002,0.53000000000000003,-0.73999999999999999,-1.0],[-0.41999999999999998,0.88,-1.0,0.20999999999999999,-0.16,-1.0,-0.040000000000000001,0.52000000000000002,0.31,0.28999999999999998,-0.62,-0.14000000000000001]],[[0.070000000000000007,0.70999999999999996,0.84999999999999998,-0.23000000000000001,0.83999999999999997,0.34999999999999998,-0.63,0.080000000000000002],[-0.28000000000000003,-0.46000000000000002,-0.68000000000000005,0.73999999999999999,-0.40000000000000002,-0.80000000000000004,0.78000000000000003,-0.72999999999999998]]]}
