Generation;Fitness;Hue;Weights_JSON
0;5.95;81.10;{"biases":[[[-0.40999999999999998],[0.94999999999999996],[-0.47999999999999998],[-0.40000000000000002],[-0.14000000000000001],[-0.91000000000000003],[0.53000000000000003],[0.16],[0.45000000000000001],[-0.27000000000000002],[-0.41999999999999998],[-0.55000000000000004]],[[-0.83999999999999997],[-0.34999999999999998],[-0.65000000000000002],[0.67000000000000004],[-0.070000000000000007],[-0.16],[-0.71999999999999997],[0.17000000000000001]],[[-1.0],[-0.39000000000000001]]],"weights":[[[0.14999999999999999,0.79000000000000004,0.089999999999999997],[0.97999999999999998,-0.42999999999999999,-0.10000000000000001],[-0.66000000000000003,0.62,-0.14999999999999999],[0.92000000000000004,0.77000000000000002,-0.050000000000000003],[0.78000000000000003,0.65000000000000002,0.60999999999999999],[0.87,0.53000000000000003,-0.5],[0.94999999999999996,-0.46999999999999997,0.66000000000000003],[-0.040000000000000001,0.83999999999999997,-0.87],[-0.81999999999999995,-0.91000000000000003,-0.56000000000000005],[-0.97999999999999998,0.33000000000000002,-0.23999999999999999],[-0.029999999999999999,-0.26000000000000001,-0.070000000000000007],[-0.79000000000000004,0.17000000000000001,-0.96999999999999997]],[[0.16,-0.050000000000000003,-0.46999999999999997,0.45000000000000001,-0.95999999999999996,-0.66000000000000003,-0.19,0.89000000000000001,-0.48999999999999999,-0.65000000000000002,0.44,-0.26000000000000001],[-0.27000000000000002,0.87,0.82999999999999996,-0.12,-0.53000000000000003,-0.68999999999999995,0.27000000000000002,-0.55000000000000004,0.22,0.68999999999999995,-0.080000000000000002,0.19],[-0.27000000000000002,-0.42999999999999999,0.26000000000000001,0.64000000000000001,-0.89000000000000001,0.42999999999999999,0.22,-0.68999999999999995,-0.37,0.87,-0.67000000000000004,0.34999999999999998],[0.70999999999999996,0.72999999999999998,0.97999999999999998,0.20000000000000001,0.60999999999999999,-0.54000000000000004,0.87,-0.68999999999999995,-0.10000000000000001,-0.13,-0.20000000000000001,0.56000000000000005],[0.27000000000000002,-0.059999999999999998,0.75,-0.82999999999999996,-0.67000000000000004,0.52000000000000002,-0.55000000000000004,-0.38,0.79000000000000004,0.14999999999999999,-0.59999999999999998,-0.32000000000000001],[-0.28000000000000003,-0.51000000000000001,0.17999999999999999,0.17999999999999999,0.31,-0.35999999999999999,-0.91000000000000003,-0.02,0.94999999999999996,0.17000000000000001,-0.94999999999999996,0.02],[0.77000000000000002,0.77000000000000002,-0.16,0.02,0.17999999999999999,0.41999999999999998,-0.29999999999999999,-0.070000000000000007,-0.52000000000000002,-0.42999999999999999,0.75,0.17000000000000001],[0.29999999999999999,-0.75,-0.45000000000000001,0.040000000000000001,-0.94999999999999996,-0.83999999999999997,-0.040000000000000001,-0.33000000000000002,0.63,-0.10000000000000001,-0.78000000000000003,-0.17999999999999999]],[[-0.55000000000000004,0.98999999999999999,-0.31,-0.070000000000000007,0.89000000000000001,0.84999999999999998,0.95999999999999996,0.059999999999999998],[-0.40000000000000002,-0.089999999999999997,-0.65000000000000002,0.52000000000000002,-0.20000000000000001,-0.46000000000000002,0.28999999999999998,0.16]]]}
1;5.95;81.10;{"biases":[[[-0.40999999999999998],[0.94999999999999996],[-0.47999999999999998],[-0.40000000000000002],[-0.14000000000000001],[-0.91000000000000003],[0.53000000000000003],[0.16],[0.45000000000000001],[-0.27000000000000002],[-0.41999999999999998],[-0.55000000000000004]],[[-0.83999999999999997],[-0.34999999999999998],[-0.65000000000000002],[0.67000000000000004],[-0.070000000000000007],[-0.16],[-0.71999999999999997],[0.17000000000000001]],[[-1.0],[-0.39000000000000001]]],"weights":[[[0.14999999999999999,0.79000000000000004,0.089999999999999997],[0.97999999999999998,-0.42999999999999999,-0.10000000000000001],[-0.66000000000000003,0.62,-0.14999999999999999],[0.92000000000000004,0.77000000000000002,-0.050000000000000003],[0.78000000000000003,0.65000000000000002,0.60999999999999999],[0.87,0.53000000000000003,-0.5],[0.94999999999999996,-0.46999999999999997,0.66000000000000003],[-0.040000000000000001,0.83999999999999997,-0.87],[-0.81999999999999995,-0.91000000000000003,-0.56000000000000005],[-0.97999999999999998,0.33000000000000002,-0.23999999999999999],[-0.029999999999999999,-0.26000000000000001,-0.070000000000000007],[-0.79000000000000004,0.17000000000000001,-0.96999999999999997]],[[0.16,-0.050000000000000003,-0.46999999999999997,0.45000000000000001,-0.95999999999999996,-0.66000000000000003,-0.19,0.89000000000000001,-0.48999999999999999,-0.65000000000000002,0.44,-0.26000000000000001],[-0.27000000000000002,0.87,0.82999999999999996,-0.12,-0.53000000000000003,-0.68999999999999995,0.27000000000000002,-0.55000000000000004,0.22,0.68999999999999995,-0.080000000000000002,0.19],[-0.27000000000000002,-0.42999999999999999,0.26000000000000001,0.64000000000000001,-0.89000000000000001,0.42999999999999999,0.22,-0.68999999999999995,-0.37,0.87,-0.67000000000000004,0.34999999999999998],[0.70999999999999996,0.72999999999999998,0.97999999999999998,0.20000000000000001,0.60999999999999999,-0.54000000000000004,0.87,-0.68999999999999995,-0.10000000000000001,-0.13,-0.20000000000000001,0.56000000000000005],[0.27000000000000002,-0.059999999999999998,0.75,-0.82999999999999996,-0.67000000000000004,0.52000000000000002,-0.55000000000000004,-0.38,0.79000000000000004,0.14999999999999999,-0.59999999999999998,-0.32000000000000001],[-0.28000000000000003,-0.51000000000000001,0.17999999999999999,0.17999999999999999,0.31,-0.35999999999999999,-0.91000000000000003,-0.02,0.94999999999999996,0.17000000000000001,-0.94999999999999996,0.02],[0.77000000000000002,0.77000000000000002,-0.16,0.02,0.17999999999999999,0.41999999999999998,-0.29999999999999999,-0.070000000000000007,-0.52000000000000002,-0.42999999999999999,0.75,0.17000000000000001],[0.29999999999999999,-0.75,-0.45000000000000001,0.040000000000000001,-0.94999999999999996,-0.83999999999999997,-0.040000000000000001,-0.33000000000000002,0.63,-0.10000000000000001,-0.78000000000000003,-0.17999999999999999]],[[-0.55000000000000004,0.98999999999999999,-0.31,-0.070000000000000007,0.89000000000000001,0.84999999999999998,0.95999999999999996,0.059999999999999998],[-0.40000000000000002,-0.089999999999999997,-0.65000000000000002,0.52000000000000002,-0.20000000000000001,-0.46000000000000002,0.28999999999999998,0.16]]]}
2;96.25;78.95;{"biases":[[[0.16],[0.41999999999999998],[0.41999999999999998],[-0.41999999999999998],[0.28000000000000003],[-0.070000000000000007],[-0.45000000000000001],[0.31],[-0.80000000000000004],[0.98999999999999999],[0.96999999999999997],[0.66000000000000003]],[[0.080000000000000002],[-0.67000000000000004],[-0.080000000000000002],[-0.57999999999999996],[-0.46999999999999997],[0.35999999999999999],[-0.96999999999999997],[-0.73999999999999999]],[[0.64000000000000001],[0.69999999999999996]]],"weights":[[[-0.81999999999999995,-0.68999999999999995,0.60999999999999999],[-0.94999999999999996,0.89000000000000001,-0.94999999999999996],[0.41999999999999998,0.11,0.55000000000000004],[-0.70999999999999996,-0.02,0.14000000000000001],[0.39000000000000001,0.89000000000000001,-0.5],[0.41999999999999998,-0.14999999999999999,0.070000000000000007],[-0.46999999999999997,-0.70999999999999996,-0.029999999999999999],[0.28999999999999998,-0.050000000000000003,-0.87],[0.050000000000000003,-0.75,0.57999999999999996],[0.42999999999999999,0.14999999999999999,0.59999999999999998],[0.88,0.28999999999999998,0.78000000000000003],[0.10000000000000001,-0.11,-0.77000000000000002]],[[0.73999999999999999,0.65000000000000002,-0.67000000000000004,0.62,0.42999999999999999,0.65000000000000002,0.69999999999999996,-0.82999999999999996,-0.28999999999999998,0.64000000000000001,-0.16,0.68999999999999995],[-0.81000000000000005,0.44,0.5,-0.02,-0.46000000000000002,0.19,0.53000000000000003,-0.56000000000000005,0.28999999999999998,0.20999999999999999,-1.0,-0.71999999999999997],[0.52000000000000002,-0.34999999999999998,0.28999999999999998,-0.96999999999999997,-0.14000000000000001,0.72999999999999998,-0.089999999999999997,0.25,0.26000000000000001,-0.47999999999999998,0.040000000000000001,0.87],[-0.17999999999999999,-0.20000000000000001,-0.85999999999999999,-0.33000000000000002,-0.25,0.20000000000000001,-0.69999999999999996,0.89000000000000001,0.85999999999999999,0.94999999999999996,0.29999999999999999,0.40000000000000002],[-0.33000000000000002,0.51000000000000001,0.0,-0.98999999999999999,-0.20999999999999999,0.96999999999999997,-0.90000000000000002,-1.0,-0.67000000000000004,-0.76000000000000001,0.71999999999999997,0.33000000000000002],[-0.11,0.13,0.56999999999999995,0.42999999999999999,-0.16,-0.89000000000000001,0.57999999999999996,0.55000000000000004,-0.34000000000000002,0.93000000000000005,0.47999999999999998,-0.51000000000000001],[-0.64000000000000001,-0.81999999999999995,0.17000000000000001,-0.58999999999999997,0.93999999999999995,0.5,0.95999999999999996,0.31,0.84999999999999998,0.23000000000000001,0.13,-0.27000000000000002],[0.60999999999999999,0.56000000000000005,-0.029999999999999999,-0.25,-0.68000000000000005,-0.82999999999999996,-0.17999999999999999,-0.59999999999999998,0.69999999999999996,-0.34999999999999998,0.64000000000000001,-0.11]],[[-0.40000000000000002,-0.90000000000000002,0.68999999999999995,-0.29999999999999999,0.80000000000000004,-0.02,-0.91000000000000003,-0.93999999999999995],[0.81999999999999995,-0.73999999999999999,0.40999999999999998,-0.12,0.56000000000000005,-0.46000000000000002,-0.34999999999999998,-0.45000000000000001]]]}
3;96.25;78.95;{"biases":[[[0.16],[0.41999999999999998],[0.41999999999999998],[-0.41999999999999998],[0.28000000000000003],[-0.070000000000000007],[-0.45000000000000001],[0.31],[-0.80000000000000004],[0.98999999999999999],[0.96999999999999997],[0.66000000000000003]],[[0.080000000000000002],[-0.67000000000000004],[-0.080000000000000002],[-0.57999999999999996],[-0.46999999999999997],[0.35999999999999999],[-0.96999999999999997],[-0.73999999999999999]],[[0.64000000000000001],[0.69999999999999996]]],"weights":[[[-0.81999999999999995,-0.68999999999999995,0.60999999999999999],[-0.94999999999999996,0.89000000000000001,-0.94999999999999996],[0.41999999999999998,0.11,0.55000000000000004],[-0.70999999999999996,-0.02,0.14000000000000001],[0.39000000000000001,0.89000000000000001,-0.5],[0.41999999999999998,-0.14999999999999999,0.070000000000000007],[-0.46999999999999997,-0.70999999999999996,-0.029999999999999999],[0.28999999999999998,-0.050000000000000003,-0.87],[0.050000000000000003,-0.75,0.57999999999999996],[0.42999999999999999,0.14999999999999999,0.59999999999999998],[0.88,0.28999999999999998,0.78000000000000003],[0.10000000000000001,-0.11,-0.77000000000000002]],[[0.73999999999999999,0.65000000000000002,-0.67000000000000004,0.62,0.42999999999999999,0.65000000000000002,0.69999999999999996,-0.82999999999999996,-0.28999999999999998,0.64000000000000001,-0.16,0.68999999999999995],[-0.81000000000000005,0.44,0.5,-0.02,-0.46000000000000002,0.19,0.53000000000000003,-0.56000000000000005,0.28999999999999998,0.20999999999999999,-1.0,-0.71999999999999997],[0.52000000000000002,-0.34999999999999998,0.28999999999999998,-0.96999999999999997,-0.14000000000000001,0.72999999999999998,-0.089999999999999997,0.25,0.26000000000000001,-0.47999999999999998,0.040000000000000001,0.87],[-0.17999999999999999,-0.20000000000000001,-0.85999999999999999,-0.33000000000000002,-0.25,0.20000000000000001,-0.69999999999999996,0.89000000000000001,0.85999999999999999,0.94999999999999996,0.29999999999999999,0.40000000000000002],[-0.33000000000000002,0.51000000000000001,0.0,-0.98999999999999999,-0.20999999999999999,0.96999999999999997,-0.90000000000000002,-1.0,-0.67000000000000004,-0.76000000000000001,0.71999999999999997,0.33000000000000002],[-0.11,0.13,0.56999999999999995,0.42999999999999999,-0.16,-0.89000000000000001,0.57999999999999996,0.55000000000000004,-0.34000000000000002,0.93000000000000005,0.47999999999999998,-0.51000000000000001],[-0.64000000000000001,-0.81999999999999995,0.17000000000000001,-0.58999999999999997,0.93999999999999995,0.5,0.95999999999999996,0.31,0.84999999999999998,0.23000000000000001,0.13,-0.27000000000000002],[0.60999999999999999,0.56000000000000005,-0.029999999999999999,-0.25,-0.68000000000000005,-0.82999999999999996,-0.17999999999999999,-0.59999999999999998,0.69999999999999996,-0.34999999999999998,0.64000000000000001,-0.11]],[[-0.40000000000000002,-0.90000000000000002,0.68999999999999995,-0.29999999999999999,0.80000000000000004,-0.02,-0.91000000000000003,-0.93999999999999995],[0.81999999999999995,-0.73999999999999999,0.40999999999999998,-0.12,0.56000000000000005,-0.46000000000000002,-0.34999999999999998,-0.45000000000000001]]]}
4;96.25;78.95;{"biases":[[[0.16],[0.41999999999999998],[0.41999999999999998],[-0.41999999999999998],[0.28000000000000003],[-0.070000000000000007],[-0.45000000000000001],[0.31],[-0.80000000000000004],[0.98999999999999999],[0.96999999999999997],[0.66000000000000003]],[[0.080000000000000002],[-0.67000000000000004],[-0.080000000000000002],[-0.57999999999999996],[-0.46999999999999997],[0.35999999999999999],[-0.96999999999999997],[-0.73999999999999999]],[[0.64000000000000001],[0.69999999999999996]]],"weights":[[[-0.81999999999999995,-0.68999999999999995,0.60999999999999999],[-0.94999999999999996,0.89000000000000001,-0.94999999999999996],[0.41999999999999998,0.11,0.55000000000000004],[-0.70999999999999996,-0.02,0.14000000000000001],[0.39000000000000001,0.89000000000000001,-0.5],[0.41999999999999998,-0.14999999999999999,0.070000000000000007],[-0.46999999999999997,-0.70999999999999996,-0.029999999999999999],[0.28999999999999998,-0.050000000000000003,-0.87],[0.050000000000000003,-0.75,0.57999999999999996],[0.42999999999999999,0.14999999999999999,0.59999999999999998],[0.88,0.28999999999999998,0.78000000000000003],[0.10000000000000001,-0.11,-0.77000000000000002]],[[0.73999999999999999,0.65000000000000002,-0.67000000000000004,0.62,0.42999999999999999,0.65000000000000002,0.69999999999999996,-0.82999999999999996,-0.28999999999999998,0.64000000000000001,-0.16,0.68999999999999995],[-0.81000000000000005,0.44,0.5,-0.02,-0.46000000000000002,0.19,0.53000000000000003,-0.56000000000000005,0.28999999999999998,0.20999999999999999,-1.0,-0.71999999999999997],[0.52000000000000002,-0.34999999999999998,0.28999999999999998,-0.96999999999999997,-0.14000000000000001,0.72999999999999998,-0.089999999999999997,0.25,0.26000000000000001,-0.47999999999999998,0.040000000000000001,0.87],[-0.17999999999999999,-0.20000000000000001,-0.85999999999999999,-0.33000000000000002,-0.25,0.20000000000000001,-0.69999999999999996,0.89000000000000001,0.85999999999999999,0.94999999999999996,0.29999999999999999,0.40000000000000002],[-0.33000000000000002,0.51000000000000001,0.0,-0.98999999999999999,-0.20999999999999999,0.96999999999999997,-0.90000000000000002,-1.0,-0.67000000000000004,-0.76000000000000001,0.71999999999999997,0.33000000000000002],[-0.11,0.13,0.56999999999999995,0.42999999999999999,-0.16,-0.89000000000000001,0.57999999999999996,0.55000000000000004,-0.34000000000000002,0.93000000000000005,0.47999999999999998,-0.51000000000000001],[-0.64000000000000001,-0.81999999999999995,0.17000000000000001,-0.58999999999999997,0.93999999999999995,0.5,0.95999999999999996,0.31,0.84999999999999998,0.23000000000000001,0.13,-0.27000000000000002],[0.60999999999999999,0.56000000000000005,-0.029999999999999999,-0.25,-0.68000000000000005,-0.82999999999999996,-0.17999999999999999,-0.59999999999999998,0.69999999999999996,-0.34999999999999998,0.64000000000000001,-0.11]],[[-0.40000000000000002,-0.90000000000000002,0.68999999999999995,-0.29999999999999999,0.80000000000000004,-0.02,-0.91000000000000003,-0.93999999999999995],[0.81999999999999995,-0.73999999999999999,0.40999999999999998,-0.12,0.56000000000000005,-0.46000000000000002,-0.34999999999999998,-0.45000000000000001]]]}
5;96.25;78.95;{"biases":[[[0.16],[0.41999999999999998],[0.41999999999999998],[-0.41999999999999998],[0.28000000000000003],[-0.070000000000000007],[-0.45000000000000001],[0.31],[-0.80000000000000004],[0.98999999999999999],[0.96999999999999997],[0.66000000000000003]],[[0.080000000000000002],[-0.67000000000000004],[-0.080000000000000002],[-0.57999999999999996],[-0.46999999999999997],[0.35999999999999999],[-0.96999999999999997],[-0.73999999999999999]],[[0.64000000000000001],[0.69999999999999996]]],"weights":[[[-0.81999999999999995,-0.68999999999999995,0.60999999999999999],[-0.94999999999999996,0.89000000000000001,-0.94999999999999996],[0.41999999999999998,0.11,0.55000000000000004],[-0.70999999999999996,-0.02,0.14000000000000001],[0.39000000000000001,0.89000000000000001,-0.5],[0.41999999999999998,-0.14999999999999999,0.070000000000000007],[-0.46999999999999997,-0.70999999999999996,-0.029999999999999999],[0.28999999999999998,-0.050000000000000003,-0.87],[0.050000000000000003,-0.75,0.57999999999999996],[0.42999999999999999,0.14999999999999999,0.59999999999999998],[0.88,0.28999999999999998,0.78000000000000003],[0.10000000000000001,-0.11,-0.77000000000000002]],[[0.73999999999999999,0.65000000000000002,-0.67000000000000004,0.62,0.42999999999999999,0.65000000000000002,0.69999999999999996,-0.82999999999999996,-0.28999999999999998,0.64000000000000001,-0.16,0.68999999999999995],[-0.81000000000000005,0.44,0.5,-0.02,-0.46000000000000002,0.19,0.53000000000000003,-0.56000000000000005,0.28999999999999998,0.20999999999999999,-1.0,-0.71999999999999997],[0.52000000000000002,-0.34999999999999998,0.28999999999999998,-0.96999999999999997,-0.14000000000000001,0.72999999999999998,-0.089999999999999997,0.25,0.26000000000000001,-0.47999999999999998,0.040000000000000001,0.87],[-0.17999999999999999,-0.20000000000000001,-0.85999999999999999,-0.33000000000000002,-0.25,0.20000000000000001,-0.69999999999999996,0.89000000000000001,0.85999999999999999,0.94999999999999996,0.29999999999999999,0.40000000000000002],[-0.33000000000000002,0.51000000000000001,0.0,-0.98999999999999999,-0.20999999999999999,0.96999999999999997,-0.90000000000000002,-1.0,-0.67000000000000004,-0.76000000000000001,0.71999999999999997,0.33000000000000002],[-0.11,0.13,0.56999999999999995,0.42999999999999999,-0.16,-0.89000000000000001,0.57999999999999996,0.55000000000000004,-0.34000000000000002,0.93000000000000005,0.47999999999999998,-0.51000000000000001],[-0.64000000000000001,-0.81999999999999995,0.17000000000000001,-0.58999999999999997,0.93999999999999995,0.5,0.95999999999999996,0.31,0.84999999999999998,0.23000000000000001,0.13,-0.27000000000000002],[0.60999999999999999,0.56000000000000005,-0.029999999999999999,-0.25,-0.68000000000000005,-0.82999999999999996,-0.17999999999999999,-0.59999999999999998,0.69999999999999996,-0.34999999999999998,0.64000000000000001,-0.11]],[[-0.40000000000000002,-0.90000000000000002,0.68999999999999995,-0.29999999999999999,0.80000000000000004,-0.02,-0.91000000000000003,-0.93999999999999995],[0.81999999999999995,-0.73999999999999999,0.40999999999999998,-0.12,0.56000000000000005,-0.46000000000000002,-0.34999999999999998,-0.45000000000000001]]]}
6;96.25;78.95;{"biases":[[[0.16],[0.41999999999999998],[0.41999999999999998],[-0.41999999999999998],[0.28000000000000003],[-0.070000000000000007],[-0.45000000000000001],[0.31],[-0.80000000000000004],[0.98999999999999999],[0.96999999999999997],[0.66000000000000003]],[[0.080000000000000002],[-0.67000000000000004],[-0.080000000000000002],[-0.57999999999999996],[-0.46999999999999997],[0.35999999999999999],[-0.96999999999999997],[-0.73999999999999999]],[[0.64000000000000001],[0.69999999999999996]]],"weights":[[[-0.81999999999999995,-0.68999999999999995,0.60999999999999999],[-0.94999999999999996,0.89000000000000001,-0.94999999999999996],[0.41999999999999998,0.11,0.55000000000000004],[-0.70999999999999996,-0.02,0.14000000000000001],[0.39000000000000001,0.89000000000000001,-0.5],[0.41999999999999998,-0.14999999999999999,0.070000000000000007],[-0.46999999999999997,-0.70999999999999996,-0.029999999999999999],[0.28999999999999998,-0.050000000000000003,-0.87],[0.050000000000000003,-0.75,0.57999999999999996],[0.42999999999999999,0.14999999999999999,0.59999999999999998],[0.88,0.28999999999999998,0.78000000000000003],[0.10000000000000001,-0.11,-0.77000000000000002]],[[0.73999999999999999,0.65000000000000002,-0.67000000000000004,0.62,0.42999999999999999,0.65000000000000002,0.69999999999999996,-0.82999999999999996,-0.28999999999999998,0.64000000000000001,-0.16,0.68999999999999995],[-0.81000000000000005,0.44,0.5,-0.02,-0.46000000000000002,0.19,0.53000000000000003,-0.56000000000000005,0.28999999999999998,0.20999999999999999,-1.0,-0.71999999999999997],[0.52000000000000002,-0.34999999999999998,0.28999999999999998,-0.96999999999999997,-0.14000000000000001,0.72999999999999998,-0.089999999999999997,0.25,0.26000000000000001,-0.47999999999999998,0.040000000000000001,0.87],[-0.17999999999999999,-0.20000000000000001,-0.85999999999999999,-0.33000000000000002,-0.25,0.20000000000000001,-0.69999999999999996,0.89000000000000001,0.85999999999999999,0.94999999999999996,0.29999999999999999,0.40000000000000002],[-0.33000000000000002,0.51000000000000001,0.0,-0.98999999999999999,-0.20999999999999999,0.96999999999999997,-0.90000000000000002,-1.0,-0.67000000000000004,-0.76000000000000001,0.71999999999999997,0.33000000000000002],[-0.11,0.13,0.56999999999999995,0.42999999999999999,-0.16,-0.89000000000000001,0.57999999999999996,0.55000000000000004,-0.34000000000000002,0.93000000000000005,0.47999999999999998,-0.51000000000000001],[-0.64000000000000001,-0.81999999999999995,0.17000000000000001,-0.58999999999999997,0.93999999999999995,0.5,0.95999999999999996,0.31,0.84999999999999998,0.23000000000000001,0.13,-0.27000000000000002],[0.60999999999999999,0.56000000000000005,-0.029999999999999999,-0.25,-0.68000000000000005,-0.82999999999999996,-0.17999999999999999,-0.59999999999999998,0.69999999999999996,-0.34999999999999998,0.64000000000000001,-0.11]],[[-0.40000000000000002,-0.90000000000000002,0.68999999999999995,-0.29999999999999999,0.80000000000000004,-0.02,-0.91000000000000003,-0.93999999999999995],[0.81999999999999995,-0.73999999999999999,0.40999999999999998,-0.12,0.56000000000000005,-0.46000000000000002,-0.34999999999999998,-0.45000000000000001]]]}
7;96.25;78.95;{"biases":[[[0.16],[0.41999999999999998],[0.41999999999999998],[-0.41999999999999998],[0.28000000000000003],[-0.070000000000000007],[-0.45000000000000001],[0.31],[-0.80000000000000004],[0.98999999999999999],[0.96999999999999997],[0.66000000000000003]],[[0.080000000000000002],[-0.67000000000000004],[-0.080000000000000002],[-0.57999999999999996],[-0.46999999999999997],[0.35999999999999999],[-0.96999999999999997],[-0.73999999999999999]],[[0.64000000000000001],[0.69999999999999996]]],"weights":[[[-0.81999999999999995,-0.68999999999999995,0.60999999999999999],[-0.94999999999999996,0.89000000000000001,-0.94999999999999996],[0.41999999999999998,0.11,0.55000000000000004],[-0.70999999999999996,-0.02,0.14000000000000001],[0.39000000000000001,0.89000000000000001,-0.5],[0.41999999999999998,-0.14999999999999999,0.070000000000000007],[-0.46999999999999997,-0.70999999999999996,-0.029999999999999999],[0.28999999999999998,-0.050000000000000003,-0.87],[0.050000000000000003,-0.75,0.57999999999999996],[0.42999999999999999,0.14999999999999999,0.59999999999999998],[0.88,0.28999999999999998,0.78000000000000003],[0.10000000000000001,-0.11,-0.77000000000000002]],[[0.73999999999999999,0.65000000000000002,-0.67000000000000004,0.62,0.42999999999999999,0.65000000000000002,0.69999999999999996,-0.82999999999999996,-0.28999999999999998,0.64000000000000001,-0.16,0.68999999999999995],[-0.81000000000000005,0.44,0.5,-0.02,-0.46000000000000002,0.19,0.53000000000000003,-0.56000000000000005,0.28999999999999998,0.20999999999999999,-1.0,-0.71999999999999997],[0.52000000000000002,-0.34999999999999998,0.28999999999999998,-0.96999999999999997,-0.14000000000000001,0.72999999999999998,-0.089999999999999997,0.25,0.26000000000000001,-0.47999999999999998,0.040000000000000001,0.87],[-0.17999999999999999,-0.20000000000000001,-0.85999999999999999,-0.33000000000000002,-0.25,0.20000000000000001,-0.69999999999999996,0.89000000000000001,0.85999999999999999,0.94999999999999996,0.29999999999999999,0.40000000000000002],[-0.33000000000000002,0.51000000000000001,0.0,-0.98999999999999999,-0.20999999999999999,0.96999999999999997,-0.90000000000000002,-1.0,-0.67000000000000004,-0.76000000000000001,0.71999999999999997,0.33000000000000002],[-0.11,0.13,0.56999999999999995,0.42999999999999999,-0.16,-0.89000000000000001,0.57999999999999996,0.55000000000000004,-0.34000000000000002,0.93000000000000005,0.47999999999999998,-0.51000000000000001],[-0.64000000000000001,-0.81999999999999995,0.17000000000000001,-0.58999999999999997,0.93999999999999995,0.5,0.95999999999999996,0.31,0.84999999999999998,0.23000000000000001,0.13,-0.27000000000000002],[0.60999999999999999,0.56000000000000005,-0.029999999999999999,-0.25,-0.68000000000000005,-0.82999999999999996,-0.17999999999999999,-0.59999999999999998,0.69999999999999996,-0.34999999999999998,0.64000000000000001,-0.11]],[[-0.40000000000000002,-0.90000000000000002,0.68999999999999995,-0.29999999999999999,0.80000000000000004,-0.02,-0.91000000000000003,-0.93999999999999995],[0.81999999999999995,-0.73999999999999999,0.40999999999999998,-0.12,0.56000000000000005,-0.46000000000000002,-0.34999999999999998,-0.45000000000000001]]]}
