Generation,Fitness,Hue,Weights_JSON
1,30,298.97,{"w":[[[0.68857975745573641,-0.48952003740705552,0.35503964222967621,-0.93043027691543101,1.0,0.24064125043340029,-0.56721738670021293,-0.28999999999999998,0.21401897212490439,0.71148586638271805,-1.0],[0.0064691281504928866,0.87966301015578208,0.1085837324475869,0.82506849337369204,1.0,0.28953517057932909,0.49970374990720301,-0.1224231912381947,-0.13881763515062631,-0.75191878180950877,0.95619673453271392],[-0.0077224681153893471,-0.3345315949525684,-1.0,-0.32962806954979895,1.0,0.14065235443413257,-0.39754763642325996,0.61973468738608062,-0.60536971549503504,-0.28223601286299527,0.25193498124368491],[0.39702041105367242,0.20985813876613973,-1.0,1.0,-0.48999999999999999,0.81535800241399559,-0.65097274538129568,0.076016328902915098,0.58261094251647594,0.17999999999999999,0.80179773038253188],[-0.74112513265572488,0.83576104765757919,-0.40999845399521284,0.19,1.0,1.0,-0.51210199040360749,-0.27987084431108089,0.080674162795767196,-0.67298144499771295,-0.4850554204592481],[-0.17179466015659273,0.38437968124635519,-0.36152462779544292,0.72267549054231495,0.32553311355412007,1.0,-0.31966662081424146,-0.1409328487329185,-0.75716972085647283,0.5529749661218375,-1.0],[0.087442807583138327,-1.0,0.32686809910461306,0.54612351818941529,0.095774057889357223,0.88087923684157432,0.90346731273457404,0.46855543867684901,-0.40999999999999998,0.11770034873858093,0.39760314566083255],[0.45686355222016573,-0.92398309942334889,-0.55359949271194631,0.65333692247048025,-1.0,-0.27764456092379985,-0.062678243964910507,0.83999999999999997,-1.0,0.5683593657612801,0.79470288676209744]],[[0.92542661312036212,-0.22040281813591717,0.94285223872400814,-0.17999999999999999,1.0,-0.30134463598020372,0.23000000000000001,0.005702813696116249],[0.63029903796967113,-0.12946187700144951,-0.35422975801862777,0.46013994375243783,0.63081483646295966,0.77622146005742254,-0.85423106199130416,0.70999999999999996],[-0.95402993636205791,0.71138646369799974,0.071023503551259637,0.21643933378159996,-0.68341306806076318,0.54379839059896762,0.53241386730223894,-0.60079948489554225],[0.60999999999999999,-0.070000000000000007,-0.29363575040362777,-0.70161856757476926,-0.60124588065315043,0.93129821679554881,0.61565397656522691,0.021220183605328208]],[[-1.0,0.031771866362541923,1.0,-0.67099450523033743],[0.13180122677236794,0.18608591467142105,-0.1587101928004995,0.42308270093053579],[-0.39658408684656021,0.43458557687699795,0.61543736794032156,0.46533320797607303],[-0.96726862972602246,-1.0,-0.20768811242654919,-0.10671786545775831],[0.31061962293926626,-0.98037626171950243,1.0,-0.27283914911095053],[0.81428619769401855,-0.044835147084668292,-0.97869325522333384,0.29057610667310652]],[[-0.20184894682839516,0.41262853907421226,0.28757442199625077,-0.13366150728892534,-0.98101683134213091,-0.5374206447415053],[1.0,0.96169802523218095,-0.12,-0.57385967694222928,-0.86357883942313496,0.24953258493915198]],[[0.68627579032443464,0.10275158604606985],[0.65256514913402497,-0.17348021909594535]]],"b":[[[-1.0],[-0.12778833451680838],[-0.79000000000000004],[0.70896474419161681],[0.013408453669399023],[0.6202256812248379],[-0.87112149706110353],[-1.0]],[[-1.0],[0.86685391254723076],[-0.4964224992785603],[-0.25862700924277304]],[[-0.28782255425117909],[0.16148236298002305],[-0.6941492703044787],[0.10277590999379749],[0.87378731835633516],[0.10169422875158485]],[[0.66981789749115705],[0.82942270603962243]],[[-0.59207620483357459],[0.39579685759730637]]]}
2,50,301.29,{"w":[[[0.68857975745573641,-0.48952003740705552,0.35503964222967621,-0.93043027691543101,1.0,0.24064125043340029,-0.29727199629414824,-0.28999999999999998,0.21401897212490439,0.71148586638271805,-1.0],[0.0064691281504928866,0.87966301015578208,-0.34204239613842224,0.82506849337369204,0.60892219201195985,0.28953517057932909,0.78175113048404454,-0.1224231912381947,-0.13881763515062631,-0.75191878180950877,0.64881518573034558],[-0.0077224681153893471,-0.3345315949525684,-1.0,-0.32962806954979895,1.0,0.14065235443413257,0.063491059108637282,0.61973468738608062,-0.60536971549503504,-0.28223601286299527,0.25193498124368491],[0.96844606644473963,-0.016949703497812163,-0.45925677083432676,1.0,-0.48999999999999999,0.18185910033062103,-0.65097274538129568,0.13986582136712966,0.58261094251647594,0.17999999999999999,0.80179773038253188],[-0.74112513265572488,0.83576104765757919,-1.0,0.013849061271175744,1.0,1.0,-0.51210199040360749,-0.038138345913030225,0.080674162795767196,-0.67298144499771295,-0.29660563872195778],[-0.012419460457749665,0.38437968124635519,-0.36152462779544292,0.29977001552470028,0.32553311355412007,1.0,-0.50541699177585542,-0.1409328487329185,-0.75716972085647283,0.5529749661218375,-1.0],[0.087442807583138327,-0.95870254496112461,0.32686809910461306,0.54612351818941529,0.095774057889357223,0.88087923684157432,0.90346731273457404,-0.12,-0.57431757598184041,-0.59190975139848889,0.39760314566083255],[0.45686355222016573,-0.47999999999999998,-0.0097746188472955797,0.65333692247048025,-1.0,-0.99740143715869634,-0.50586935202591121,0.83999999999999997,-1.0,0.41002888856921349,0.88995970498770471]],[[0.92542661312036212,-0.22040281813591717,0.94285223872400814,0.26608135905582458,0.6308221680810675,-0.30134463598020372,0.23000000000000001,0.005702813696116249],[0.61798082962166512,-0.059203073917888149,-0.35422975801862777,0.46013994375243783,0.63081483646295966,0.77622146005742254,-0.34902903122827411,1.0],[-0.81016636979300527,0.43618278063368054,-0.16093859379179776,0.21643933378159996,-0.55013402178417892,0.84215650771278883,0.64412241894751787,-0.60079948489554225],[0.60999999999999999,-0.070000000000000007,-0.49690410097129645,-1.0,-0.70709875651169574,0.66416899253614248,0.61565397656522691,0.021220183605328208]],[[-0.61525118877179918,0.031771866362541923,1.0,-1.0],[0.13180122677236794,0.18608591467142105,0.17268815936520696,0.42308270093053579],[-0.39658408684656021,0.50948739517480135,0.61543736794032156,0.46533320797607303],[-0.96726862972602246,-1.0,0.16239401054568589,0.01],[-0.16674284019507468,-0.26941136209294198,1.0,-0.93378668301738799],[0.4005952083226294,-0.044835147084668292,-0.97869325522333384,0.29057610667310652]],[[-0.91000000000000003,0.97287229802925135,-0.086444963086396431,-0.20290558879263698,-0.98101683134213091,-0.00081596951000384443],[1.0,0.96169802523218095,-0.12,-0.49046662157867105,-0.86357883942313496,1.0]],[[0.68627579032443464,0.10275158604606985],[0.65562228626571595,-0.17348021909594535]]],"b":[[[-0.98055264889262617],[-0.12778833451680838],[-0.79000000000000004],[0.70896474419161681],[-0.57650143036153167],[0.6202256812248379],[-1.0],[-0.60270469321403652]],[[-1.0],[0.86685391254723076],[-0.4964224992785603],[-0.25862700924277304]],[[-0.28782255425117909],[0.16148236298002305],[-1.0],[0.10277590999379749],[0.96055437508039176],[0.10169422875158485]],[[0.66981789749115705],[0.82942270603962243]],[[-1.0],[0.012128577623516323]]]}
3,50,301.29,{"w":[[[0.68857975745573641,-0.48952003740705552,0.35503964222967621,-0.93043027691543101,1.0,0.24064125043340029,-0.29727199629414824,-0.28999999999999998,0.21401897212490439,0.71148586638271805,-1.0],[0.0064691281504928866,0.87966301015578208,-0.34204239613842224,0.82506849337369204,0.60892219201195985,0.28953517057932909,0.78175113048404454,-0.1224231912381947,-0.13881763515062631,-0.75191878180950877,0.64881518573034558],[-0.0077224681153893471,-0.3345315949525684,-1.0,-0.32962806954979895,1.0,0.14065235443413257,0.063491059108637282,0.61973468738608062,-0.60536971549503504,-0.28223601286299527,0.25193498124368491],[0.96844606644473963,-0.016949703497812163,-0.45925677083432676,1.0,-0.48999999999999999,0.18185910033062103,-0.65097274538129568,0.13986582136712966,0.58261094251647594,0.17999999999999999,0.80179773038253188],[-0.74112513265572488,0.83576104765757919,-1.0,0.013849061271175744,1.0,1.0,-0.51210199040360749,-0.038138345913030225,0.080674162795767196,-0.67298144499771295,-0.29660563872195778],[-0.012419460457749665,0.38437968124635519,-0.36152462779544292,0.29977001552470028,0.32553311355412007,1.0,-0.50541699177585542,-0.1409328487329185,-0.75716972085647283,0.5529749661218375,-1.0],[0.087442807583138327,-0.95870254496112461,0.32686809910461306,0.54612351818941529,0.095774057889357223,0.88087923684157432,0.90346731273457404,-0.12,-0.57431757598184041,-0.59190975139848889,0.39760314566083255],[0.45686355222016573,-0.47999999999999998,-0.0097746188472955797,0.65333692247048025,-1.0,-0.99740143715869634,-0.50586935202591121,0.83999999999999997,-1.0,0.41002888856921349,0.88995970498770471]],[[0.92542661312036212,-0.22040281813591717,0.94285223872400814,0.26608135905582458,0.6308221680810675,-0.30134463598020372,0.23000000000000001,0.005702813696116249],[0.61798082962166512,-0.059203073917888149,-0.35422975801862777,0.46013994375243783,0.63081483646295966,0.77622146005742254,-0.34902903122827411,1.0],[-0.81016636979300527,0.43618278063368054,-0.16093859379179776,0.21643933378159996,-0.55013402178417892,0.84215650771278883,0.64412241894751787,-0.60079948489554225],[0.60999999999999999,-0.070000000000000007,-0.49690410097129645,-1.0,-0.70709875651169574,0.66416899253614248,0.61565397656522691,0.021220183605328208]],[[-0.61525118877179918,0.031771866362541923,1.0,-1.0],[0.13180122677236794,0.18608591467142105,0.17268815936520696,0.42308270093053579],[-0.39658408684656021,0.50948739517480135,0.61543736794032156,0.46533320797607303],[-0.96726862972602246,-1.0,0.16239401054568589,0.01],[-0.16674284019507468,-0.26941136209294198,1.0,-0.93378668301738799],[0.4005952083226294,-0.044835147084668292,-0.97869325522333384,0.29057610667310652]],[[-0.91000000000000003,0.97287229802925135,-0.086444963086396431,-0.20290558879263698,-0.98101683134213091,-0.00081596951000384443],[1.0,0.96169802523218095,-0.12,-0.49046662157867105,-0.86357883942313496,1.0]],[[0.68627579032443464,0.10275158604606985],[0.65562228626571595,-0.17348021909594535]]],"b":[[[-0.98055264889262617],[-0.12778833451680838],[-0.79000000000000004],[0.70896474419161681],[-0.57650143036153167],[0.6202256812248379],[-1.0],[-0.60270469321403652]],[[-1.0],[0.86685391254723076],[-0.4964224992785603],[-0.25862700924277304]],[[-0.28782255425117909],[0.16148236298002305],[-1.0],[0.10277590999379749],[0.96055437508039176],[0.10169422875158485]],[[0.66981789749115705],[0.82942270603962243]],[[-1.0],[0.012128577623516323]]]}
4,50,301.29,{"w":[[[0.68857975745573641,-0.48952003740705552,0.35503964222967621,-0.93043027691543101,1.0,0.24064125043340029,-0.29727199629414824,-0.28999999999999998,0.21401897212490439,0.71148586638271805,-1.0],[0.0064691281504928866,0.87966301015578208,-0.34204239613842224,0.82506849337369204,0.60892219201195985,0.28953517057932909,0.78175113048404454,-0.1224231912381947,-0.13881763515062631,-0.75191878180950877,0.64881518573034558],[-0.0077224681153893471,-0.3345315949525684,-1.0,-0.32962806954979895,1.0,0.14065235443413257,0.063491059108637282,0.61973468738608062,-0.60536971549503504,-0.28223601286299527,0.25193498124368491],[0.96844606644473963,-0.016949703497812163,-0.45925677083432676,1.0,-0.48999999999999999,0.18185910033062103,-0.65097274538129568,0.13986582136712966,0.58261094251647594,0.17999999999999999,0.80179773038253188],[-0.74112513265572488,0.83576104765757919,-1.0,0.013849061271175744,1.0,1.0,-0.51210199040360749,-0.038138345913030225,0.080674162795767196,-0.67298144499771295,-0.29660563872195778],[-0.012419460457749665,0.38437968124635519,-0.36152462779544292,0.29977001552470028,0.32553311355412007,1.0,-0.50541699177585542,-0.1409328487329185,-0.75716972085647283,0.5529749661218375,-1.0],[0.087442807583138327,-0.95870254496112461,0.32686809910461306,0.54612351818941529,0.095774057889357223,0.88087923684157432,0.90346731273457404,-0.12,-0.57431757598184041,-0.59190975139848889,0.39760314566083255],[0.45686355222016573,-0.47999999999999998,-0.0097746188472955797,0.65333692247048025,-1.0,-0.99740143715869634,-0.50586935202591121,0.83999999999999997,-1.0,0.41002888856921349,0.88995970498770471]],[[0.92542661312036212,-0.22040281813591717,0.94285223872400814,0.26608135905582458,0.6308221680810675,-0.30134463598020372,0.23000000000000001,0.005702813696116249],[0.61798082962166512,-0.059203073917888149,-0.35422975801862777,0.46013994375243783,0.63081483646295966,0.77622146005742254,-0.34902903122827411,1.0],[-0.81016636979300527,0.43618278063368054,-0.16093859379179776,0.21643933378159996,-0.55013402178417892,0.84215650771278883,0.64412241894751787,-0.60079948489554225],[0.60999999999999999,-0.070000000000000007,-0.49690410097129645,-1.0,-0.70709875651169574,0.66416899253614248,0.61565397656522691,0.021220183605328208]],[[-0.61525118877179918,0.031771866362541923,1.0,-1.0],[0.13180122677236794,0.18608591467142105,0.17268815936520696,0.42308270093053579],[-0.39658408684656021,0.50948739517480135,0.61543736794032156,0.46533320797607303],[-0.96726862972602246,-1.0,0.16239401054568589,0.01],[-0.16674284019507468,-0.26941136209294198,1.0,-0.93378668301738799],[0.4005952083226294,-0.044835147084668292,-0.97869325522333384,0.29057610667310652]],[[-0.91000000000000003,0.97287229802925135,-0.086444963086396431,-0.20290558879263698,-0.98101683134213091,-0.00081596951000384443],[1.0,0.96169802523218095,-0.12,-0.49046662157867105,-0.86357883942313496,1.0]],[[0.68627579032443464,0.10275158604606985],[0.65562228626571595,-0.17348021909594535]]],"b":[[[-0.98055264889262617],[-0.12778833451680838],[-0.79000000000000004],[0.70896474419161681],[-0.57650143036153167],[0.6202256812248379],[-1.0],[-0.60270469321403652]],[[-1.0],[0.86685391254723076],[-0.4964224992785603],[-0.25862700924277304]],[[-0.28782255425117909],[0.16148236298002305],[-1.0],[0.10277590999379749],[0.96055437508039176],[0.10169422875158485]],[[0.66981789749115705],[0.82942270603962243]],[[-1.0],[0.012128577623516323]]]}
5,50,301.29,{"w":[[[0.68857975745573641,-0.48952003740705552,0.35503964222967621,-0.93043027691543101,1.0,0.24064125043340029,-0.29727199629414824,-0.28999999999999998,0.21401897212490439,0.71148586638271805,-1.0],[0.0064691281504928866,0.87966301015578208,-0.34204239613842224,0.82506849337369204,0.60892219201195985,0.28953517057932909,0.78175113048404454,-0.1224231912381947,-0.13881763515062631,-0.75191878180950877,0.64881518573034558],[-0.0077224681153893471,-0.3345315949525684,-1.0,-0.32962806954979895,1.0,0.14065235443413257,0.063491059108637282,0.61973468738608062,-0.60536971549503504,-0.28223601286299527,0.25193498124368491],[0.96844606644473963,-0.016949703497812163,-0.45925677083432676,1.0,-0.48999999999999999,0.18185910033062103,-0.65097274538129568,0.13986582136712966,0.58261094251647594,0.17999999999999999,0.80179773038253188],[-0.74112513265572488,0.83576104765757919,-1.0,0.013849061271175744,1.0,1.0,-0.51210199040360749,-0.038138345913030225,0.080674162795767196,-0.67298144499771295,-0.29660563872195778],[-0.012419460457749665,0.38437968124635519,-0.36152462779544292,0.29977001552470028,0.32553311355412007,1.0,-0.50541699177585542,-0.1409328487329185,-0.75716972085647283,0.5529749661218375,-1.0],[0.087442807583138327,-0.95870254496112461,0.32686809910461306,0.54612351818941529,0.095774057889357223,0.88087923684157432,0.90346731273457404,-0.12,-0.57431757598184041,-0.59190975139848889,0.39760314566083255],[0.45686355222016573,-0.47999999999999998,-0.0097746188472955797,0.65333692247048025,-1.0,-0.99740143715869634,-0.50586935202591121,0.83999999999999997,-1.0,0.41002888856921349,0.88995970498770471]],[[0.92542661312036212,-0.22040281813591717,0.94285223872400814,0.26608135905582458,0.6308221680810675,-0.30134463598020372,0.23000000000000001,0.005702813696116249],[0.61798082962166512,-0.059203073917888149,-0.35422975801862777,0.46013994375243783,0.63081483646295966,0.77622146005742254,-0.34902903122827411,1.0],[-0.81016636979300527,0.43618278063368054,-0.16093859379179776,0.21643933378159996,-0.55013402178417892,0.84215650771278883,0.64412241894751787,-0.60079948489554225],[0.60999999999999999,-0.070000000000000007,-0.49690410097129645,-1.0,-0.70709875651169574,0.66416899253614248,0.61565397656522691,0.021220183605328208]],[[-0.61525118877179918,0.031771866362541923,1.0,-1.0],[0.13180122677236794,0.18608591467142105,0.17268815936520696,0.42308270093053579],[-0.39658408684656021,0.50948739517480135,0.61543736794032156,0.46533320797607303],[-0.96726862972602246,-1.0,0.16239401054568589,0.01],[-0.16674284019507468,-0.26941136209294198,1.0,-0.93378668301738799],[0.4005952083226294,-0.044835147084668292,-0.97869325522333384,0.29057610667310652]],[[-0.91000000000000003,0.97287229802925135,-0.086444963086396431,-0.20290558879263698,-0.98101683134213091,-0.00081596951000384443],[1.0,0.96169802523218095,-0.12,-0.49046662157867105,-0.86357883942313496,1.0]],[[0.68627579032443464,0.10275158604606985],[0.65562228626571595,-0.17348021909594535]]],"b":[[[-0.98055264889262617],[-0.12778833451680838],[-0.79000000000000004],[0.70896474419161681],[-0.57650143036153167],[0.6202256812248379],[-1.0],[-0.60270469321403652]],[[-1.0],[0.86685391254723076],[-0.4964224992785603],[-0.25862700924277304]],[[-0.28782255425117909],[0.16148236298002305],[-1.0],[0.10277590999379749],[0.96055437508039176],[0.10169422875158485]],[[0.66981789749115705],[0.82942270603962243]],[[-1.0],[0.012128577623516323]]]}
6,50,301.29,{"w":[[[0.68857975745573641,-0.48952003740705552,0.35503964222967621,-0.93043027691543101,1.0,0.24064125043340029,-0.29727199629414824,-0.28999999999999998,0.21401897212490439,0.71148586638271805,-1.0],[0.0064691281504928866,0.87966301015578208,-0.34204239613842224,0.82506849337369204,0.60892219201195985,0.28953517057932909,0.78175113048404454,-0.1224231912381947,-0.13881763515062631,-0.75191878180950877,0.64881518573034558],[-0.0077224681153893471,-0.3345315949525684,-1.0,-0.32962806954979895,1.0,0.14065235443413257,0.063491059108637282,0.61973468738608062,-0.60536971549503504,-0.28223601286299527,0.25193498124368491],[0.96844606644473963,-0.016949703497812163,-0.45925677083432676,1.0,-0.48999999999999999,0.18185910033062103,-0.65097274538129568,0.13986582136712966,0.58261094251647594,0.17999999999999999,0.80179773038253188],[-0.74112513265572488,0.83576104765757919,-1.0,0.013849061271175744,1.0,1.0,-0.51210199040360749,-0.038138345913030225,0.080674162795767196,-0.67298144499771295,-0.29660563872195778],[-0.012419460457749665,0.38437968124635519,-0.36152462779544292,0.29977001552470028,0.32553311355412007,1.0,-0.50541699177585542,-0.1409328487329185,-0.75716972085647283,0.5529749661218375,-1.0],[0.087442807583138327,-0.95870254496112461,0.32686809910461306,0.54612351818941529,0.095774057889357223,0.88087923684157432,0.90346731273457404,-0.12,-0.57431757598184041,-0.59190975139848889,0.39760314566083255],[0.45686355222016573,-0.47999999999999998,-0.0097746188472955797,0.65333692247048025,-1.0,-0.99740143715869634,-0.50586935202591121,0.83999999999999997,-1.0,0.41002888856921349,0.88995970498770471]],[[0.92542661312036212,-0.22040281813591717,0.94285223872400814,0.26608135905582458,0.6308221680810675,-0.30134463598020372,0.23000000000000001,0.005702813696116249],[0.61798082962166512,-0.059203073917888149,-0.35422975801862777,0.46013994375243783,0.63081483646295966,0.77622146005742254,-0.34902903122827411,1.0],[-0.81016636979300527,0.43618278063368054,-0.16093859379179776,0.21643933378159996,-0.55013402178417892,0.84215650771278883,0.64412241894751787,-0.60079948489554225],[0.60999999999999999,-0.070000000000000007,-0.49690410097129645,-1.0,-0.70709875651169574,0.66416899253614248,0.61565397656522691,0.021220183605328208]],[[-0.61525118877179918,0.031771866362541923,1.0,-1.0],[0.13180122677236794,0.18608591467142105,0.17268815936520696,0.42308270093053579],[-0.39658408684656021,0.50948739517480135,0.61543736794032156,0.46533320797607303],[-0.96726862972602246,-1.0,0.16239401054568589,0.01],[-0.16674284019507468,-0.26941136209294198,1.0,-0.93378668301738799],[0.4005952083226294,-0.044835147084668292,-0.97869325522333384,0.29057610667310652]],[[-0.91000000000000003,0.97287229802925135,-0.086444963086396431,-0.20290558879263698,-0.98101683134213091,-0.00081596951000384443],[1.0,0.96169802523218095,-0.12,-0.49046662157867105,-0.86357883942313496,1.0]],[[0.68627579032443464,0.10275158604606985],[0.65562228626571595,-0.17348021909594535]]],"b":[[[-0.98055264889262617],[-0.12778833451680838],[-0.79000000000000004],[0.70896474419161681],[-0.57650143036153167],[0.6202256812248379],[-1.0],[-0.60270469321403652]],[[-1.0],[0.86685391254723076],[-0.4964224992785603],[-0.25862700924277304]],[[-0.28782255425117909],[0.16148236298002305],[-1.0],[0.10277590999379749],[0.96055437508039176],[0.10169422875158485]],[[0.66981789749115705],[0.82942270603962243]],[[-1.0],[0.012128577623516323]]]}
7,50,301.29,{"w":[[[0.68857975745573641,-0.48952003740705552,0.35503964222967621,-0.93043027691543101,1.0,0.24064125043340029,-0.29727199629414824,-0.28999999999999998,0.21401897212490439,0.71148586638271805,-1.0],[0.0064691281504928866,0.87966301015578208,-0.34204239613842224,0.82506849337369204,0.60892219201195985,0.28953517057932909,0.78175113048404454,-0.1224231912381947,-0.13881763515062631,-0.75191878180950877,0.64881518573034558],[-0.0077224681153893471,-0.3345315949525684,-1.0,-0.32962806954979895,1.0,0.14065235443413257,0.063491059108637282,0.61973468738608062,-0.60536971549503504,-0.28223601286299527,0.25193498124368491],[0.96844606644473963,-0.016949703497812163,-0.45925677083432676,1.0,-0.48999999999999999,0.18185910033062103,-0.65097274538129568,0.13986582136712966,0.58261094251647594,0.17999999999999999,0.80179773038253188],[-0.74112513265572488,0.83576104765757919,-1.0,0.013849061271175744,1.0,1.0,-0.51210199040360749,-0.038138345913030225,0.080674162795767196,-0.67298144499771295,-0.29660563872195778],[-0.012419460457749665,0.38437968124635519,-0.36152462779544292,0.29977001552470028,0.32553311355412007,1.0,-0.50541699177585542,-0.1409328487329185,-0.75716972085647283,0.5529749661218375,-1.0],[0.087442807583138327,-0.95870254496112461,0.32686809910461306,0.54612351818941529,0.095774057889357223,0.88087923684157432,0.90346731273457404,-0.12,-0.57431757598184041,-0.59190975139848889,0.39760314566083255],[0.45686355222016573,-0.47999999999999998,-0.0097746188472955797,0.65333692247048025,-1.0,-0.99740143715869634,-0.50586935202591121,0.83999999999999997,-1.0,0.41002888856921349,0.88995970498770471]],[[0.92542661312036212,-0.22040281813591717,0.94285223872400814,0.26608135905582458,0.6308221680810675,-0.30134463598020372,0.23000000000000001,0.005702813696116249],[0.61798082962166512,-0.059203073917888149,-0.35422975801862777,0.46013994375243783,0.63081483646295966,0.77622146005742254,-0.34902903122827411,1.0],[-0.81016636979300527,0.43618278063368054,-0.16093859379179776,0.21643933378159996,-0.55013402178417892,0.84215650771278883,0.64412241894751787,-0.60079948489554225],[0.60999999999999999,-0.070000000000000007,-0.49690410097129645,-1.0,-0.70709875651169574,0.66416899253614248,0.61565397656522691,0.021220183605328208]],[[-0.61525118877179918,0.031771866362541923,1.0,-1.0],[0.13180122677236794,0.18608591467142105,0.17268815936520696,0.42308270093053579],[-0.39658408684656021,0.50948739517480135,0.61543736794032156,0.46533320797607303],[-0.96726862972602246,-1.0,0.16239401054568589,0.01],[-0.16674284019507468,-0.26941136209294198,1.0,-0.93378668301738799],[0.4005952083226294,-0.044835147084668292,-0.97869325522333384,0.29057610667310652]],[[-0.91000000000000003,0.97287229802925135,-0.086444963086396431,-0.20290558879263698,-0.98101683134213091,-0.00081596951000384443],[1.0,0.96169802523218095,-0.12,-0.49046662157867105,-0.86357883942313496,1.0]],[[0.68627579032443464,0.10275158604606985],[0.65562228626571595,-0.17348021909594535]]],"b":[[[-0.98055264889262617],[-0.12778833451680838],[-0.79000000000000004],[0.70896474419161681],[-0.57650143036153167],[0.6202256812248379],[-1.0],[-0.60270469321403652]],[[-1.0],[0.86685391254723076],[-0.4964224992785603],[-0.25862700924277304]],[[-0.28782255425117909],[0.16148236298002305],[-1.0],[0.10277590999379749],[0.96055437508039176],[0.10169422875158485]],[[0.66981789749115705],[0.82942270603962243]],[[-1.0],[0.012128577623516323]]]}
8,50,301.29,{"w":[[[0.68857975745573641,-0.48952003740705552,0.35503964222967621,-0.93043027691543101,1.0,0.24064125043340029,-0.29727199629414824,-0.28999999999999998,0.21401897212490439,0.71148586638271805,-1.0],[0.0064691281504928866,0.87966301015578208,-0.34204239613842224,0.82506849337369204,0.60892219201195985,0.28953517057932909,0.78175113048404454,-0.1224231912381947,-0.13881763515062631,-0.75191878180950877,0.64881518573034558],[-0.0077224681153893471,-0.3345315949525684,-1.0,-0.32962806954979895,1.0,0.14065235443413257,0.063491059108637282,0.61973468738608062,-0.60536971549503504,-0.28223601286299527,0.25193498124368491],[0.96844606644473963,-0.016949703497812163,-0.45925677083432676,1.0,-0.48999999999999999,0.18185910033062103,-0.65097274538129568,0.13986582136712966,0.58261094251647594,0.17999999999999999,0.80179773038253188],[-0.74112513265572488,0.83576104765757919,-1.0,0.013849061271175744,1.0,1.0,-0.51210199040360749,-0.038138345913030225,0.080674162795767196,-0.67298144499771295,-0.29660563872195778],[-0.012419460457749665,0.38437968124635519,-0.36152462779544292,0.29977001552470028,0.32553311355412007,1.0,-0.50541699177585542,-0.1409328487329185,-0.75716972085647283,0.5529749661218375,-1.0],[0.087442807583138327,-0.95870254496112461,0.32686809910461306,0.54612351818941529,0.095774057889357223,0.88087923684157432,0.90346731273457404,-0.12,-0.57431757598184041,-0.59190975139848889,0.39760314566083255],[0.45686355222016573,-0.47999999999999998,-0.0097746188472955797,0.65333692247048025,-1.0,-0.99740143715869634,-0.50586935202591121,0.83999999999999997,-1.0,0.41002888856921349,0.88995970498770471]],[[0.92542661312036212,-0.22040281813591717,0.94285223872400814,0.26608135905582458,0.6308221680810675,-0.30134463598020372,0.23000000000000001,0.005702813696116249],[0.61798082962166512,-0.059203073917888149,-0.35422975801862777,0.46013994375243783,0.63081483646295966,0.77622146005742254,-0.34902903122827411,1.0],[-0.81016636979300527,0.43618278063368054,-0.16093859379179776,0.21643933378159996,-0.55013402178417892,0.84215650771278883,0.64412241894751787,-0.60079948489554225],[0.60999999999999999,-0.070000000000000007,-0.49690410097129645,-1.0,-0.70709875651169574,0.66416899253614248,0.61565397656522691,0.021220183605328208]],[[-0.61525118877179918,0.031771866362541923,1.0,-1.0],[0.13180122677236794,0.18608591467142105,0.17268815936520696,0.42308270093053579],[-0.39658408684656021,0.50948739517480135,0.61543736794032156,0.46533320797607303],[-0.96726862972602246,-1.0,0.16239401054568589,0.01],[-0.16674284019507468,-0.26941136209294198,1.0,-0.93378668301738799],[0.4005952083226294,-0.044835147084668292,-0.97869325522333384,0.29057610667310652]],[[-0.91000000000000003,0.97287229802925135,-0.086444963086396431,-0.20290558879263698,-0.98101683134213091,-0.00081596951000384443],[1.0,0.96169802523218095,-0.12,-0.49046662157867105,-0.86357883942313496,1.0]],[[0.68627579032443464,0.10275158604606985],[0.65562228626571595,-0.17348021909594535]]],"b":[[[-0.98055264889262617],[-0.12778833451680838],[-0.79000000000000004],[0.70896474419161681],[-0.57650143036153167],[0.6202256812248379],[-1.0],[-0.60270469321403652]],[[-1.0],[0.86685391254723076],[-0.4964224992785603],[-0.25862700924277304]],[[-0.28782255425117909],[0.16148236298002305],[-1.0],[0.10277590999379749],[0.96055437508039176],[0.10169422875158485]],[[0.66981789749115705],[0.82942270603962243]],[[-1.0],[0.012128577623516323]]]}
9,50,301.29,{"w":[[[0.68857975745573641,-0.48952003740705552,0.35503964222967621,-0.93043027691543101,1.0,0.24064125043340029,-0.29727199629414824,-0.28999999999999998,0.21401897212490439,0.71148586638271805,-1.0],[0.0064691281504928866,0.87966301015578208,-0.34204239613842224,0.82506849337369204,0.60892219201195985,0.28953517057932909,0.78175113048404454,-0.1224231912381947,-0.13881763515062631,-0.75191878180950877,0.64881518573034558],[-0.0077224681153893471,-0.3345315949525684,-1.0,-0.32962806954979895,1.0,0.14065235443413257,0.063491059108637282,0.61973468738608062,-0.60536971549503504,-0.28223601286299527,0.25193498124368491],[0.96844606644473963,-0.016949703497812163,-0.45925677083432676,1.0,-0.48999999999999999,0.18185910033062103,-0.65097274538129568,0.13986582136712966,0.58261094251647594,0.17999999999999999,0.80179773038253188],[-0.74112513265572488,0.83576104765757919,-1.0,0.013849061271175744,1.0,1.0,-0.51210199040360749,-0.038138345913030225,0.080674162795767196,-0.67298144499771295,-0.29660563872195778],[-0.012419460457749665,0.38437968124635519,-0.36152462779544292,0.29977001552470028,0.32553311355412007,1.0,-0.50541699177585542,-0.1409328487329185,-0.75716972085647283,0.5529749661218375,-1.0],[0.087442807583138327,-0.95870254496112461,0.32686809910461306,0.54612351818941529,0.095774057889357223,0.88087923684157432,0.90346731273457404,-0.12,-0.57431757598184041,-0.59190975139848889,0.39760314566083255],[0.45686355222016573,-0.47999999999999998,-0.0097746188472955797,0.65333692247048025,-1.0,-0.99740143715869634,-0.50586935202591121,0.83999999999999997,-1.0,0.41002888856921349,0.88995970498770471]],[[0.92542661312036212,-0.22040281813591717,0.94285223872400814,0.26608135905582458,0.6308221680810675,-0.30134463598020372,0.23000000000000001,0.005702813696116249],[0.61798082962166512,-0.059203073917888149,-0.35422975801862777,0.46013994375243783,0.63081483646295966,0.77622146005742254,-0.34902903122827411,1.0],[-0.81016636979300527,0.43618278063368054,-0.16093859379179776,0.21643933378159996,-0.55013402178417892,0.84215650771278883,0.64412241894751787,-0.60079948489554225],[0.60999999999999999,-0.070000000000000007,-0.49690410097129645,-1.0,-0.70709875651169574,0.66416899253614248,0.61565397656522691,0.021220183605328208]],[[-0.61525118877179918,0.031771866362541923,1.0,-1.0],[0.13180122677236794,0.18608591467142105,0.17268815936520696,0.42308270093053579],[-0.39658408684656021,0.50948739517480135,0.61543736794032156,0.46533320797607303],[-0.96726862972602246,-1.0,0.16239401054568589,0.01],[-0.16674284019507468,-0.26941136209294198,1.0,-0.93378668301738799],[0.4005952083226294,-0.044835147084668292,-0.97869325522333384,0.29057610667310652]],[[-0.91000000000000003,0.97287229802925135,-0.086444963086396431,-0.20290558879263698,-0.98101683134213091,-0.00081596951000384443],[1.0,0.96169802523218095,-0.12,-0.49046662157867105,-0.86357883942313496,1.0]],[[0.68627579032443464,0.10275158604606985],[0.65562228626571595,-0.17348021909594535]]],"b":[[[-0.98055264889262617],[-0.12778833451680838],[-0.79000000000000004],[0.70896474419161681],[-0.57650143036153167],[0.6202256812248379],[-1.0],[-0.60270469321403652]],[[-1.0],[0.86685391254723076],[-0.4964224992785603],[-0.25862700924277304]],[[-0.28782255425117909],[0.16148236298002305],[-1.0],[0.10277590999379749],[0.96055437508039176],[0.10169422875158485]],[[0.66981789749115705],[0.82942270603962243]],[[-1.0],[0.012128577623516323]]]}
10,50,301.29,{"w":[[[0.68857975745573641,-0.48952003740705552,0.35503964222967621,-0.93043027691543101,1.0,0.24064125043340029,-0.29727199629414824,-0.28999999999999998,0.21401897212490439,0.71148586638271805,-1.0],[0.0064691281504928866,0.87966301015578208,-0.34204239613842224,0.82506849337369204,0.60892219201195985,0.28953517057932909,0.78175113048404454,-0.1224231912381947,-0.13881763515062631,-0.75191878180950877,0.64881518573034558],[-0.0077224681153893471,-0.3345315949525684,-1.0,-0.32962806954979895,1.0,0.14065235443413257,0.063491059108637282,0.61973468738608062,-0.60536971549503504,-0.28223601286299527,0.25193498124368491],[0.96844606644473963,-0.016949703497812163,-0.45925677083432676,1.0,-0.48999999999999999,0.18185910033062103,-0.65097274538129568,0.13986582136712966,0.58261094251647594,0.17999999999999999,0.80179773038253188],[-0.74112513265572488,0.83576104765757919,-1.0,0.013849061271175744,1.0,1.0,-0.51210199040360749,-0.038138345913030225,0.080674162795767196,-0.67298144499771295,-0.29660563872195778],[-0.012419460457749665,0.38437968124635519,-0.36152462779544292,0.29977001552470028,0.32553311355412007,1.0,-0.50541699177585542,-0.1409328487329185,-0.75716972085647283,0.5529749661218375,-1.0],[0.087442807583138327,-0.95870254496112461,0.32686809910461306,0.54612351818941529,0.095774057889357223,0.88087923684157432,0.90346731273457404,-0.12,-0.57431757598184041,-0.59190975139848889,0.39760314566083255],[0.45686355222016573,-0.47999999999999998,-0.0097746188472955797,0.65333692247048025,-1.0,-0.99740143715869634,-0.50586935202591121,0.83999999999999997,-1.0,0.41002888856921349,0.88995970498770471]],[[0.92542661312036212,-0.22040281813591717,0.94285223872400814,0.26608135905582458,0.6308221680810675,-0.30134463598020372,0.23000000000000001,0.005702813696116249],[0.61798082962166512,-0.059203073917888149,-0.35422975801862777,0.46013994375243783,0.63081483646295966,0.77622146005742254,-0.34902903122827411,1.0],[-0.81016636979300527,0.43618278063368054,-0.16093859379179776,0.21643933378159996,-0.55013402178417892,0.84215650771278883,0.64412241894751787,-0.60079948489554225],[0.60999999999999999,-0.070000000000000007,-0.49690410097129645,-1.0,-0.70709875651169574,0.66416899253614248,0.61565397656522691,0.021220183605328208]],[[-0.61525118877179918,0.031771866362541923,1.0,-1.0],[0.13180122677236794,0.18608591467142105,0.17268815936520696,0.42308270093053579],[-0.39658408684656021,0.50948739517480135,0.61543736794032156,0.46533320797607303],[-0.96726862972602246,-1.0,0.16239401054568589,0.01],[-0.16674284019507468,-0.26941136209294198,1.0,-0.93378668301738799],[0.4005952083226294,-0.044835147084668292,-0.97869325522333384,0.29057610667310652]],[[-0.91000000000000003,0.97287229802925135,-0.086444963086396431,-0.20290558879263698,-0.98101683134213091,-0.00081596951000384443],[1.0,0.96169802523218095,-0.12,-0.49046662157867105,-0.86357883942313496,1.0]],[[0.68627579032443464,0.10275158604606985],[0.65562228626571595,-0.17348021909594535]]],"b":[[[-0.98055264889262617],[-0.12778833451680838],[-0.79000000000000004],[0.70896474419161681],[-0.57650143036153167],[0.6202256812248379],[-1.0],[-0.60270469321403652]],[[-1.0],[0.86685391254723076],[-0.4964224992785603],[-0.25862700924277304]],[[-0.28782255425117909],[0.16148236298002305],[-1.0],[0.10277590999379749],[0.96055437508039176],[0.10169422875158485]],[[0.66981789749115705],[0.82942270603962243]],[[-1.0],[0.012128577623516323]]]}
11,50,301.29,{"w":[[[0.68857975745573641,-0.48952003740705552,0.35503964222967621,-0.93043027691543101,1.0,0.24064125043340029,-0.29727199629414824,-0.28999999999999998,0.21401897212490439,0.71148586638271805,-1.0],[0.0064691281504928866,0.87966301015578208,-0.34204239613842224,0.82506849337369204,0.60892219201195985,0.28953517057932909,0.78175113048404454,-0.1224231912381947,-0.13881763515062631,-0.75191878180950877,0.64881518573034558],[-0.0077224681153893471,-0.3345315949525684,-1.0,-0.32962806954979895,1.0,0.14065235443413257,0.063491059108637282,0.61973468738608062,-0.60536971549503504,-0.28223601286299527,0.25193498124368491],[0.96844606644473963,-0.016949703497812163,-0.45925677083432676,1.0,-0.48999999999999999,0.18185910033062103,-0.65097274538129568,0.13986582136712966,0.58261094251647594,0.17999999999999999,0.80179773038253188],[-0.74112513265572488,0.83576104765757919,-1.0,0.013849061271175744,1.0,1.0,-0.51210199040360749,-0.038138345913030225,0.080674162795767196,-0.67298144499771295,-0.29660563872195778],[-0.012419460457749665,0.38437968124635519,-0.36152462779544292,0.29977001552470028,0.32553311355412007,1.0,-0.50541699177585542,-0.1409328487329185,-0.75716972085647283,0.5529749661218375,-1.0],[0.087442807583138327,-0.95870254496112461,0.32686809910461306,0.54612351818941529,0.095774057889357223,0.88087923684157432,0.90346731273457404,-0.12,-0.57431757598184041,-0.59190975139848889,0.39760314566083255],[0.45686355222016573,-0.47999999999999998,-0.0097746188472955797,0.65333692247048025,-1.0,-0.99740143715869634,-0.50586935202591121,0.83999999999999997,-1.0,0.41002888856921349,0.88995970498770471]],[[0.92542661312036212,-0.22040281813591717,0.94285223872400814,0.26608135905582458,0.6308221680810675,-0.30134463598020372,0.23000000000000001,0.005702813696116249],[0.61798082962166512,-0.059203073917888149,-0.35422975801862777,0.46013994375243783,0.63081483646295966,0.77622146005742254,-0.34902903122827411,1.0],[-0.81016636979300527,0.43618278063368054,-0.16093859379179776,0.21643933378159996,-0.55013402178417892,0.84215650771278883,0.64412241894751787,-0.60079948489554225],[0.60999999999999999,-0.070000000000000007,-0.49690410097129645,-1.0,-0.70709875651169574,0.66416899253614248,0.61565397656522691,0.021220183605328208]],[[-0.61525118877179918,0.031771866362541923,1.0,-1.0],[0.13180122677236794,0.18608591467142105,0.17268815936520696,0.42308270093053579],[-0.39658408684656021,0.50948739517480135,0.61543736794032156,0.46533320797607303],[-0.96726862972602246,-1.0,0.16239401054568589,0.01],[-0.16674284019507468,-0.26941136209294198,1.0,-0.93378668301738799],[0.4005952083226294,-0.044835147084668292,-0.97869325522333384,0.29057610667310652]],[[-0.91000000000000003,0.97287229802925135,-0.086444963086396431,-0.20290558879263698,-0.98101683134213091,-0.00081596951000384443],[1.0,0.96169802523218095,-0.12,-0.49046662157867105,-0.86357883942313496,1.0]],[[0.68627579032443464,0.10275158604606985],[0.65562228626571595,-0.17348021909594535]]],"b":[[[-0.98055264889262617],[-0.12778833451680838],[-0.79000000000000004],[0.70896474419161681],[-0.57650143036153167],[0.6202256812248379],[-1.0],[-0.60270469321403652]],[[-1.0],[0.86685391254723076],[-0.4964224992785603],[-0.25862700924277304]],[[-0.28782255425117909],[0.16148236298002305],[-1.0],[0.10277590999379749],[0.96055437508039176],[0.10169422875158485]],[[0.66981789749115705],[0.82942270603962243]],[[-1.0],[0.012128577623516323]]]}
12,50,301.29,{"w":[[[0.68857975745573641,-0.48952003740705552,0.35503964222967621,-0.93043027691543101,1.0,0.24064125043340029,-0.29727199629414824,-0.28999999999999998,0.21401897212490439,0.71148586638271805,-1.0],[0.0064691281504928866,0.87966301015578208,-0.34204239613842224,0.82506849337369204,0.60892219201195985,0.28953517057932909,0.78175113048404454,-0.1224231912381947,-0.13881763515062631,-0.75191878180950877,0.64881518573034558],[-0.0077224681153893471,-0.3345315949525684,-1.0,-0.32962806954979895,1.0,0.14065235443413257,0.063491059108637282,0.61973468738608062,-0.60536971549503504,-0.28223601286299527,0.25193498124368491],[0.96844606644473963,-0.016949703497812163,-0.45925677083432676,1.0,-0.48999999999999999,0.18185910033062103,-0.65097274538129568,0.13986582136712966,0.58261094251647594,0.17999999999999999,0.80179773038253188],[-0.74112513265572488,0.83576104765757919,-1.0,0.013849061271175744,1.0,1.0,-0.51210199040360749,-0.038138345913030225,0.080674162795767196,-0.67298144499771295,-0.29660563872195778],[-0.012419460457749665,0.38437968124635519,-0.36152462779544292,0.29977001552470028,0.32553311355412007,1.0,-0.50541699177585542,-0.1409328487329185,-0.75716972085647283,0.5529749661218375,-1.0],[0.087442807583138327,-0.95870254496112461,0.32686809910461306,0.54612351818941529,0.095774057889357223,0.88087923684157432,0.90346731273457404,-0.12,-0.57431757598184041,-0.59190975139848889,0.39760314566083255],[0.45686355222016573,-0.47999999999999998,-0.0097746188472955797,0.65333692247048025,-1.0,-0.99740143715869634,-0.50586935202591121,0.83999999999999997,-1.0,0.41002888856921349,0.88995970498770471]],[[0.92542661312036212,-0.22040281813591717,0.94285223872400814,0.26608135905582458,0.6308221680810675,-0.30134463598020372,0.23000000000000001,0.005702813696116249],[0.61798082962166512,-0.059203073917888149,-0.35422975801862777,0.46013994375243783,0.63081483646295966,0.77622146005742254,-0.34902903122827411,1.0],[-0.81016636979300527,0.43618278063368054,-0.16093859379179776,0.21643933378159996,-0.55013402178417892,0.84215650771278883,0.64412241894751787,-0.60079948489554225],[0.60999999999999999,-0.070000000000000007,-0.49690410097129645,-1.0,-0.70709875651169574,0.66416899253614248,0.61565397656522691,0.021220183605328208]],[[-0.61525118877179918,0.031771866362541923,1.0,-1.0],[0.13180122677236794,0.18608591467142105,0.17268815936520696,0.42308270093053579],[-0.39658408684656021,0.50948739517480135,0.61543736794032156,0.46533320797607303],[-0.96726862972602246,-1.0,0.16239401054568589,0.01],[-0.16674284019507468,-0.26941136209294198,1.0,-0.93378668301738799],[0.4005952083226294,-0.044835147084668292,-0.97869325522333384,0.29057610667310652]],[[-0.91000000000000003,0.97287229802925135,-0.086444963086396431,-0.20290558879263698,-0.98101683134213091,-0.00081596951000384443],[1.0,0.96169802523218095,-0.12,-0.49046662157867105,-0.86357883942313496,1.0]],[[0.68627579032443464,0.10275158604606985],[0.65562228626571595,-0.17348021909594535]]],"b":[[[-0.98055264889262617],[-0.12778833451680838],[-0.79000000000000004],[0.70896474419161681],[-0.57650143036153167],[0.6202256812248379],[-1.0],[-0.60270469321403652]],[[-1.0],[0.86685391254723076],[-0.4964224992785603],[-0.25862700924277304]],[[-0.28782255425117909],[0.16148236298002305],[-1.0],[0.10277590999379749],[0.96055437508039176],[0.10169422875158485]],[[0.66981789749115705],[0.82942270603962243]],[[-1.0],[0.012128577623516323]]]}
