Generation;Fitness;Hue;Weights_JSON
0;5.95;266.29;{"biases":[[[-0.70999999999999996],[0.66000000000000003],[-0.93000000000000005],[-0.85999999999999999],[-0.69999999999999996],[-0.82999999999999996],[0.77000000000000002],[-0.080000000000000002],[0.45000000000000001],[-0.37],[-0.81999999999999995],[0.57999999999999996]],[[-0.34999999999999998],[0.97999999999999998],[0.68999999999999995],[0.070000000000000007],[0.23000000000000001],[0.58999999999999997],[-0.46999999999999997],[-0.72999999999999998]],[[0.68999999999999995],[0.88]]],"weights":[[[0.62,0.80000000000000004,-0.39000000000000001],[0.85999999999999999,0.10000000000000001,-0.34000000000000002],[-0.059999999999999998,0.26000000000000001,-0.23999999999999999],[0.56000000000000005,-0.62,0.34999999999999998],[0.88,-0.20999999999999999,-0.68000000000000005],[-0.55000000000000004,0.93000000000000005,0.41999999999999998],[-0.28999999999999998,-0.01,-0.95999999999999996],[-0.58999999999999997,0.89000000000000001,0.070000000000000007],[0.37,-0.29999999999999999,0.67000000000000004],[-0.029999999999999999,0.12,0.17000000000000001],[-0.45000000000000001,0.040000000000000001,-0.59999999999999998],[-0.46000000000000002,0.96999999999999997,0.28999999999999998]],[[0.68000000000000005,0.26000000000000001,0.90000000000000002,0.40000000000000002,0.42999999999999999,0.44,-0.17999999999999999,0.45000000000000001,0.17000000000000001,-0.89000000000000001,0.40999999999999998,-0.68000000000000005],[0.63,-0.72999999999999998,0.98999999999999999,-0.01,-0.90000000000000002,0.84999999999999998,0.02,-0.040000000000000001,0.44,0.25,-0.080000000000000002,-0.34000000000000002],[-0.41999999999999998,0.60999999999999999,1.0,-0.46999999999999997,0.29999999999999999,-0.85999999999999999,0.81000000000000005,0.95999999999999996,0.73999999999999999,0.55000000000000004,0.73999999999999999,0.35999999999999999],[0.60999999999999999,-0.14000000000000001,-0.57999999999999996,-0.56999999999999995,-0.78000000000000003,-0.37,0.42999999999999999,-0.41999999999999998,-0.75,-0.76000000000000001,-0.79000000000000004,-0.20999999999999999],[0.40999999999999998,0.40999999999999998,0.93999999999999995,-0.5,-0.97999999999999998,-0.63,-0.68999999999999995,-0.35999999999999999,-0.040000000000000001,0.60999999999999999,-0.47999999999999998,0.68999999999999995],[0.070000000000000007,0.23000000000000001,-0.51000000000000001,-0.01,0.91000000000000003,-0.57999999999999996,-0.72999999999999998,-0.39000000000000001,0.23999999999999999,0.83999999999999997,0.70999999999999996,0.10000000000000001],[0.14999999999999999,-0.34000000000000002,0.56000000000000005,-0.059999999999999998,-0.66000000000000003,-0.40000000000000002,-0.34999999999999998,-0.19,-0.14000000000000001,-0.37,0.080000000000000002,-0.52000000000000002],[0.81999999999999995,-0.10000000000000001,0.29999999999999999,-0.20999999999999999,-0.85999999999999999,0.070000000000000007,0.25,-0.5,0.94999999999999996,0.59999999999999998,0.23999999999999999,0.87]],[[-0.63,-0.56999999999999995,0.88,-0.46999999999999997,0.81999999999999995,-0.23999999999999999,-0.55000000000000004,0.25],[0.66000000000000003,0.10000000000000001,0.01,-0.33000000000000002,0.34999999999999998,-0.029999999999999999,0.28999999999999998,0.080000000000000002]]]}
1;5.95;266.29;{"biases":[[[-0.70999999999999996],[0.66000000000000003],[-0.93000000000000005],[-0.85999999999999999],[-0.69999999999999996],[-0.82999999999999996],[0.77000000000000002],[-0.080000000000000002],[0.45000000000000001],[-0.37],[-0.81999999999999995],[0.57999999999999996]],[[-0.34999999999999998],[0.97999999999999998],[0.68999999999999995],[0.070000000000000007],[0.23000000000000001],[0.58999999999999997],[-0.46999999999999997],[-0.72999999999999998]],[[0.68999999999999995],[0.88]]],"weights":[[[0.62,0.80000000000000004,-0.39000000000000001],[0.85999999999999999,0.10000000000000001,-0.34000000000000002],[-0.059999999999999998,0.26000000000000001,-0.23999999999999999],[0.56000000000000005,-0.62,0.34999999999999998],[0.88,-0.20999999999999999,-0.68000000000000005],[-0.55000000000000004,0.93000000000000005,0.41999999999999998],[-0.28999999999999998,-0.01,-0.95999999999999996],[-0.58999999999999997,0.89000000000000001,0.070000000000000007],[0.37,-0.29999999999999999,0.67000000000000004],[-0.029999999999999999,0.12,0.17000000000000001],[-0.45000000000000001,0.040000000000000001,-0.59999999999999998],[-0.46000000000000002,0.96999999999999997,0.28999999999999998]],[[0.68000000000000005,0.26000000000000001,0.90000000000000002,0.40000000000000002,0.42999999999999999,0.44,-0.17999999999999999,0.45000000000000001,0.17000000000000001,-0.89000000000000001,0.40999999999999998,-0.68000000000000005],[0.63,-0.72999999999999998,0.98999999999999999,-0.01,-0.90000000000000002,0.84999999999999998,0.02,-0.040000000000000001,0.44,0.25,-0.080000000000000002,-0.34000000000000002],[-0.41999999999999998,0.60999999999999999,1.0,-0.46999999999999997,0.29999999999999999,-0.85999999999999999,0.81000000000000005,0.95999999999999996,0.73999999999999999,0.55000000000000004,0.73999999999999999,0.35999999999999999],[0.60999999999999999,-0.14000000000000001,-0.57999999999999996,-0.56999999999999995,-0.78000000000000003,-0.37,0.42999999999999999,-0.41999999999999998,-0.75,-0.76000000000000001,-0.79000000000000004,-0.20999999999999999],[0.40999999999999998,0.40999999999999998,0.93999999999999995,-0.5,-0.97999999999999998,-0.63,-0.68999999999999995,-0.35999999999999999,-0.040000000000000001,0.60999999999999999,-0.47999999999999998,0.68999999999999995],[0.070000000000000007,0.23000000000000001,-0.51000000000000001,-0.01,0.91000000000000003,-0.57999999999999996,-0.72999999999999998,-0.39000000000000001,0.23999999999999999,0.83999999999999997,0.70999999999999996,0.10000000000000001],[0.14999999999999999,-0.34000000000000002,0.56000000000000005,-0.059999999999999998,-0.66000000000000003,-0.40000000000000002,-0.34999999999999998,-0.19,-0.14000000000000001,-0.37,0.080000000000000002,-0.52000000000000002],[0.81999999999999995,-0.10000000000000001,0.29999999999999999,-0.20999999999999999,-0.85999999999999999,0.070000000000000007,0.25,-0.5,0.94999999999999996,0.59999999999999998,0.23999999999999999,0.87]],[[-0.63,-0.56999999999999995,0.88,-0.46999999999999997,0.81999999999999995,-0.23999999999999999,-0.55000000000000004,0.25],[0.66000000000000003,0.10000000000000001,0.01,-0.33000000000000002,0.34999999999999998,-0.029999999999999999,0.28999999999999998,0.080000000000000002]]]}
2;62.70;256.64;{"biases":[[[-0.47999999999999998],[0.53000000000000003],[-0.66000000000000003],[0.97999999999999998],[0.85999999999999999],[-0.39000000000000001],[0.53000000000000003],[0.79000000000000004],[0.11],[-0.44],[-0.33000000000000002],[-0.81999999999999995]],[[-0.92000000000000004],[-0.23000000000000001],[0.070000000000000007],[-0.35999999999999999],[0.089999999999999997],[0.93999999999999995],[-0.94999999999999996],[-0.77000000000000002]],[[-0.89000000000000001],[-0.12]]],"weights":[[[0.79000000000000004,-0.95999999999999996,0.72999999999999998],[-0.29999999999999999,-0.44,0.85999999999999999],[-0.70999999999999996,-0.95999999999999996,-0.85999999999999999],[-0.87,0.070000000000000007,-0.75],[0.17999999999999999,-0.32000000000000001,-0.01],[-0.68999999999999995,-0.73999999999999999,0.050000000000000003],[-0.81999999999999995,-0.47999999999999998,-0.69999999999999996],[0.42999999999999999,-0.68999999999999995,-0.34000000000000002],[-0.68999999999999995,0.80000000000000004,-0.68000000000000005],[-0.93999999999999995,-0.87,-0.56999999999999995],[0.65000000000000002,-0.46000000000000002,-0.75],[-0.34000000000000002,0.71999999999999997,0.88]],[[-0.42999999999999999,0.91000000000000003,-0.60999999999999999,0.070000000000000007,-0.57999999999999996,0.050000000000000003,0.46000000000000002,-0.029999999999999999,0.76000000000000001,-0.75,-0.5,-0.87],[0.87,0.82999999999999996,-0.38,0.48999999999999999,-0.60999999999999999,0.0,0.84999999999999998,0.75,0.02,-0.75,0.81999999999999995,-0.31],[0.97999999999999998,-0.93999999999999995,-0.02,-0.23000000000000001,0.12,0.72999999999999998,-0.83999999999999997,-0.029999999999999999,0.84999999999999998,-0.84999999999999998,-0.57999999999999996,-0.070000000000000007],[0.070000000000000007,-0.089999999999999997,-0.56999999999999995,0.58999999999999997,0.46000000000000002,0.39000000000000001,-0.37,0.070000000000000007,0.32000000000000001,-0.51000000000000001,0.44,0.27000000000000002],[0.35999999999999999,0.35999999999999999,0.57999999999999996,-0.26000000000000001,-0.60999999999999999,0.80000000000000004,-0.26000000000000001,0.82999999999999996,-0.84999999999999998,0.81999999999999995,-0.47999999999999998,-0.96999999999999997],[0.34000000000000002,-1.0,-0.94999999999999996,0.52000000000000002,-0.88,-0.95999999999999996,0.23000000000000001,-0.52000000000000002,0.22,-0.46999999999999997,-0.46000000000000002,0.95999999999999996],[-0.98999999999999999,0.82999999999999996,0.23000000000000001,-0.87,-0.92000000000000004,-0.20000000000000001,0.63,0.0,-0.23999999999999999,0.37,0.42999999999999999,-0.68999999999999995],[-0.059999999999999998,0.28000000000000003,0.83999999999999997,0.77000000000000002,-0.59999999999999998,-0.44,0.71999999999999997,-0.59999999999999998,-0.25,-0.81000000000000005,0.34999999999999998,0.28999999999999998]],[[-0.02,0.19,-0.70999999999999996,-0.78000000000000003,0.089999999999999997,-0.58999999999999997,0.050000000000000003,0.34000000000000002],[-0.33000000000000002,0.40000000000000002,0.20000000000000001,-0.54000000000000004,0.79000000000000004,0.72999999999999998,-0.97999999999999998,-0.41999999999999998]]]}
3;62.70;256.64;{"biases":[[[-0.47999999999999998],[0.53000000000000003],[-0.66000000000000003],[0.97999999999999998],[0.85999999999999999],[-0.39000000000000001],[0.53000000000000003],[0.79000000000000004],[0.11],[-0.44],[-0.33000000000000002],[-0.81999999999999995]],[[-0.92000000000000004],[-0.23000000000000001],[0.070000000000000007],[-0.35999999999999999],[0.089999999999999997],[0.93999999999999995],[-0.94999999999999996],[-0.77000000000000002]],[[-0.89000000000000001],[-0.12]]],"weights":[[[0.79000000000000004,-0.95999999999999996,0.72999999999999998],[-0.29999999999999999,-0.44,0.85999999999999999],[-0.70999999999999996,-0.95999999999999996,-0.85999999999999999],[-0.87,0.070000000000000007,-0.75],[0.17999999999999999,-0.32000000000000001,-0.01],[-0.68999999999999995,-0.73999999999999999,0.050000000000000003],[-0.81999999999999995,-0.47999999999999998,-0.69999999999999996],[0.42999999999999999,-0.68999999999999995,-0.34000000000000002],[-0.68999999999999995,0.80000000000000004,-0.68000000000000005],[-0.93999999999999995,-0.87,-0.56999999999999995],[0.65000000000000002,-0.46000000000000002,-0.75],[-0.34000000000000002,0.71999999999999997,0.88]],[[-0.42999999999999999,0.91000000000000003,-0.60999999999999999,0.070000000000000007,-0.57999999999999996,0.050000000000000003,0.46000000000000002,-0.029999999999999999,0.76000000000000001,-0.75,-0.5,-0.87],[0.87,0.82999999999999996,-0.38,0.48999999999999999,-0.60999999999999999,0.0,0.84999999999999998,0.75,0.02,-0.75,0.81999999999999995,-0.31],[0.97999999999999998,-0.93999999999999995,-0.02,-0.23000000000000001,0.12,0.72999999999999998,-0.83999999999999997,-0.029999999999999999,0.84999999999999998,-0.84999999999999998,-0.57999999999999996,-0.070000000000000007],[0.070000000000000007,-0.089999999999999997,-0.56999999999999995,0.58999999999999997,0.46000000000000002,0.39000000000000001,-0.37,0.070000000000000007,0.32000000000000001,-0.51000000000000001,0.44,0.27000000000000002],[0.35999999999999999,0.35999999999999999,0.57999999999999996,-0.26000000000000001,-0.60999999999999999,0.80000000000000004,-0.26000000000000001,0.82999999999999996,-0.84999999999999998,0.81999999999999995,-0.47999999999999998,-0.96999999999999997],[0.34000000000000002,-1.0,-0.94999999999999996,0.52000000000000002,-0.88,-0.95999999999999996,0.23000000000000001,-0.52000000000000002,0.22,-0.46999999999999997,-0.46000000000000002,0.95999999999999996],[-0.98999999999999999,0.82999999999999996,0.23000000000000001,-0.87,-0.92000000000000004,-0.20000000000000001,0.63,0.0,-0.23999999999999999,0.37,0.42999999999999999,-0.68999999999999995],[-0.059999999999999998,0.28000000000000003,0.83999999999999997,0.77000000000000002,-0.59999999999999998,-0.44,0.71999999999999997,-0.59999999999999998,-0.25,-0.81000000000000005,0.34999999999999998,0.28999999999999998]],[[-0.02,0.19,-0.70999999999999996,-0.78000000000000003,0.089999999999999997,-0.58999999999999997,0.050000000000000003,0.34000000000000002],[-0.33000000000000002,0.40000000000000002,0.20000000000000001,-0.54000000000000004,0.79000000000000004,0.72999999999999998,-0.97999999999999998,-0.41999999999999998]]]}
4;62.70;256.64;{"biases":[[[-0.47999999999999998],[0.53000000000000003],[-0.66000000000000003],[0.97999999999999998],[0.85999999999999999],[-0.39000000000000001],[0.53000000000000003],[0.79000000000000004],[0.11],[-0.44],[-0.33000000000000002],[-0.81999999999999995]],[[-0.92000000000000004],[-0.23000000000000001],[0.070000000000000007],[-0.35999999999999999],[0.089999999999999997],[0.93999999999999995],[-0.94999999999999996],[-0.77000000000000002]],[[-0.89000000000000001],[-0.12]]],"weights":[[[0.79000000000000004,-0.95999999999999996,0.72999999999999998],[-0.29999999999999999,-0.44,0.85999999999999999],[-0.70999999999999996,-0.95999999999999996,-0.85999999999999999],[-0.87,0.070000000000000007,-0.75],[0.17999999999999999,-0.32000000000000001,-0.01],[-0.68999999999999995,-0.73999999999999999,0.050000000000000003],[-0.81999999999999995,-0.47999999999999998,-0.69999999999999996],[0.42999999999999999,-0.68999999999999995,-0.34000000000000002],[-0.68999999999999995,0.80000000000000004,-0.68000000000000005],[-0.93999999999999995,-0.87,-0.56999999999999995],[0.65000000000000002,-0.46000000000000002,-0.75],[-0.34000000000000002,0.71999999999999997,0.88]],[[-0.42999999999999999,0.91000000000000003,-0.60999999999999999,0.070000000000000007,-0.57999999999999996,0.050000000000000003,0.46000000000000002,-0.029999999999999999,0.76000000000000001,-0.75,-0.5,-0.87],[0.87,0.82999999999999996,-0.38,0.48999999999999999,-0.60999999999999999,0.0,0.84999999999999998,0.75,0.02,-0.75,0.81999999999999995,-0.31],[0.97999999999999998,-0.93999999999999995,-0.02,-0.23000000000000001,0.12,0.72999999999999998,-0.83999999999999997,-0.029999999999999999,0.84999999999999998,-0.84999999999999998,-0.57999999999999996,-0.070000000000000007],[0.070000000000000007,-0.089999999999999997,-0.56999999999999995,0.58999999999999997,0.46000000000000002,0.39000000000000001,-0.37,0.070000000000000007,0.32000000000000001,-0.51000000000000001,0.44,0.27000000000000002],[0.35999999999999999,0.35999999999999999,0.57999999999999996,-0.26000000000000001,-0.60999999999999999,0.80000000000000004,-0.26000000000000001,0.82999999999999996,-0.84999999999999998,0.81999999999999995,-0.47999999999999998,-0.96999999999999997],[0.34000000000000002,-1.0,-0.94999999999999996,0.52000000000000002,-0.88,-0.95999999999999996,0.23000000000000001,-0.52000000000000002,0.22,-0.46999999999999997,-0.46000000000000002,0.95999999999999996],[-0.98999999999999999,0.82999999999999996,0.23000000000000001,-0.87,-0.92000000000000004,-0.20000000000000001,0.63,0.0,-0.23999999999999999,0.37,0.42999999999999999,-0.68999999999999995],[-0.059999999999999998,0.28000000000000003,0.83999999999999997,0.77000000000000002,-0.59999999999999998,-0.44,0.71999999999999997,-0.59999999999999998,-0.25,-0.81000000000000005,0.34999999999999998,0.28999999999999998]],[[-0.02,0.19,-0.70999999999999996,-0.78000000000000003,0.089999999999999997,-0.58999999999999997,0.050000000000000003,0.34000000000000002],[-0.33000000000000002,0.40000000000000002,0.20000000000000001,-0.54000000000000004,0.79000000000000004,0.72999999999999998,-0.97999999999999998,-0.41999999999999998]]]}
5;95.40;281.90;{"biases":[[[-0.26000000000000001],[-0.050000000000000003],[0.92000000000000004],[0.17999999999999999],[-0.90000000000000002],[0.28999999999999998],[-0.20000000000000001],[-0.44],[-0.84999999999999998],[-0.28000000000000003],[0.66000000000000003],[-0.80000000000000004]],[[0.20000000000000001],[-0.70999999999999996],[0.14000000000000001],[0.48999999999999999],[-0.56000000000000005],[-0.70999999999999996],[-0.75],[-0.40000000000000002]],[[-0.29999999999999999],[0.17000000000000001]]],"weights":[[[-0.050000000000000003,0.40000000000000002,0.85999999999999999],[0.17000000000000001,-0.68999999999999995,0.47999999999999998],[-0.93999999999999995,0.44,0.58999999999999997],[0.14999999999999999,0.90000000000000002,0.73999999999999999],[0.44,-0.31,-0.81000000000000005],[-0.71999999999999997,-0.88,0.34000000000000002],[-0.13,0.88,-0.81000000000000005],[-0.32000000000000001,0.01,0.050000000000000003],[-0.69999999999999996,0.91000000000000003,-0.32000000000000001],[-0.42999999999999999,-0.17000000000000001,-0.71999999999999997],[-0.77000000000000002,-0.95999999999999996,-0.40999999999999998],[0.79000000000000004,0.79000000000000004,0.64000000000000001]],[[-0.38,0.67000000000000004,-0.28999999999999998,0.60999999999999999,-0.83999999999999997,-0.88,0.0,-0.88,0.050000000000000003,-0.070000000000000007,-0.46000000000000002,0.68000000000000005],[-0.62,0.17999999999999999,-0.62,0.13,-0.02,-0.52000000000000002,0.38,-0.28000000000000003,-0.78000000000000003,-0.91000000000000003,-0.35999999999999999,0.76000000000000001],[0.28000000000000003,0.67000000000000004,0.67000000000000004,1.0,0.58999999999999997,0.16,0.34999999999999998,1.0,-0.40999999999999998,-0.60999999999999999,-1.0,-0.31],[-0.93000000000000005,1.0,0.26000000000000001,-0.51000000000000001,-0.67000000000000004,-0.01,0.71999999999999997,0.76000000000000001,-0.65000000000000002,-0.68999999999999995,1.0,-0.33000000000000002],[-1.0,0.73999999999999999,0.44,-0.75,-0.57999999999999996,0.95999999999999996,0.97999999999999998,-0.01,-0.40999999999999998,1.0,-0.23999999999999999,-0.98999999999999999],[-0.55000000000000004,0.22,-0.46000000000000002,0.14000000000000001,0.17999999999999999,-0.29999999999999999,0.23999999999999999,-0.32000000000000001,0.72999999999999998,-0.46000000000000002,-0.38,0.25],[-0.79000000000000004,-0.11,-1.0,-0.14000000000000001,0.20000000000000001,-0.34999999999999998,0.42999999999999999,-0.90000000000000002,0.34999999999999998,0.83999999999999997,0.90000000000000002,-0.11],[0.56000000000000005,0.25,0.31,-0.67000000000000004,0.68000000000000005,-0.65000000000000002,-0.68999999999999995,-0.23999999999999999,0.51000000000000001,0.73999999999999999,-0.60999999999999999,-0.19]],[[0.63,1.0,0.10000000000000001,-0.45000000000000001,-1.0,-0.54000000000000004,-0.77000000000000002,-0.34000000000000002],[-0.12,-0.64000000000000001,-0.070000000000000007,0.59999999999999998,-0.82999999999999996,-1.0,-0.98999999999999999,0.16]]]}
